0.050307,-0.11141,0.18447,-0.041414,-0.074141,-0.081377,-0.0075245,0.14519,0.012957,-0.13794,-0.033399,0.022454,-0.012372,0.19514,0.12043,-0.010494,-0.098048,0.17086,-0.16145,-0.10094,-0.025472,0.10337,-0.044283,-0.045269,0.024368,-0.00086862,0.052186,-0.060765,0.1102,0.018464,0.13614,-0.028721,-0.06901,0.046288,-0.13733,-0.048654,0.081479,-0.022124,0.096326,-0.083371,0.052282,-0.11154,0.055298,0.057127,-0.11842,-0.13355,-0.0031446,-0.026863,0.054735,-0.037431,-0.036576,-0.029096,-0.064162,-0.29431,-0.034796,-0.23274,-0.00915,-0.18115,-0.018805,0.063941,-0.012831,0.11475,-0.031017,-0.11862,-0.0083623,0.039987,0.0649,-0.04811,-0.19507,-0.11649,-0.1395,-0.086331,-0.11845,-0.13671,-0.096178,-0.0073613,0.04654,-0.11049,0.014906,-0.074455,-0.045972,-0.18469,0.090435,-0.096842,0.0344,-0.14764,-0.16003,0.026804,-0.063731,0.027223,-0.025169,0.099319,0.16593,-0.1891,-0.12244,-0.13251,-0.27126,-0.22661,-0.35051,-0.40838,-0.44426,-0.62996,-0.36794,-0.31052,-0.32221,-0.22949,-0.018293,-0.001855,0.037512,0.013894,0.077955,-0.20702,0.061526,-0.022589,-0.19465,-0.10543,-0.086394,-0.091518,-0.14806,-0.020048,-0.20982,-0.30239,-0.32135,-0.25907,-0.14794,-0.13464,-0.26143,-0.071767,-0.18505,-0.19754,-0.32026,-0.42179,-0.31785,-0.1665,-0.051761,-0.014889,-0.072509,0.030102,-0.12206,-0.068733,-0.06902,0.048883,-0.16813,0.052181,-0.21565,-0.11275,-0.27641,-0.36965,-0.36432,-0.32222,-0.1561,0.028975,-0.074462,-0.076035,0.0029803,-0.039257,0.065615,0.24596,-0.015559,-0.17407,-0.28857,-0.062287,-0.016377,0.0069029,0.11749,-0.13351,-0.021744,0.025725,-0.038786,0.074291,0.079498,-0.052275,-0.13587,-0.38326,-0.22117,-0.38416,-0.25616,-0.099474,0.038538,0.073411,0.12416,0.0074925,-0.16088,-0.19849,-0.22954,0.12452,0.083622,0.095351,-0.1469,-0.10722,0.19423,0.099616,0.072926,-0.15958,-0.081154,-0.14829,-0.054938,-0.024287,0.07532,-0.23703,0.047235,-0.21333,-0.38758,-0.21963,-0.30811,0.023435,0.28519,0.46385,0.19854,-0.0055716,-0.17992,-0.18379,0.05419,0.10536,0.33152,0.103,0.0038643,0.086903,0.32925,0.40812,0.046395,0.024845,0.28748,-0.064132,-0.053347,-0.0070772,-0.024876,-0.24943,-0.30172,-0.084455,-0.17802,-0.10761,-0.15559,-0.010078,0.29635,0.48386,0.20331,0.18055,-0.30641,-0.46309,-0.21112,0.020574,0.34696,0.18302,0.24048,0.037026,0.35952,0.47555,0.54914,0.3564,0.06813,0.0086531,-0.077014,5.6618e-06,-0.038871,0.068365,-0.044427,-0.23843,0.051403,-0.13075,-0.091547,0.27267,0.38192,0.70967,0.40412,-0.061386,-0.48632,-0.8709,-0.52581,-0.21583,0.059167,-0.12563,-0.047232,0.26384,-0.14032,0.40941,0.16055,0.11266,0.13376,0.082644,0.067115,0.21819,-0.092672,-0.17672,0.010521,-0.044254,-0.11282,-0.13877,0.10265,0.6095,0.56929,0.59977,0.65967,0.26287,-0.23196,-0.63379,-0.67848,-0.22002,-0.39389,-0.00073975,-0.30677,0.10843,-0.17404,0.16556,0.35799,0.11473,-0.16743,0.023014,0.12358,0.057524,-0.023275,-0.051737,-0.011142,-0.16589,-0.077979,-0.044289,0.21941,0.014577,0.15173,0.60774,0.51774,0.44186,-0.16874,-0.58035,-0.44298,-0.34859,-0.28041,-0.16618,-0.15182,-0.11491,0.091998,0.12695,0.24218,0.31053,-0.0094372,-0.029506,-0.011807,-0.11932,-0.043464,-0.014143,0.048022,-0.056793,-0.044827,-0.064222,-0.0045471,0.10927,0.092925,0.32473,0.73715,0.69193,0.00020473,-0.52473,-0.49767,-0.0043649,-0.10721,0.10111,-0.19496,-0.0391,-0.041001,0.11341,0.074916,0.18718,0.17783,0.1807,0.046316,-0.02986,0.042246,-0.047946,-0.1724,-0.0072282,-0.12114,-0.020331,-0.20376,-0.39954,0.11565,0.24519,0.4666,0.25228,-0.0078189,-0.3005,-0.32324,-0.42887,-0.27879,0.035015,0.033511,-0.08016,-0.11673,-0.18102,0.17334,0.12233,-0.10092,-0.016831,-0.089052,0.01308,0.047184,0.11531,0.00017568,0.001461,-0.21492,-0.38824,-0.36985,-0.20505,-0.029632,0.031636,0.25818,0.10699,-0.30894,-0.55443,-0.3034,-0.28611,-0.29359,-0.3032,-0.4038,-0.22152,-0.32343,-0.040126,0.0017535,0.091339,-0.16018,-0.080047,-0.10241,-0.11745,0.015462,0.091371,0.048836,0.0012165,-0.31508,-0.36178,-0.43482,-0.077392,-0.27476,0.031418,0.010831,-0.29819,-0.53254,-0.50615,-0.4246,-0.47439,-0.42378,-0.10004,-0.42556,-0.26944,-0.41331,-0.12461,0.076298,0.0013513,0.12339,-0.077104,0.079906,0.12397,-0.037572,0.016384,-0.058578,-0.12761,-0.3726,-0.45801,-0.29023,-0.075339,-0.013746,0.059882,0.16194,-0.28135,-0.50243,-0.35048,-0.39557,-0.28257,-0.45294,-0.33851,-0.25622,-0.19669,-0.21738,-0.086592,0.038759,0.052007,0.07437,-0.082733,0.015245,-0.1211,0.033464,-0.13688,-0.16178,-0.0054358,-0.1213,-0.38346,-0.23018,0.29791,0.25943,0.15046,-0.037073,-0.15614,-0.32945,-0.29013,-0.22137,-0.24254,-0.20962,-0.26653,-0.12931,-0.15755,-0.21845,0.024705,0.21505,-0.0077914,-0.011767,-0.056049,-0.063315,-0.27841,-0.046414,-0.0092403,-0.30715,-0.092503,0.28112,-0.13263,0.020053,0.523,0.16894,0.12272,0.0066197,-0.32168,-0.41141,-0.39384,-0.49814,-0.15184,-0.068411,-0.036375,-0.08822,-0.18807,-0.13106,-0.084206,0.040161,-0.02181,-0.099453,-0.070261,0.099363,-0.050256,-0.051893,-0.10564,-0.11778,-0.22446,-0.053165,0.1046,0.36468,0.35145,0.38016,0.26596,-0.31476,-0.20478,-0.36903,-0.087054,-0.12609,-0.12632,-0.17012,-0.2013,-0.24388,-0.30379,0.015947,-0.13675,0.11059,-0.10406,0.1317,-0.017354,-0.1308,-0.011952,0.2074,-0.10133,-0.27098,-0.03718,-0.010707,0.27817,0.09347,0.23078,0.35394,0.38343,-0.04305,-0.49601,-0.43858,-0.3707,-0.2103,-0.075709,-0.38057,-0.27114,-0.2386,-0.3659,-0.068086,-0.12647,0.063906,-0.11896,0.12891,-0.18685,-0.025337,-0.038306,-0.02835,-0.042811,-0.07052,-0.074656,-0.011526,-0.011767,0.1298,0.14542,0.19134,0.039802,-0.12054,-0.25827,-0.27639,-0.33505,-0.08532,-0.23307,-0.26228,-0.24647,-0.17314,-0.12831,0.095307,0.0017793,-0.0099649,0.15547,0.093969,0.03841,0.031481,-0.023628,0.041643,0.012807,-0.19597,-0.28534,-0.18986,-0.07014,0.17724,0.012676,-0.051264,0.33691,0.25051,0.11364,-0.10008,-0.093171,-0.14046,-0.18919,-0.19781,-0.40107,-0.11069,0.091164,-0.014178,-0.070434,0.055503,-0.0035998,0.15439,0.033409,0.087998,-0.0084102,-0.0531,-0.083467,-0.21013,-0.060317,-0.31262,-0.25907,-0.0311,-0.071139,0.24836,0.35719,0.28669,0.54224,0.37339,-0.0032758,-0.12226,-0.323,-0.35475,-0.35083,-0.19995,-0.034515,0.12069,0.20196,0.083131,0.096576,-0.015401,0.039626,0.030972,-0.13197,0.024382,0.021329,-0.067891,-0.17677,-0.25101,-0.22894,-0.11481,0.065427,-0.26662,0.10142,0.10454,0.29388,0.34931,0.13333,0.012106,0.032005,0.072672,0.066806,-0.094185,0.13843,0.1553,-0.0054671,0.049445,0.029618,-0.19794,-0.024961,-0.11325,0.14314,-0.18274,0.032496,-0.031903,-0.17243,-0.060681,-0.41404,-0.028561,-0.29799,-0.2646,-0.14919,-0.192,0.21036,-0.057148,0.15362,-0.025112,-0.092001,-0.023069,-0.010782,-0.21009,-0.10173,0.064889,0.082318,-0.095547,0.10618,0.080799,-0.16589,-0.016651,-0.027563,-0.043569,-0.067729,-0.083834,-0.097822,-0.096111,-0.082861,-0.079174,-0.17519,-0.060728,-0.1945,-0.24441,-0.27284,-0.2638,0.012518,-0.040026,0.058988,-0.045259,-0.11098,0.022311,0.14056,-0.084455,0.099497,-0.051191,0.088124,-0.0061921,-0.1221,-0.0044888,-0.085201,0.079581,0.067288,-0.0074872,-0.012713,-0.071118,0.023431,-0.12972,-0.083913,-0.008722,0.0084591,0.067598,-0.0032295,0.17252,-0.046928,-0.14461,0.0042882,-0.14165,-0.13031,-0.075255,0.062273,-0.098193,0.075387,-0.034382,-0.023197,-0.1128,-0.06104
0.060288,-0.05566,0.072854,0.044514,0.053584,-0.10699,0.14463,-0.017561,-0.1547,0.073908,-0.049959,0.017509,0.1093,-0.079751,0.14918,0.058141,-0.071676,-0.094456,0.11733,-0.026783,-0.048615,0.013728,-0.086873,0.14659,0.0050781,-0.15286,-0.047074,0.10186,-0.056508,0.069192,0.059885,-0.11672,0.13554,-0.099178,0.10592,-0.11896,0.040092,0.13348,0.14697,-0.0074942,0.029737,0.062141,-0.036271,-0.15402,0.094866,0.0031119,0.11243,0.052986,-0.094768,0.084765,-0.051407,-0.073645,0.030556,-0.070343,-0.085471,0.017975,0.027336,0.15303,0.090918,-0.024122,-0.012734,-0.341,0.0014646,0.024638,0.02592,-0.12237,-0.10049,-0.12015,0.061957,0.16865,-0.042488,-0.033439,-0.054173,0.0057482,0.11812,0.04204,0.11388,0.046588,0.11304,-0.12372,0.0080738,-0.038666,0.067198,0.10105,0.072513,-0.0075289,0.13535,-0.20422,-0.077512,-0.10234,-0.010423,-0.17317,0.023461,-0.23991,-0.088182,-0.20037,-0.19543,-0.35543,-0.11785,-0.23495,-0.2554,-0.062538,-0.043105,0.06217,0.063711,0.016344,0.075826,0.18189,0.045855,0.067556,0.039461,0.10944,0.01769,-0.22389,0.16238,-0.18262,-0.14346,-0.0082921,-0.067917,-0.26104,-0.39534,-0.25305,-0.29105,-0.24151,-0.41381,-0.41258,-0.37358,-0.28965,-0.078906,0.011676,0.027513,-0.042124,0.090935,0.35323,0.12949,0.076851,0.044082,-0.025578,0.20462,-0.13371,-0.10402,-0.14981,0.00044508,0.069431,0.0019205,-0.22011,-0.29011,-0.18648,-0.11145,-0.192,-0.23629,-0.10133,-0.18503,-0.2687,-0.10664,-0.026649,-0.034533,0.39727,0.19726,0.12854,0.34725,0.42992,0.44204,0.4093,0.17331,0.024018,0.17909,-0.058096,0.10324,0.11297,-0.029737,0.024315,-0.0021231,-0.28667,-0.28696,-0.17592,-0.19802,0.084001,-0.12634,-0.054059,-0.23567,-0.31017,-0.19351,-0.10005,-0.29239,-0.14946,-0.22738,0.085329,0.10058,0.32483,0.46964,0.53196,0.24701,0.044695,0.06983,-0.075429,0.1175,0.045427,-0.0026522,-0.19466,-0.08372,-0.21242,-0.32263,-0.14542,0.1306,0.03452,-0.090192,-0.27347,-0.41493,-0.34396,-0.23135,-0.18338,-0.34615,-0.31368,-0.20508,-0.40498,-0.25078,0.07697,0.48721,0.61436,0.57436,0.14585,0.055568,0.078844,-0.11801,-0.018548,0.13542,-0.14048,-0.19591,-0.16164,0.14565,0.083101,0.26975,0.25617,0.21779,0.18069,-0.065911,-0.39367,-0.20964,-0.29094,-0.36612,-0.28622,-0.32176,-0.27688,-0.25819,-0.038003,0.21156,0.40892,0.50457,0.41535,-0.014219,0.04563,-0.20723,0.10607,0.1087,0.10773,-0.25823,0.047248,-0.082758,-0.012437,0.19392,0.49541,0.29767,0.35058,0.1097,-0.047053,-0.30394,-0.55852,-0.14865,-0.2012,-0.33649,-0.1577,-0.41613,-0.10173,0.18879,0.45973,0.32176,-0.037775,-0.044728,0.14624,-0.26091,0.011799,0.069606,-0.16864,-0.1101,0.10921,0.05091,0.13081,0.38141,0.61839,0.4784,0.36079,0.34986,0.23524,-0.45248,-0.22383,-0.26433,-0.11757,-0.31014,-0.22613,-0.30314,-0.31181,0.024231,0.13976,0.27702,0.10731,-0.085876,-0.12191,0.070962,0.017545,-0.15919,-0.030981,-0.11654,-0.27621,0.08247,-0.097329,-0.093141,0.437,0.50628,0.58855,0.91602,0.43027,-0.61456,-0.5933,-0.39204,-0.36163,-0.057592,-0.023232,-0.43452,-0.4085,-0.25985,0.06425,0.17515,0.071479,0.021028,-0.0478,-0.18177,-0.097438,-0.013139,-0.078017,-0.23571,-0.40293,-0.058136,0.063001,0.024851,0.13075,0.35924,0.82609,1.0233,0.29408,-0.6187,-0.36735,-0.051194,-0.26913,-0.072585,-0.31184,-0.46916,-0.29199,-0.37963,0.01802,0.075829,-0.10022,0.03468,-0.13395,0.12763,0.0034901,0.28376,-0.085037,-0.22291,-0.09015,0.19159,-0.025878,0.04827,0.074666,0.34531,0.90476,0.7642,-0.22876,-0.8196,-0.41115,-0.4788,-0.4653,-0.14255,-0.38609,-0.30398,-0.23557,0.035778,0.11988,0.18986,0.20255,-0.028589,-0.0035739,-0.1039,-0.027556,0.18995,-0.0074491,-0.122,-0.1852,-0.092894,-0.10338,0.14979,0.091673,0.58054,0.46021,0.35367,-0.30623,-0.49052,-0.41942,-0.28892,-0.48247,-0.44865,-0.43575,-0.23653,-0.024289,0.35301,0.18555,0.08484,-0.02337,0.067011,0.033874,0.044805,-0.016618,-0.069951,-0.22106,-0.1012,-0.10275,-0.12822,0.098228,0.41517,0.54206,0.54557,0.49025,0.24807,-0.481,-0.25223,-0.31534,-0.58937,-0.30532,-0.18559,-0.17526,0.16829,0.25361,0.27002,0.34292,0.013847,-0.122,0.19433,0.038945,-0.16483,0.07572,-0.16961,-0.22485,-0.15628,-0.22184,0.091448,0.11837,0.31658,0.24067,0.34787,-0.035926,-0.13073,-0.25615,-0.36859,-0.12187,-0.29139,-0.21855,-0.070791,0.30211,0.039184,0.15015,0.017843,0.38878,0.29699,0.079428,-0.14344,-0.032433,0.058144,0.0036269,-0.10084,-0.034117,-0.017755,-0.21738,0.29234,0.29578,0.62497,0.40828,0.3801,0.33694,-0.23196,0.017147,-0.15586,-0.29113,-0.17904,0.052657,0.27785,0.2306,0.13068,0.045682,-0.094465,0.028842,0.13933,-0.048711,-0.1464,0.16378,-0.1869,0.10712,0.1054,-0.10113,0.065299,0.22409,0.30853,0.22674,0.2439,0.63426,0.2714,0.20517,0.15386,0.25043,-0.23591,0.0091243,-0.015951,0.15498,0.16006,0.044488,-0.056716,-0.2226,-0.23373,-0.2179,-0.012324,0.0079252,-0.07482,0.14084,-0.00073305,0.13892,-0.061612,-0.10379,-0.059794,0.05823,0.068993,0.023396,0.19305,0.52395,0.46374,0.43536,0.25287,0.10697,-0.13082,0.027962,-0.022358,-0.14047,0.06686,-0.1243,-0.22377,-0.35098,-0.25595,-0.080907,-0.13011,-0.18006,-0.12028,0.0073681,0.041163,-0.18643,0.14605,-0.11252,-0.16462,0.064925,0.0098868,0.051855,0.10708,0.35164,0.32782,0.48159,0.50976,0.20726,0.10079,-0.048933,-0.008603,0.13628,0.058471,-0.32663,-0.26787,-0.21342,-0.13076,-0.21793,-0.19441,0.040257,-0.0013401,-0.065169,0.088744,0.012087,0.021006,-0.17068,-0.29387,-0.19207,-0.15774,-0.056119,0.094384,0.10522,0.058396,0.3948,0.51535,0.43839,0.33683,0.24469,-0.031028,-0.04787,-0.12422,-0.11867,-0.13771,0.059014,-0.076622,-0.089267,-0.26083,-0.36604,-0.018419,-0.2003,0.12454,0.098671,0.060708,-0.041104,-0.2241,-0.19801,-0.079534,-0.18278,-0.018842,-0.007712,0.16516,0.24783,0.38186,0.48267,0.062628,0.29012,0.1439,-0.10914,-0.166,-0.026555,-0.10408,0.0032114,0.053081,-0.13776,-0.083831,0.20534,-0.20819,0.097718,0.0020342,-0.0050491,-0.01364,-0.12843,-0.13782,-0.1672,-0.12966,-0.19073,0.045222,0.14884,0.29135,0.35627,0.26077,0.22662,0.33889,0.25969,0.15136,0.22386,-0.045661,-0.0422,-0.08388,-0.042421,-0.10761,-0.13769,-0.075118,0.055315,0.089643,0.032236,-0.083236,-0.030758,-0.0050406,-0.037624,-0.093476,-0.10308,-0.094402,-0.28109,-0.28473,-0.16638,-0.16382,0.025519,-0.16562,0.11936,-0.004609,-0.19927,0.076003,-0.072998,0.010334,0.034762,-0.031963,-0.23916,-0.23273,-0.083996,-0.095056,-0.058369,0.090799,-0.052043,0.050186,-0.13905,-0.13947,0.12466,0.034965,-0.011195,-0.031736,-0.20236,-0.34492,-0.40808,-0.26382,-0.3685,-0.37712,-0.39283,-0.27922,-0.31712,0.014538,-0.14413,-0.15583,-0.11174,-0.10456,-0.089703,-0.058674,-0.012537,-0.13039,0.13521,-0.014548,-0.20109,-0.10163,0.014572,0.022428,-0.21517,-0.0063179,-0.070597,0.021538,-0.081905,0.0099232,-0.10025,0.10393,-0.22528,-0.16447,-0.16966,-0.35133,-0.2449,-0.11565,-0.15275,-0.098948,-0.23706,-0.18044,-0.042853,-0.10715,0.18934,-0.060824,-0.077199,0.01606,0.04491,-0.2432,-0.069848,-0.049989,-0.028587,0.0068641,-0.14497,0.082764,0.025202,-0.047679,0.044617,-0.085222,-0.10107,-0.056368,0.051755,-0.20147,0.034509,-0.094513,-0.23917,0.10087,-0.040748,-0.13094,-0.11914,0.035019,-0.13091,-0.082011,0.24521,-0.020514,-0.022591
0.10884,0.011825,-0.062515,0.020102,0.060766,0.15888,0.034008,0.053885,0.078642,-0.17157,0.10303,0.014091,0.053112,-0.014292,-0.026693,-0.11444,-0.084102,0.07994,-0.031077,-0.14853,-0.042816,-0.0032497,0.015543,-0.10402,-0.0095915,0.028846,0.020648,0.0068406,0.03658,0.030701,-0.030561,0.09846,-0.097654,-0.16173,0.054357,0.037011,-0.12416,-0.036419,-0.0055857,0.1476,0.006864,-0.061157,0.0047978,-0.10085,-0.053226,0.23444,0.10229,0.13238,-0.0066881,-0.030095,-0.060274,-0.023094,0.035892,-0.00078869,-0.010527,-0.026159,0.079453,0.11132,-0.065823,0.16817,0.035768,0.057507,-0.065991,-0.010833,-0.03739,0.091189,-0.010761,0.048499,0.076189,-0.28751,-0.0011266,-0.17155,-0.028505,-0.11767,0.025941,-0.10725,0.0844,0.13187,0.12277,0.014084,-0.11077,0.12101,0.032525,0.015243,0.027718,-0.023705,0.15796,-0.13659,0.066485,0.11854,-0.16882,-0.20021,-0.003704,-0.014082,-0.17007,-0.14603,0.019349,-0.040454,0.014378,-0.20918,0.019145,-0.036734,0.044448,-0.070176,-0.10037,0.0030016,-0.11252,-0.027188,0.17348,0.082628,-0.030454,-0.069456,0.010111,0.12633,-0.19757,-0.1376,0.051274,-0.1145,-0.011584,-0.12056,0.11869,-0.058323,-0.088495,0.078019,-0.047368,0.071279,0.13039,0.14465,0.15673,-0.018769,0.12301,0.07018,0.22061,-0.022981,0.10467,0.16172,0.025597,-0.050579,0.024963,-0.11556,0.10495,0.027046,0.037946,-0.056315,-0.011118,-0.025356,-0.15435,-0.032225,0.18857,0.13308,0.27691,0.30191,0.20974,0.18775,0.032506,0.27663,0.05579,0.2802,0.22209,-0.040893,0.1225,-0.12365,0.173,0.089017,-0.02558,-0.069121,-0.087794,0.0050889,-0.2194,0.046965,0.09779,-0.0098698,0.052907,-0.056602,0.14921,0.0074589,0.2071,0.19544,0.20271,0.11025,0.10302,0.050191,0.27018,0.17793,0.12318,-0.16006,0.16218,0.03319,-0.019387,-0.059377,0.01783,-0.09756,0.064241,0.0032616,0.061672,-0.037473,-0.15979,0.14992,-0.26278,-0.036295,-0.15735,0.034773,0.12552,-0.17091,0.23145,0.12251,0.07679,0.12328,0.067028,0.20585,0.040422,0.099477,-0.049962,-0.12277,0.099334,-0.010488,-0.10324,-0.15704,-0.13155,-0.20463,0.0036848,-0.064647,-0.070752,-0.026417,0.050929,-0.03801,-0.097293,-0.20755,-0.081911,-0.053179,0.021695,0.075092,0.22798,0.029157,0.036944,0.059534,-0.28863,0.0051457,0.044822,-0.061651,-0.091153,-0.30761,-0.15437,-0.043201,0.0005258,-0.05254,-0.13658,-0.17724,0.053101,0.064793,0.00019737,-0.10754,-0.11607,0.1268,-0.11074,-0.17407,0.0028876,0.17424,-0.083213,0.1554,-0.1434,-0.079202,-0.040628,-0.045035,-0.37859,-0.23148,-0.26317,-0.045917,-0.18625,-0.11371,-0.0071368,-0.16046,-0.20854,-0.16326,-0.21694,-0.35834,-0.27895,0.014098,-0.008234,0.021686,0.089825,-0.10293,0.1035,0.15706,-0.057657,0.019692,0.049919,0.020972,0.032702,-0.085075,-0.17204,-0.3306,-0.32403,-0.37943,-0.23117,-0.078075,-0.29406,-0.027953,-0.13181,0.041214,-0.26229,-0.1267,-0.4576,-0.1137,-0.10511,0.042519,-0.17283,-0.015607,-0.054838,0.11775,0.1466,-0.22784,-0.27268,0.20523,0.19408,0.10131,-0.40614,-0.21232,-0.40962,-0.38673,-0.64403,-0.5847,-0.47976,-0.31665,0.023497,-0.061776,-0.067388,0.059453,-0.066492,0.095044,-0.39485,-0.22616,-0.19901,-0.091586,0.0084122,0.0066303,0.097657,0.13827,-0.02967,0.069159,0.12757,-0.13417,-0.15693,-0.046742,-0.17417,-0.51034,-0.30302,-0.35854,-0.57356,-0.18345,-0.36212,-0.20471,-0.10404,-0.056205,0.11355,-0.083195,-0.077424,-0.27995,-0.27185,-0.29155,0.023663,-0.11263,0.07205,-0.02144,-0.060852,-0.15112,0.047017,-0.099721,0.083729,0.061609,-0.071449,-0.15379,-0.38601,-0.21265,-0.33792,-0.096791,-0.63577,-0.36,-0.34694,-0.40774,-0.24368,-0.23735,0.17328,0.035087,-0.031893,-0.045087,-0.1603,-0.14612,-0.18686,0.010791,-0.026575,-0.060414,0.071525,0.023124,-0.099839,0.057946,-0.069613,-0.21216,0.074835,-0.1717,-0.33168,-0.27414,-0.37114,-0.27385,-0.26166,-0.16538,-0.46886,-0.19585,-0.025872,-0.16094,-0.06003,-0.2789,-0.12572,-0.24433,-0.12046,0.008349,-0.13704,-0.10473,-0.13304,0.0024793,-0.089011,0.06759,-0.10636,-0.096515,-0.035788,-0.10867,-0.13447,-0.068993,-0.081689,-0.21375,-0.16866,-0.16378,-0.22395,-0.19759,-0.1345,-0.23727,-0.17188,-0.23276,-0.025546,-0.20015,-0.15492,-0.24655,-0.32948,-0.18087,-0.026362,-0.068592,-0.076536,0.017107,-0.033162,0.14957,-0.056046,-0.10712,-0.17968,-0.11679,-0.052468,-0.21769,-0.17332,-0.17165,-0.18661,-0.23433,0.09976,-0.015519,-0.10102,-0.12212,-0.13964,-0.30888,-0.1822,-0.10235,-0.22998,-0.25155,-0.18115,-0.14846,-0.0019592,-0.017651,-0.14075,-0.009396,0.03392,-0.13241,0.047327,-0.1188,-0.035397,-0.10975,-0.30198,-0.064381,0.053402,-0.035959,0.015556,0.10734,0.14747,-0.0052968,0.16096,-0.11691,-0.23249,-0.22789,-0.37092,-0.2682,-0.091596,-0.2086,-0.18061,-0.0013204,-0.184,0.19809,0.24073,0.12975,-0.017051,0.098771,-0.046262,0.0056617,0.047463,0.095192,-0.053189,-0.049517,0.0096274,0.034658,0.25122,0.19469,0.04951,0.17903,-0.078843,-0.14537,-0.31987,-0.28324,-0.25153,-0.17787,-0.15851,-0.1919,-0.15781,0.33682,0.33902,0.11876,-0.059235,0.13,0.019626,-0.0037508,-0.1425,0.094783,-0.0779,0.013901,-0.10423,-0.036121,-0.091184,0.10166,0.24052,0.2655,0.14625,0.21302,0.085849,-0.24785,0.0037119,0.061101,0.0036564,-0.045534,0.081384,0.1585,0.053072,0.090212,0.24386,0.13572,-0.17687,0.26516,0.13409,-0.072513,-0.1445,0.075095,0.023938,0.087304,0.02682,-0.075544,0.12507,-0.15172,0.092006,0.18915,0.4248,0.10616,0.15413,-0.045803,0.039662,0.084962,0.063568,0.27386,0.13424,0.10253,0.20195,0.074183,0.12938,0.051653,-0.28122,0.1504,-0.12245,-0.027668,-0.11601,0.032235,0.04775,0.060672,0.0020535,-0.0019453,-0.038757,0.081626,-0.12168,0.092651,0.035675,0.09799,0.19959,-0.02422,0.22779,0.1344,0.1308,0.24102,0.23918,0.25101,0.24326,0.32492,0.13362,-0.03767,-0.071224,-0.15487,-0.01572,0.078436,0.033988,0.0969,-0.025841,0.10619,0.021376,0.20758,0.23907,0.023344,0.040527,-0.10991,-0.20205,-0.0055789,0.23448,0.11164,0.04553,0.24073,0.02632,0.1163,0.22554,0.024486,0.14927,0.15421,0.072376,0.088234,0.1248,-0.10766,-0.10919,0.047938,0.18896,-0.023285,-0.21593,0.031313,-0.050805,-0.063653,0.033597,-0.12011,-0.044914,-0.10375,-0.28809,0.059063,0.0032263,-0.081137,-0.11167,-0.082569,0.030158,0.20658,0.13124,0.15651,0.33714,-0.09969,-0.045545,-0.0032888,-0.14712,-0.11057,-0.088579,0.089113,0.092162,-0.078865,0.0056655,-0.046672,0.0016468,-0.15776,-0.051339,-0.3015,-0.060209,-0.24168,-0.030038,-0.17568,-0.17242,-0.26708,-0.12823,0.031901,0.14525,0.12023,0.12032,-0.15376,0.16483,-0.0048673,-0.11561,-0.024836,0.10359,0.043201,0.064561,-0.050417,0.14719,-0.15627,0.12962,-0.077114,-0.021819,-0.16617,-0.033329,0.055972,-0.087795,-6.1106e-05,-0.13199,-0.081228,-0.21891,-0.11128,0.098834,0.049246,0.26792,0.18776,0.14551,0.048356,0.060518,0.031834,-0.16196,-0.0098987,-0.038125,-0.14309,0.0483,-0.044614,0.10214,0.12009,-0.018734,0.1799,-0.090711,0.058952,0.0077859,0.14738,-0.058469,-0.17915,-0.11096,0.067506,-0.0064596,0.035662,0.037578,-0.060104,0.12401,0.018356,0.067445,-0.056961,0.023563,0.08109,0.026852,-0.067283,-0.13678,0.06207,-0.12021,-0.1416,0.037941,0.12005,0.081335,0.050656,-0.041292,-0.08514,-0.047776,0.070896,-0.15964,-0.010544,0.063146,0.038902,-0.011185,-0.02996,0.10384,-0.116,0.14047,0.12416,0.1008,0.026094,-0.092291,0.10893,-0.090845,0.078901,0.14728,0.043686
0.15132,0.12465,-0.11111,-0.047807,0.12376,0.043391,-0.026547,-0.10872,0.10004,0.18856,-0.098339,-0.03271,-0.051302,-0.035486,0.055882,-0.088526,-0.052896,-0.12628,-0.10032,-0.05223,-0.1175,-0.11547,-0.098152,-0.097749,0.22049,-0.031617,-0.010925,-0.032174,0.15098,-0.094555,0.19262,0.066627,-0.0068683,-0.12391,-0.10585,0.16276,-0.11241,-0.046814,0.0053303,-0.062821,-0.1817,-0.034732,0.20287,-0.010195,0.096916,-0.031912,-0.082605,-0.0012031,0.0088215,-0.25083,0.19595,0.20474,0.10896,-0.084676,-0.046305,-0.19034,0.028259,0.040083,-0.0366,-0.15637,-0.13994,0.053166,0.058076,0.13951,0.073244,-0.10742,-0.016261,-0.037166,0.19903,0.039349,-0.11454,-0.010835,-0.010593,-0.074233,0.11298,0.014701,0.027171,-0.050632,-0.09043,-0.022663,0.015781,-0.10075,0.23905,0.10434,-0.050922,0.01255,0.07008,-0.022656,0.061136,0.023906,-0.17756,-0.18318,-0.03908,-0.045751,0.02097,0.1594,0.049884,0.086263,0.05316,-0.11589,-0.11171,-0.051224,0.090497,0.059549,0.11424,0.057919,0.12384,0.029618,0.056715,0.022647,-0.0036401,0.13661,-0.048227,0.095448,0.11485,-0.04243,-0.094053,0.095749,0.23671,0.019768,0.12633,0.15461,0.019034,-0.10161,-0.05731,0.025167,-0.059547,-0.27819,-0.11445,0.063532,-0.15253,0.05005,0.058954,-0.029009,0.11932,-0.08477,0.0092312,0.027354,-0.18391,0.070129,0.053137,0.073688,0.014929,0.047399,-0.014737,0.014549,-0.020912,0.0084577,-0.22486,-0.041788,-0.040988,-0.078322,-0.12461,-0.11077,-0.18018,-0.10986,0.048345,-0.053569,0.18731,-0.098968,-0.1535,0.14998,0.1865,-0.026597,-0.078395,0.027572,0.1358,-0.070468,-0.024957,0.030962,0.075542,-0.062478,-0.030715,0.014695,0.0083864,-0.087764,0.046227,-0.001418,0.058633,-0.16649,-0.25822,-0.25119,-0.22678,-0.29802,-0.2045,-0.062068,0.0348,-0.12571,0.096693,-0.082046,0.26311,-0.062327,0.22066,0.13766,-0.0021156,0.019022,-0.021943,0.10549,0.093834,0.055311,-0.014934,-0.027288,-0.094348,-0.25816,0.03861,-0.14018,-0.24026,-0.2276,-0.1497,-0.15146,0.07929,-0.07578,-0.014483,-0.043426,-0.061252,-0.027546,-0.0074726,0.089499,0.063602,0.053049,0.050858,0.11116,0.0033914,-0.12324,-0.13643,-0.14569,0.047407,-0.10227,0.16352,0.043114,-0.22323,-0.12756,0.033329,-0.29962,-0.0084116,-0.072099,-0.2743,0.11619,0.066314,0.01081,0.088031,-0.052154,-0.021469,0.13484,0.19715,-0.007526,0.11014,0.096082,0.036444,0.10133,-0.045544,-0.060269,-0.12053,0.2073,0.089675,-0.063266,0.0082977,-0.057343,0.0069834,0.1477,-0.057335,0.01006,0.0077658,0.12245,0.078153,0.16168,-0.079641,-0.19448,-0.18371,-0.018862,-0.093972,-0.13093,0.12578,0.013463,-0.13465,-0.03699,0.078494,0.15994,-0.066725,-0.17222,-0.11765,0.08321,0.06397,-0.17087,0.092796,-0.019127,-0.10676,0.048709,-0.057045,0.077331,0.11783,0.089063,0.06187,0.1129,-0.050755,-0.16131,-0.14061,-0.22422,-0.17178,-0.087707,-0.030071,0.062472,-0.089583,-0.10543,-0.016754,0.14195,-0.088782,-0.031894,0.14382,-0.011912,0.072505,-0.01984,-0.11979,0.17327,0.088315,-0.1149,0.074275,-0.012764,0.018335,-0.14047,-0.32759,-0.12667,-0.19009,-0.021702,-0.30847,-0.28009,-0.033102,-0.1235,-0.20584,-0.2414,-0.29241,0.012584,-0.14354,0.026262,0.081568,0.14295,0.073855,-0.029504,-0.29234,0.041176,0.028823,0.097679,-0.16067,-0.049777,-0.033806,0.017025,0.017585,0.13729,-0.27858,0.18773,-0.045377,-0.069135,-0.22174,-0.13138,-0.25553,-0.097481,0.02161,-0.068519,-0.1324,0.013392,0.0087062,-0.073147,0.048127,0.084148,0.017978,0.098353,-0.12135,-0.034133,-0.10654,0.02762,0.029681,-0.017577,0.16938,-0.029148,0.13844,-0.035286,0.091209,0.061636,0.15787,0.037968,-0.049116,-0.064404,-0.1364,-0.19129,0.14672,-0.0050019,0.013339,-0.016206,-0.069615,0.078795,0.14426,0.17772,0.011353,-0.032312,-0.042813,-0.010623,0.078191,0.094679,0.034193,0.095594,0.039221,-0.032566,0.044897,-0.0076897,0.12223,-0.046174,0.12982,-0.090655,-0.054301,-0.050896,-0.030796,-0.167,-0.091519,-0.09348,-0.12669,-0.055636,0.019881,-0.042449,-0.16074,0.078504,0.10649,0.011232,-0.01902,-0.14798,0.038776,-0.12613,0.028941,-0.16586,-0.10964,7.0492e-05,0.17892,0.11224,0.040441,0.21345,0.093351,0.091722,-0.12123,-0.040092,-0.19817,-0.21236,-0.2493,-0.18087,-0.1449,-0.19368,-0.036821,0.15524,0.056157,0.070754,0.090086,0.074277,0.0087522,0.16157,0.28057,0.041802,0.13167,0.14119,-0.052487,0.11657,0.13826,0.12388,-0.0029127,0.074472,0.083769,-0.11228,0.081632,-0.17834,-0.045999,-0.13211,-0.09513,-0.17403,0.098683,-0.072904,0.099002,0.030717,-0.0969,-0.09918,0.18218,0.15064,-0.02073,0.062335,-0.08208,0.16594,-0.095986,-0.1576,0.011357,0.02337,0.16598,0.13965,0.33166,-0.092903,-0.057059,-0.074644,0.026122,-0.083689,-0.20002,-0.24802,0.049565,-0.0023855,0.092895,-0.22882,0.1364,0.1733,-0.0086924,-0.1357,0.084834,0.033187,0.076442,0.015901,-0.12115,0.11358,0.083862,0.14602,0.083969,0.16824,0.11864,0.011983,-0.038088,-0.058239,-0.018429,0.059426,0.09004,0.071165,-0.068803,-0.25758,-0.053861,-0.10069,0.17197,0.28486,0.25811,0.11175,-0.020933,-0.11031,-0.21336,0.12511,-0.080122,-0.028775,0.083154,0.14179,-0.0063483,0.014424,0.051055,0.12624,-0.099906,-0.21071,-0.32473,-0.097161,-0.19219,-0.12012,0.0034337,-0.075815,-0.027039,-0.00093689,-0.083281,0.043874,0.17658,0.19705,0.040061,0.088317,0.050139,-0.053797,-0.023433,-0.025776,0.084717,0.043745,-0.0086995,0.025219,0.14874,-0.0096892,-0.10353,-0.11764,-0.13571,0.040716,-0.35853,-0.3319,-0.020286,-0.11698,-0.012102,-0.031249,0.057986,-0.2022,-0.049524,0.10298,-0.096372,0.20824,-0.1967,-0.032542,0.13103,-0.18572,-0.054455,-0.10296,-0.00031767,-0.059672,0.15928,-0.00081402,0.08104,-0.080123,0.14937,-0.20494,-0.088499,-0.034822,-0.02176,-0.14647,-0.31155,-0.15086,-0.12323,0.11825,-0.090975,-0.017965,0.0091652,0.0060712,-0.10394,-0.0050773,-0.10029,0.13339,-0.095842,0.08336,0.21821,-0.019385,-0.021327,0.046431,0.039837,0.041949,-0.0074667,-0.12762,-0.28895,-0.052083,-0.30902,-0.2226,-0.17208,0.047297,-0.14792,-0.12816,-0.039383,-0.14382,0.32594,0.14716,0.07566,0.048464,0.27196,0.010078,0.047193,-0.11522,-0.17178,0.011443,-0.010975,0.063925,0.056888,0.10477,0.05996,-0.15471,0.055171,-0.024727,0.076973,-0.042968,-0.11519,-0.085992,-0.039183,-0.21812,0.001205,-0.20566,-0.094585,-0.18153,0.061379,-0.011584,-0.072107,0.18673,-0.012664,0.046106,-0.098103,0.0048989,-0.12285,0.15417,-0.034085,-0.21244,-0.0086128,-0.15267,0.10568,0.041792,-0.15702,-0.10359,-0.20135,-0.17341,0.029404,-0.078552,0.093575,-0.10245,-0.11471,0.18091,0.045051,-0.031481,-0.035203,0.11023,-0.052606,0.0014048,-0.047608,0.077684,-0.16879,-0.22088,-0.031577,-0.061145,0.019998,-0.054941,0.11941,-0.01323,-0.19086,-0.12405,0.073016,0.04065,-0.33278,-0.22939,-0.061007,-0.1046,-0.17928,0.099007,-0.030626,0.070442,0.087017,0.0051993,0.20421,-0.0032626,-0.12613,-0.038086,0.018127,-0.057564,0.084481,-0.012895,0.12961,0.062022,-0.16433,0.083139,0.043201,0.028786,0.024436,0.072597,-0.081207,-0.07737,0.014703,-0.062684,0.0091906,0.04163,0.0025069,0.043665,0.14393,0.073818,0.021407,-0.10993,-0.022952,-0.14277,-0.010282,0.020138,0.058086,0.14763,0.15679,0.00062999,0.15487,-0.067877,0.061476,-0.21794,-0.22595,-0.12558,-0.079018,0.025881,-0.13897,0.0083217,-0.026678,0.27162,0.0001602,-0.16573,-0.1757,0.012513,-0.025072,-0.13382,0.010246,-0.23776,-0.1028,0.038482,-0.018396,0.012458,-0.029124,-0.064886,0.16532,0.13139,-0.033984,-0.26395
0.02877,0.14469,0.078757,-0.086458,0.07824,0.062382,0.10973,-0.053385,0.094523,0.069897,0.050228,-0.081991,0.052113,-0.010061,-0.017416,0.080844,0.10294,-0.036507,-0.018084,-0.088341,0.0029845,-0.017317,0.13832,-0.011785,-0.090711,0.049571,-0.18724,0.054706,-0.1926,-0.030141,0.079254,-0.0060705,0.22848,-0.11858,0.16199,0.20853,0.17091,-0.03119,0.045263,0.1257,-0.063542,0.0068661,0.18319,-0.095406,0.079986,0.0615,0.052812,-0.002144,0.024845,-0.0050167,0.055661,-0.032553,0.047445,-0.19209,-0.18192,-0.084162,0.15686,0.0062001,0.075049,0.049594,-0.0071398,0.15516,-0.12572,-0.12721,-0.17062,-0.030586,-0.035754,-0.070441,0.25846,-0.0055884,-0.27319,-0.051529,-0.031102,0.023677,-0.0040503,-0.070851,0.13378,-0.098879,-0.032208,0.01733,0.056838,0.010002,0.18813,-0.16051,-0.017282,0.098094,-0.18137,-0.015633,-0.06589,-0.041548,-0.035121,-0.12029,0.099534,-0.020003,-0.0038116,0.0015956,0.25335,0.062838,0.088377,-0.10176,-0.13823,0.029438,0.13833,0.056931,-0.067691,0.017548,0.0023254,0.17521,-0.11081,0.086393,-0.043389,-0.12762,0.13658,0.004007,0.023662,0.1268,0.095139,-0.12955,0.10491,0.049986,0.057783,0.093818,0.026137,-0.0042502,-0.081663,-0.025624,0.014008,-0.12449,0.028023,-0.0048524,-0.18471,-0.16947,-0.33295,-0.055138,-0.11282,-0.046219,0.0017808,0.022428,0.082707,-0.094699,-0.18108,-0.015767,-0.077398,-0.14339,0.030748,-0.028044,0.062623,0.23907,-0.016788,0.088358,0.04285,0.12821,-0.1099,-0.1293,-0.43651,-0.052415,-0.14151,-0.42851,-0.33366,-0.29349,-0.21229,-0.1766,-0.091675,0.1548,0.004423,0.13083,-0.032531,-0.084105,-0.042698,-0.0906,0.077352,0.070132,-0.04398,0.14643,0.21301,0.069213,0.11181,0.076231,-0.11991,0.035789,0.09452,0.28944,0.31352,-0.068307,-0.029178,0.10661,0.23119,-0.014275,0.042826,-0.067734,-0.035771,-0.060459,0.016571,-0.040675,0.10324,0.016071,0.0065464,-0.012817,-0.045712,0.17451,0.027702,0.085132,-0.040974,-0.068971,0.096457,-0.18772,-0.12944,0.20481,0.17186,0.15942,0.30656,-0.0069159,0.045003,0.2973,0.027317,0.13911,0.040398,-0.29132,-0.020055,-0.251,0.079575,0.1229,-0.1258,-0.031648,0.09462,-0.013922,0.04269,0.055161,0.053206,0.055117,0.035394,-0.00057585,0.19846,0.0050893,-0.19223,-0.10277,-0.23384,-0.1727,-0.056032,-0.08001,-0.10507,0.21686,0.094971,-0.0028143,0.063304,-0.23313,-0.17522,0.0055361,-0.0028425,0.038318,-0.035411,-0.11129,-0.073285,0.027217,0.11922,-0.098041,3.9243e-05,0.043039,0.080845,0.22739,0.031351,0.03907,0.085027,-0.28773,-0.24411,-0.30923,-0.23725,0.10208,-0.057115,0.086429,-0.038712,-0.2981,-0.16259,-0.018735,-0.0091763,-0.0059067,-0.063417,0.17008,-0.0095422,-0.062241,-0.022482,-0.097285,-0.040333,-0.066221,-0.10867,0.16592,-0.095627,0.049629,0.039377,-0.15915,-0.13166,-0.024049,-0.054493,-0.35601,-0.18545,-0.071853,-0.011104,0.10504,-0.10127,-0.22929,-0.069553,-0.030284,-0.22568,-0.050287,-0.15847,-0.036397,0.069293,-0.01285,0.073587,0.12796,0.013973,0.0085546,-0.10855,-0.11555,-0.27169,-0.26148,-0.31882,-0.10807,-0.12281,-0.12138,0.10412,0.11775,0.012478,0.188,0.12206,0.45723,0.11177,0.16252,0.037568,-0.17857,-0.10622,-0.072625,-0.059343,-0.070971,-0.008435,0.17882,-0.014081,0.091765,0.023332,-0.18219,-0.039112,-0.25484,-0.17104,-0.2833,-0.066782,-0.1976,0.077516,0.37716,0.3138,0.46877,0.36493,0.059919,0.017242,0.080219,0.079166,0.022367,-0.025204,-0.2024,-0.076058,-0.067303,-0.01609,-0.044277,-0.043402,-0.062187,0.014435,-0.19986,0.19919,0.19942,0.038476,0.0061179,-0.2048,-0.13388,0.037792,0.032481,0.098855,0.34102,0.37793,0.49292,0.32072,0.026345,0.17676,0.08367,0.036523,0.13466,0.067427,-0.087556,-0.20155,-0.072836,-0.21427,0.026057,0.053489,-0.038585,-0.015911,0.042268,0.12665,-0.016226,-0.050802,0.074824,-0.18554,0.068958,0.10134,0.36741,0.34941,0.32425,0.47001,0.26863,0.25683,0.31441,0.17257,0.14908,-0.070397,-0.22713,-0.072526,0.026763,-0.039316,-0.12061,-0.080356,0.011489,0.049947,0.16348,0.13699,0.10472,-0.074004,0.17327,0.048818,-0.092733,-0.19384,-0.24077,-0.30754,0.15403,0.72067,0.72237,0.65051,0.35498,0.026473,0.16424,0.33012,0.091552,-0.21279,-0.019308,-0.11942,0.058017,0.066621,-0.12876,-0.035637,-0.12027,0.10647,0.041463,-0.1224,0.041111,-0.092415,0.15528,-0.10171,-0.23791,-0.60145,-0.70747,-0.80137,-0.52582,-0.11183,0.51831,0.69461,0.062775,-0.15646,-0.079548,-0.21763,0.012844,0.012339,0.16377,-0.10975,0.11893,-0.068809,-0.014806,-0.19459,-0.14789,-0.087151,-0.045809,-0.094373,-0.04408,0.084767,-0.016027,0.088846,-0.37846,-0.82503,-0.91412,-1.5091,-1.4698,-1.3588,-0.86049,-0.70504,-0.6771,-0.6061,-0.24779,-0.20698,-0.069783,-0.032887,-0.11622,-0.012339,0.044708,-0.10651,-0.13898,-0.22372,-0.0024958,-0.03313,-0.19784,0.06462,-0.053958,0.00085641,0.012485,-0.12412,-0.27482,-0.81276,-1.1124,-1.217,-1.5923,-1.6344,-1.7001,-1.7255,-1.1678,-0.81405,-0.25128,-0.017106,0.099752,-0.078062,0.081901,0.16761,0.25789,-0.097778,-0.18448,-0.061543,0.17004,-0.084717,0.00049139,0.0050012,-0.22619,-0.046017,0.058191,0.00754,-0.17937,-0.23476,-0.74915,-0.73237,-1.2127,-1.272,-1.1314,-1.0507,-0.62799,-0.41934,-0.39585,-0.15356,-0.18894,-0.066717,0.067949,-0.015897,0.15111,0.024253,-0.043226,-0.030141,0.014255,-0.073911,0.07036,-0.13822,-0.038432,0.034113,0.36209,-0.014087,-0.063361,-0.19793,-0.18804,-0.34391,-0.46504,-0.27066,-0.19941,-0.49798,-0.35725,-0.28417,-0.073722,0.034227,-0.083837,-0.039375,0.082927,0.18436,0.012655,-0.063723,-0.038578,-0.09064,-0.11574,0.11191,0.025675,0.13832,0.0053005,0.078445,0.014239,0.19374,0.1656,-0.087041,0.0061669,-0.13866,0.24047,0.2377,0.27343,0.33527,0.29207,0.03606,-0.1452,-0.25232,-0.2038,-0.18704,-0.017945,-0.13291,-0.10118,-0.067026,-0.048969,0.022055,0.11201,0.01316,-0.1304,-0.076037,-0.12603,0.15223,0.0053493,0.096935,0.127,-0.065654,0.063692,0.321,0.37492,0.58322,0.51245,0.54342,0.26174,0.1387,-0.050005,-0.25138,0.05654,-0.22429,-0.08765,-0.18979,-0.21265,0.020564,-0.049124,-0.094778,0.026349,0.13877,0.055815,0.14647,0.014344,0.053019,0.14053,0.18492,0.30337,0.31083,0.44972,0.62848,0.54772,0.48964,0.35914,0.086591,-0.038806,-0.054969,-0.071417,0.022825,0.0547,-0.2825,-0.17152,-0.33117,-0.016444,-0.048408,0.20894,0.040468,-0.0057537,0.054533,0.00079397,-0.019417,0.056531,0.026739,0.050988,0.20223,0.22875,0.55516,0.44098,0.55936,0.52346,0.261,0.11203,0.13056,0.18556,0.13459,-0.019776,-0.050537,-0.06939,-0.17203,-0.26806,-0.17383,0.096793,0.023528,-0.087361,-0.16334,-0.035145,-0.018366,0.096621,-0.046768,0.044821,-0.052695,0.1321,0.062938,-0.033175,-0.008304,0.37402,0.44391,0.35301,0.3448,0.3672,0.19866,0.18924,-0.02863,-0.10508,0.013545,-0.16476,-0.011733,-0.05103,0.16446,0.055393,0.17483,0.16093,0.12918,-0.15349,0.027028,-0.06328,0.057975,0.097318,0.0039216,-0.019272,-0.061979,0.23805,-0.057612,0.009598,0.070163,0.066343,-0.048151,0.029002,0.039875,-0.039622,0.044197,0.052216,-0.0076891,0.12553,0.10277,0.16116,-0.12089,0.11848,0.053642,0.063894,-0.024697,-0.036609,-0.0011342,0.051036,0.1205,0.079899,0.010229,0.017685,0.054069,0.14146,0.029652,-0.033293,0.021001,-0.16824,0.0011276,0.081865,0.067431,0.026652,0.12623,0.0057287,0.044996,0.066607,-0.14708,0.052234,-0.080121,-0.12292,0.051314,-0.10227,0.019422,0.00033071,-0.1196,0.064638
0.030348,0.089102,0.02802,0.060144,-0.087901,0.17517,-0.16497,0.013712,-0.13795,0.00030079,0.085743,0.03769,0.060272,-0.17509,-0.19849,-0.009582,-0.045722,0.06915,0.11188,0.11163,-0.090979,0.091049,0.15816,-0.051382,0.15056,-0.084389,-0.085433,0.093413,-0.02723,0.074628,-0.04549,0.025241,-0.085604,0.1922,-0.026971,0.029441,0.0077845,-0.22345,0.0038623,0.1519,-0.16051,0.10771,-0.18801,9.228e-05,-0.1189,-0.095604,0.048839,0.06569,0.0078043,-0.084613,-0.077065,0.11282,-0.049411,0.084507,-0.0064505,0.053819,-0.050525,-0.071025,0.12996,-0.046879,-0.070518,0.092292,-0.042964,-0.1279,-0.013443,-0.014983,0.0024557,-0.025594,-0.14787,-0.059947,-0.14099,0.1826,-0.19645,-0.23001,-0.22846,-0.0017651,-0.071971,0.0062339,-0.073122,-0.066766,0.01374,-0.024798,0.11587,-0.034949,0.076492,0.083703,-0.051377,-0.078585,0.003145,0.060238,0.12736,-0.0086752,-0.010864,0.074773,0.076299,-0.10476,0.027816,-0.17739,-0.068611,-0.055411,0.060965,-0.090287,0.046716,-0.17605,-0.082114,-0.12509,0.18333,-0.04105,-0.05663,0.069002,-0.010299,-0.018773,0.065007,-0.16214,-0.19441,-0.031806,-0.021465,0.24846,-0.076622,-0.10976,-0.095599,-0.056563,-0.064591,-0.00068166,0.14366,0.21328,0.13539,0.031263,0.10417,-0.074928,-0.43986,-0.29885,-0.23301,-0.058525,0.080347,-0.26683,0.069182,0.13467,0.12233,-0.066873,-0.031305,-0.12199,-0.02494,-0.033333,-0.13188,-0.047957,0.084366,-0.11491,0.18398,-0.088003,0.02664,0.074606,0.0069763,0.064433,0.50364,0.38454,0.63004,0.43091,-0.0037773,0.056459,-0.063048,0.22128,0.2583,0.13591,0.06973,0.13627,0.0073371,-0.015949,-0.093292,-0.11086,-0.09977,-0.029528,0.17292,-0.15562,-0.19738,-0.075459,0.054107,0.090281,-0.25026,-0.43267,-0.47377,-0.42046,-0.21589,-0.21929,-0.40996,-0.50392,-0.25388,-0.13426,-0.12896,-0.068984,0.27522,0.26837,0.26766,-0.20179,-0.12822,0.061507,0.0033651,-0.078267,0.0089971,0.0239,0.024985,-0.21917,-0.010691,0.038144,-0.085285,-0.33731,-0.39515,-0.47546,-0.68069,-0.69662,-0.56054,-0.73986,-0.8611,-0.84903,-0.5459,-0.31881,-0.32727,-0.0010009,-0.025458,0.25264,0.19531,0.21749,0.078729,-0.10012,0.10279,-0.15481,-0.16003,-0.022667,-0.13107,-0.091819,-0.040931,-0.0096676,-0.26418,-0.098117,-0.20113,-0.27968,-0.49602,-0.36858,-0.58805,-0.58649,-0.72656,-0.21653,-0.24804,-0.125,-0.18442,-0.042135,0.15638,0.35335,0.16342,0.1286,0.18332,0.079998,0.038248,0.063661,-0.011469,-0.012328,-0.17428,-0.14365,-0.20262,0.10838,0.033356,-0.19228,-0.16102,-0.18153,-0.15601,-0.45562,-0.58306,-0.85891,-0.50617,-0.28667,0.070426,0.062286,-0.025135,0.058497,0.15539,0.24727,0.23283,-0.043777,0.17002,-0.00304,0.23675,-0.13825,-0.0032914,-0.16686,0.079095,0.014396,-0.20644,-0.009598,0.10202,-0.054046,-0.23922,-0.42366,-0.25669,-0.41588,-0.30333,-0.32447,-0.67185,-0.20776,-0.23538,-0.13898,0.167,-0.14568,-0.036024,0.0017087,0.087104,0.093767,0.092415,-0.091377,-0.01437,-0.044593,0.074078,-0.099694,0.20475,-0.013549,-0.17733,-0.12764,-0.063973,-0.022072,-0.084423,-0.54336,-0.13438,-0.12288,-0.19255,-0.30365,-0.5116,-0.60716,-0.37596,-0.096411,-0.37649,-0.28678,0.034286,-0.090207,-0.054469,0.21705,0.078193,-0.21365,-0.081148,-0.11235,-0.012918,-0.030497,-0.17816,0.032805,-0.024108,0.11915,-0.10975,0.036731,-0.20558,0.056009,0.26776,0.27934,-0.20608,-0.18841,-0.41578,-0.45476,-0.27236,-0.073695,-0.034483,-0.3659,-0.12519,-0.084108,0.045369,0.093009,-0.072732,0.045592,0.044512,0.29651,0.23087,-0.09098,-0.21726,-0.22521,-0.16962,-0.00031551,-0.010369,-0.0343,0.071837,0.54499,0.70572,0.39471,0.024636,0.034699,-0.050559,-0.26935,-0.17111,-0.10928,0.076866,-0.22369,-0.10949,-0.18069,0.056672,0.063981,0.20469,-0.037376,-0.010664,0.002042,0.022352,0.048506,-0.099135,0.047208,-0.17516,-0.0097679,0.051348,0.028757,0.41051,0.48015,0.75516,0.75667,0.76393,0.64154,0.16602,-0.039016,-0.26095,0.08079,-0.29829,-0.38302,-0.24461,0.014819,0.051274,0.13818,-0.013908,0.078911,0.11929,-0.058226,0.10413,0.056615,-0.065753,-0.20937,0.17688,0.13437,0.259,0.25331,0.12537,0.18903,0.46388,0.91213,1.1053,0.54874,-0.027554,-0.37076,-0.3187,-0.14295,-0.44412,-0.2779,0.028426,-0.26083,-0.0043909,0.14332,-0.09626,0.055798,-0.099191,0.0073799,0.016797,-0.0066578,0.087061,-0.026153,-0.08167,0.25085,0.11105,0.029969,0.16864,0.26522,0.37403,0.91665,0.99291,0.71173,-0.028702,-0.40582,-0.28244,-0.30477,-0.41086,-0.27021,-0.061513,0.019827,0.091598,-0.050298,-0.030049,0.071948,-0.1398,0.12772,0.13,0.087762,0.10843,-0.15159,0.0071471,0.34663,0.075388,0.042969,-0.092934,0.21084,0.3676,0.38312,0.69069,0.46852,0.055257,-0.16364,-0.2211,-0.31964,-0.19003,0.070234,0.0452,-0.0093793,0.30568,0.16681,0.070067,-0.031476,-0.023149,-0.3022,-0.031341,-0.083188,-0.018772,-0.030622,0.0547,0.11232,0.099374,0.2307,0.012558,0.27873,0.63496,0.63348,0.42175,0.036447,0.052361,-0.098586,-0.17742,-0.12764,-0.016113,0.018444,0.04521,0.37939,0.40377,0.03606,0.11733,0.079133,0.17068,0.37608,0.022161,-0.037774,-0.048995,0.057796,0.17961,-0.051422,-0.092647,0.21991,-0.064977,-0.12995,0.25804,0.29137,0.41577,0.39251,0.15959,-0.027566,-0.15868,-0.0088943,0.0854,0.18727,0.36062,0.1876,0.025093,-0.015099,-0.059063,-0.083255,-0.0033895,-0.041149,-0.045548,-0.0040427,-0.024634,-0.050488,0.053911,0.35533,-0.023121,-0.081173,-0.21186,-0.2764,-0.30149,-0.11773,-0.12588,0.43123,0.086249,0.21452,0.29104,0.18956,0.33882,0.35214,0.34643,0.192,0.25193,-0.017985,0.02971,-0.042694,-0.059017,-0.040815,-0.15836,-0.063529,0.0061036,0.14333,0.24145,0.1055,0.05116,-0.077325,-0.29206,-0.0473,0.048779,0.023638,0.27066,0.10943,-0.038928,0.4961,0.43057,0.27455,0.31627,0.42621,0.2219,0.02315,0.10539,-0.094464,0.020574,0.029356,-0.19071,0.054477,0.0060716,-0.16593,-0.33194,-0.19651,0.086034,-0.14443,-0.079581,0.041369,0.056763,0.038981,0.10415,0.29147,0.11171,0.07004,0.20653,0.40066,0.56098,0.47649,0.24659,0.26752,0.26442,0.13991,0.064455,0.21151,0.060326,-0.082861,-0.10935,-0.1153,-0.076051,0.10953,0.013243,-0.14926,-0.48302,-0.27744,-0.10139,-0.061589,0.13528,0.094823,0.037807,0.14264,0.1935,0.22214,0.49233,0.40419,0.43349,0.29483,0.41137,0.18641,0.18833,-0.1285,-0.00065362,-0.070718,0.18561,0.11826,-0.15704,-0.050477,0.054206,-0.095753,-0.089571,-0.34051,-0.43296,-0.44386,-0.50138,-0.35032,-0.26388,0.10675,-0.056107,-0.21489,0.018211,-0.069672,0.082111,-0.018443,-0.031265,0.090708,-0.028538,-0.0021035,-0.041843,-0.23475,0.089665,-0.0014424,-0.10343,0.25322,0.20375,0.05446,0.03337,-0.16352,-0.14769,-0.1182,-0.22975,-0.49694,-0.67889,-0.71738,-0.59918,-0.63706,-0.46878,-0.57971,-0.32378,-0.46427,-0.54933,-0.65279,-0.48797,-0.3404,-0.17027,-0.082645,0.11922,-0.076845,0.10251,0.020208,-0.076449,0.023499,-0.058331,0.032831,0.10143,-0.21314,0.07752,-0.16491,0.083422,0.0060555,-0.094302,-0.19723,-0.25106,-0.21528,-0.19344,-0.44635,-0.51527,-0.26917,-0.37786,-0.33447,-0.24356,-0.14107,-0.27312,-0.10923,0.0088244,-0.020023,0.053843,0.015527,-0.0079841,-0.047267,0.078217,0.019239,0.062721,-0.1216,-0.1176,-0.31777,0.045812,0.061677,-0.039468,0.0033332,-0.12376,-0.050352,0.00095589,-0.073741,-0.23805,-0.090664,0.025734,0.050454,0.045341,0.024473,-0.095079,0.10081,-0.10898,-0.063941,0.053514,0.071385,-0.057728,0.012498
0.27895,-0.14484,0.0049741,0.0095947,0.15343,0.14107,0.085553,-0.069732,-0.011492,0.0045211,0.078314,-0.15893,-0.04279,0.17156,0.028213,-0.12269,0.13371,0.033544,-0.13603,0.023061,0.11818,0.097179,0.036693,-0.022121,-0.11597,-0.034107,-0.051015,-0.0010914,-0.048915,-0.037596,-0.036057,-0.20778,0.0041772,-0.066404,0.10321,-0.060465,0.0079954,-0.1341,0.17735,-0.0051724,-0.097911,-0.037475,-0.036757,0.2128,-0.25408,-0.12433,0.11459,-0.11727,-0.11272,-0.037143,0.077279,-0.20505,0.019319,-0.064623,0.10702,0.045275,-0.11906,0.012996,0.10562,-0.083281,-0.049966,-0.071349,0.10574,0.0041449,0.093733,-0.068918,-0.15731,0.02705,0.059192,0.093721,0.14798,0.02162,0.044553,-0.22536,-0.056734,-0.23518,-0.060055,-0.076145,0.11409,-0.24785,0.10209,0.078174,0.038598,0.12553,0.041515,-0.08575,-0.024285,0.14212,0.029869,-0.007423,-0.11813,-0.045992,-0.075183,-0.23186,-0.03686,-0.015668,0.019847,-0.15542,-0.23088,0.057896,-0.11316,0.0078423,-0.19541,0.05075,0.0069253,0.03199,-0.02583,-0.099547,0.015368,-0.1134,-2.1348e-06,-0.14416,-0.046699,0.030492,-0.17152,-0.024802,-0.032966,-0.20467,-0.061804,-0.042937,-0.085548,-0.12752,-0.34643,-0.25659,-0.32933,-0.34414,-0.28494,-0.27399,-0.20823,-0.13351,-0.24923,-0.0030255,-0.047126,-0.31444,0.002391,-0.12738,-0.025533,0.036484,-0.0041963,-0.059698,-0.059235,-0.074131,-0.043674,0.01598,0.080058,-0.19981,-0.26184,-0.25385,-0.38083,-0.30448,-0.41816,-0.37886,-0.40624,-0.42027,-0.43381,-0.66135,-0.64277,-0.45429,-0.42793,-0.4089,-0.044989,-0.25889,-0.20328,-0.10582,-0.071466,0.043543,0.1388,-0.12255,-0.22032,-0.13441,-0.0105,-0.1565,0.12973,-0.21297,-0.15644,-0.34858,-0.49619,-0.41946,-0.52278,-0.46317,-0.429,-0.26187,0.040144,-0.18733,-0.18702,0.17106,0.11068,-0.17405,-0.077582,-0.091771,-0.00095121,-0.0018865,-0.01071,-0.17374,-0.043258,-0.050186,-0.033082,-0.25271,-0.029542,-0.007293,-0.017287,0.0027095,-0.25332,-0.38497,-0.53649,-0.34718,-0.11479,-0.3149,0.26323,0.070803,0.20259,0.44914,0.7271,0.2813,0.33198,0.2366,0.15366,0.24938,-0.091969,-0.05908,0.081325,0.027502,-0.17553,-0.012928,-0.14675,0.019035,-0.15135,-0.14489,-0.10855,-0.25385,-0.10045,-0.20977,-0.13701,-0.067511,-0.089559,0.033243,0.26713,0.36153,0.51903,0.63119,0.83622,0.64204,0.7342,0.38402,0.22502,0.28506,-0.11989,0.039941,0.13767,-0.020385,0.12531,0.049333,-0.11532,-0.05018,-0.13082,-0.30806,-0.077579,-0.078752,0.081347,-0.086147,-0.011323,-0.16841,0.067616,0.15401,0.22877,0.57797,0.54904,0.77627,0.68583,0.72725,0.51458,0.28763,0.17821,0.070205,0.15774,0.44043,0.29869,0.09371,-0.090236,0.10331,-0.076629,0.11511,-0.066729,-0.13039,-0.10075,0.17706,0.25729,0.36816,0.13456,0.21384,0.23498,0.44806,0.48851,0.55469,0.69917,0.33813,0.29206,0.22643,0.3743,0.38025,0.31088,0.52955,0.2244,0.53713,0.30162,0.1148,-0.052855,-0.077399,0.1627,-0.022133,0.17955,-0.076498,0.087745,0.302,0.43668,0.34149,0.34026,0.2185,0.32059,0.04643,0.051851,0.41313,0.19799,-0.10833,-0.31941,-0.010978,0.19165,0.46805,0.50905,0.37321,0.49732,0.30276,0.33967,0.23936,0.022972,-0.042911,-0.10767,-0.09811,-0.068864,-0.0059148,0.043647,0.15459,0.45665,0.35204,0.069603,-0.042375,-0.14597,-0.062716,-0.44331,-0.32949,-0.36554,-0.37641,-0.51763,1.0999e-05,0.26637,0.34022,0.23336,0.23021,0.44726,0.17273,-0.096508,0.004356,0.12012,0.22709,-0.080418,-0.01144,0.040586,0.070111,0.3119,0.38684,0.002645,-0.018987,0.020396,-0.031151,0.016438,-0.2919,-0.4724,-0.27917,-0.26094,-0.3745,-0.49877,-0.32847,0.069369,0.039413,0.053181,0.2112,0.17493,0.012149,-0.08439,0.021167,-0.18989,0.10572,0.19321,0.071493,0.036122,0.2618,0.09371,-0.063406,0.081577,-0.052034,-0.071033,0.016854,-0.026538,-0.32191,-0.34804,-0.3769,-0.40311,-0.14651,-0.20916,-0.18618,-0.16978,-0.36345,-0.072812,-0.10483,0.15187,0.10988,0.013259,0.0025307,-0.17314,-0.050424,-0.11323,0.10709,-0.12989,-0.027216,-0.14101,-0.02101,0.051379,-0.2552,-0.16613,-0.095526,-0.060124,-0.27557,-0.30272,-0.43965,-0.79441,-0.30486,-0.2209,-0.21139,-0.45739,-0.36424,-0.048373,-0.2808,-0.010205,-0.060345,-0.22018,-0.056245,-0.010047,0.12364,-0.29156,0.19432,0.069896,-0.10361,-0.096833,0.090009,-0.16188,-0.10084,-0.19162,-0.098372,-0.076494,-0.12579,-0.45461,-0.72003,-0.6059,-0.2677,-0.070261,-0.30993,-0.32166,-0.43534,-0.16648,-0.31251,-0.068066,-0.31733,-0.18931,-0.088295,-0.05534,-0.15392,0.0036933,-0.20897,-0.092075,-0.060165,-0.27886,-0.00094716,-0.048369,-0.10186,0.17283,0.21059,-0.05019,-0.097984,-0.48124,-0.61706,-0.76449,-0.042257,-0.15353,-0.20904,-0.29398,-0.29664,-0.3797,-0.41633,-0.30834,-0.22376,-0.058351,0.13501,-0.046191,-0.080063,0.12424,0.021042,-0.090606,-0.14022,-0.32108,0.018386,0.24087,-0.022381,0.21502,0.05785,-0.096524,-0.20272,-0.54255,-0.27423,-0.095091,-0.20592,-0.10875,-0.16786,-0.32345,-0.15827,-0.43858,-0.42227,0.0041666,-0.15541,-0.13401,0.0014963,0.055692,-0.15513,-0.020063,0.01169,0.090158,-0.13919,-0.27588,0.07347,0.11155,0.36988,0.26236,0.12921,0.0385,-0.14756,0.032704,0.016182,0.02792,-0.093784,-0.14349,-0.089751,-0.52859,-0.35749,-0.36687,-0.32641,-0.39928,-0.1284,-0.084259,0.14419,-0.022398,-0.086766,-0.075024,0.11865,0.10226,-0.18854,-0.088917,-0.11293,0.11282,0.18768,0.14541,0.077384,-0.030779,-0.21326,-0.11187,-0.021726,0.08967,-0.35448,-0.3924,-0.32613,-0.55883,-0.28045,-0.43755,-0.29884,-0.25165,-0.10972,0.024283,-0.011508,0.22755,-0.16769,-0.088006,-0.015408,-0.11724,-0.078675,-0.19006,-0.094161,0.0061441,0.20991,-0.034788,0.073678,-0.38257,-0.17472,-0.076238,-0.077437,-0.12044,-0.12874,-0.24343,-0.46682,-0.61911,-0.42038,-0.35724,-0.059275,-0.24799,0.1289,0.099798,0.15248,0.012868,0.043513,0.016987,-0.17,-0.18275,-0.053668,-0.13211,-0.072348,-0.061521,0.036726,-0.0663,0.25384,0.016883,-0.15618,0.036284,0.046391,-0.16205,-0.49134,-0.44003,-0.50361,-0.497,-0.35318,-0.46023,-0.33695,-0.064679,0.15125,-0.084307,-0.071214,0.10265,-0.064208,-0.010837,-0.10847,0.034364,-0.17288,0.051452,-0.060673,-0.089404,-0.10035,-0.0038036,0.11463,0.057308,0.12304,-0.094851,-0.15832,-0.24262,-0.23541,-0.28541,-0.34903,-0.32013,-0.283,-0.0059501,0.019726,0.037469,-0.017798,0.034387,-0.097681,-0.019466,0.12792,-0.073117,-0.090437,-0.00034077,-0.094888,-0.18752,-0.16692,-0.0084201,0.10269,0.12986,0.095273,-0.094647,-0.13195,0.0048796,0.14836,-0.21069,-0.083849,-0.26669,0.092137,0.019631,0.0583,0.27128,0.18006,-0.0031116,-0.059103,-0.066609,0.082531,0.096439,-0.1398,-0.032974,0.14918,0.068242,-0.18672,0.046571,0.19053,-0.13065,0.022572,0.1954,0.12181,-0.053873,0.12369,0.25119,0.33876,0.20344,0.061722,0.30022,0.52781,0.4657,0.3005,0.0099539,0.26986,0.22309,-0.033797,0.18473,0.047388,-0.10124,0.050606,-0.0090361,-0.045404,-0.13911,-0.051739,0.021099,0.14006,-0.028123,-0.11927,0.32729,0.30862,0.23436,0.065468,0.26463,0.33546,0.4042,0.22215,0.309,0.20407,0.17562,0.26097,-0.038521,0.16079,0.0030806,0.029272,0.027913,-0.12833,0.013835,0.02205,0.13664,-0.050539,-0.087142,0.030031,-0.16901,0.060649,0.18349,-0.0059648,-0.11353,0.076344,0.037913,0.063673,0.099601,0.10502,0.18337,0.11305,0.18386,0.056158,-0.078145,-0.065514,0.13903,-0.10924,-0.2414,-0.0087743,0.035761,0.065791,0.22931,0.046976
-0.085104,0.10716,0.04807,0.023126,-0.049918,0.0024041,-0.059356,-0.016174,0.097479,-0.082273,0.18147,-0.13758,-0.029367,-0.20958,-0.06481,-0.18008,-0.072,-0.31405,-0.15842,0.28249,-0.083112,0.11169,0.18891,-0.099181,0.00022318,-0.053104,-0.19196,-0.039249,-0.020268,-0.07237,0.078742,0.031074,0.018631,-0.087895,-0.13337,0.045535,-0.067293,-0.019085,0.071992,-0.13047,0.023121,-0.21963,0.031863,-0.11394,0.023904,-0.30267,-0.089328,0.14578,-0.084211,0.079425,-0.023921,-0.10652,-0.15514,-0.16086,0.10087,-0.03445,0.12638,-0.012816,0.17384,0.022087,0.14115,0.26605,-0.094736,-0.13292,0.018938,-0.23178,-0.056675,-0.13936,0.076001,-0.027015,0.031885,0.068807,0.0089826,0.064857,-0.12217,0.0060715,-0.099357,-0.085801,-0.02131,-0.035549,0.083823,0.028856,0.074111,-0.095274,0.02646,0.15966,0.033784,-0.020915,-0.061903,-0.10655,-0.023002,0.20289,-0.035815,0.081909,0.070799,0.21544,0.35968,0.10886,-0.15256,-0.14548,0.064514,0.072728,-0.087145,-0.059126,-0.057178,-0.095915,-0.18572,-0.066139,0.029186,0.061317,-0.080804,0.090462,0.13633,-0.04477,-0.12796,0.02356,0.037776,-0.094059,0.13162,-0.10798,0.11208,0.036987,0.33598,0.37697,0.3796,0.42383,0.27819,0.43058,0.28902,-0.0054454,0.10739,-0.049057,-0.031177,-0.068212,-0.061212,0.05864,0.11734,-0.055129,0.25062,0.011075,0.03581,-0.078565,0.10011,0.17159,0.040387,0.23283,0.10967,0.17799,0.11441,0.16717,0.17223,0.33307,0.47077,0.32532,0.39424,0.2312,0.19321,0.11036,0.05002,0.090004,0.20629,-0.2286,-0.043909,0.086368,0.15925,0.051427,-0.026991,-0.077761,-0.10456,-0.042259,-0.12423,0.091411,0.072892,0.054254,0.16418,0.05904,0.087524,-0.067913,0.067069,-0.15485,0.36645,0.24038,0.17368,0.23046,0.25281,0.22017,-0.04289,-0.10368,0.29214,0.12457,0.0053636,-0.09359,-0.069437,0.14502,-0.040032,0.035013,0.13421,-0.048175,-0.095676,0.017345,-0.13038,0.1188,-0.13064,-0.3041,-0.21644,-0.17857,-0.38807,-0.37934,-0.15815,-0.23165,-0.14558,-0.0075322,0.074475,-0.35755,-0.23323,0.05143,0.30955,0.071135,0.37164,0.17324,0.071015,-0.054477,0.10006,-0.038606,-0.13745,0.0033206,0.095283,-0.0070979,-0.070002,0.0097707,-0.23537,0.040912,-0.22514,-0.28472,-0.49505,-0.52609,-0.33871,-0.18874,-0.11596,0.0083292,-0.0083057,-0.45555,0.066024,0.20148,0.22591,0.17566,0.022003,0.13374,0.17535,-0.21728,-0.076818,-0.12061,-0.22685,0.097835,0.010492,-0.049516,0.01406,-0.025437,-0.27248,-0.16933,-0.52398,-0.37124,-0.54341,-0.35503,-0.40431,-0.11515,-0.20886,-0.25132,-0.2266,0.037609,0.18402,0.30843,0.17614,0.067584,0.076476,0.05856,-0.18631,0.31303,0.072988,0.039387,-0.030694,0.0074584,-0.10605,-0.037529,0.10075,0.031172,-0.34324,-0.15802,-0.26599,-0.2747,-0.22392,-0.1678,-0.15469,0.037929,-0.16269,-0.43964,-0.18926,-0.036896,0.27333,0.48049,0.25195,0.19807,0.25478,-0.10664,-0.16306,-0.11276,-0.10961,0.10848,0.025347,-0.078096,-0.079171,-0.03127,-0.14732,-0.13453,-0.22122,-0.31383,-0.20166,-0.23959,-0.02581,-0.14954,0.11278,-0.077192,-0.075204,-0.15804,-0.14742,0.24397,0.19192,0.516,0.045597,0.038125,0.0032983,-0.076166,-0.049239,-0.13502,-0.048358,0.048762,-0.11405,-0.19129,0.070859,-0.12791,-0.0010891,-0.11197,-0.29398,-0.26161,-0.25823,-0.16663,-0.019634,-0.16686,-0.085163,0.11591,0.057013,0.035664,0.27383,0.1991,0.24224,0.23357,0.040157,-0.035241,-0.16397,-0.28668,0.01341,0.11168,0.039643,0.12481,0.002291,0.055079,-0.10002,-0.098049,-0.21714,-0.16313,-0.23277,-0.14862,-0.17541,0.097831,-0.093253,-0.073032,0.12116,-0.045569,0.29811,0.013168,0.33025,0.32389,0.095274,0.051046,-0.10876,-0.27965,-0.27103,-0.2298,-0.303,-0.039528,-0.10625,0.027981,0.025583,0.034819,-0.06161,-0.011511,-0.017738,-0.12211,-0.22002,-0.1842,-0.025603,0.017669,-0.25091,0.0075228,0.067263,0.13446,-0.0010456,0.054402,0.27097,0.21466,0.085567,-0.10131,-0.37946,-0.29543,-0.15655,-0.25051,-0.15331,-0.0048367,0.015879,-0.084623,-0.1116,-0.071353,-0.011957,0.12589,-0.15641,-0.07072,-0.036122,-0.14959,-0.035503,-0.026468,-0.11677,0.093439,-0.073162,-0.098398,-0.066825,0.16999,0.094425,0.002647,-0.29201,-0.1157,-0.381,-0.087227,-0.042086,0.0045555,-0.056541,0.08299,0.15875,0.0083043,-0.11209,-0.014143,0.096858,-0.059842,0.25264,-0.073384,0.18583,0.18733,-0.031985,0.07932,0.037829,-0.062137,-0.070499,-0.040641,0.0042123,-0.20585,0.094745,0.023052,-0.13422,-0.20349,-0.13404,-0.12586,-0.23254,-0.26696,0.017965,-0.061067,0.11549,-0.14236,0.16149,-0.05673,-0.19199,0.078688,0.035979,0.038385,0.054492,0.13512,0.34926,0.323,0.21005,0.11042,0.067328,0.059225,-0.11968,-0.19841,-0.09301,-0.010436,-0.1015,-0.029096,0.078622,0.030458,-0.19327,-0.012633,0.013016,0.10917,0.15922,-0.10802,-0.22242,0.068238,0.010777,-9.3836e-05,0.18997,0.28578,0.37536,0.13469,0.11416,0.27794,0.20289,0.025709,-0.032694,-0.075929,-0.016726,-0.0026717,-0.025546,-0.10734,0.20417,0.32028,0.26152,-0.025333,-0.055531,-0.092811,0.043423,0.060323,0.13464,0.053388,-0.061548,0.098506,-0.032787,-0.030938,0.12643,0.24848,0.32301,0.25318,0.18083,0.060253,-0.050585,-0.14357,-0.48311,-0.16771,-0.13297,-0.12253,0.26088,0.13732,0.18788,0.30522,0.19223,-0.068657,-0.12872,0.16625,-0.018077,0.14993,0.080697,-0.058325,0.055941,-0.058012,0.06454,0.050608,0.32727,-0.070715,0.34383,0.21665,0.2261,0.1089,-0.28692,-0.32475,-0.21475,-0.13022,-0.11413,-0.091904,-0.078323,0.076428,0.077386,0.23832,0.1548,0.055114,-0.037503,-0.059212,0.0062501,-0.11318,0.17553,-0.10956,0.17445,-0.085777,-0.021244,0.18955,0.048786,0.2408,0.26047,0.27154,0.34095,-0.013052,-0.25195,-0.28789,0.041406,0.020647,0.081417,-0.070092,-0.17723,-0.15476,-0.13139,0.10638,0.044243,-0.0301,0.15726,0.13047,-0.032434,0.031819,-0.26346,-0.052333,0.038442,0.063654,-0.0015318,-0.13177,-0.078812,0.16028,0.16554,0.26522,0.13523,-0.26319,0.0099765,-0.080634,0.11834,0.032752,0.003593,-0.11849,-0.29945,-0.046846,-0.03125,-0.042306,0.064083,0.16502,0.17151,0.13152,0.044822,-0.02728,-0.030579,0.044084,0.048353,0.088903,0.11845,0.075301,0.17657,0.022595,0.056521,0.010274,0.024234,-0.16018,-0.11549,-0.051004,-0.14938,-0.095932,-0.16755,-0.14867,-0.33999,-0.30327,-0.082309,0.058331,0.14112,0.10038,0.051736,-0.011279,-0.0065325,0.10413,0.079854,0.0085082,0.20135,-0.041867,0.064109,-0.075445,3.6111e-05,-0.084552,0.13837,-0.011264,0.079675,-0.035708,-0.12378,-0.13771,-0.028778,-0.25599,0.092192,-0.045599,-0.010722,-0.031887,0.033876,0.14789,0.0034234,0.071973,-0.069721,-0.18067,-0.057496,-0.20404,0.10131,0.076357,-0.044011,-0.17085,-0.16572,-0.14699,-0.038936,-0.092642,0.21735,0.081843,-0.046337,-0.34199,-0.046511,-0.15274,-0.059627,-0.12321,0.1638,-0.098937,-0.070389,-0.27147,0.020799,0.071124,0.075254,-0.18045,-0.069472,0.034568,-0.12083,0.21091,0.16873,-0.018105,0.10317,0.022356,0.13725,0.084187,-0.028847,0.10003,-0.099367,0.13174,-0.13302,-0.061474,0.03361,-0.010652,-0.014817,-0.012853,0.048917,-0.15615,-0.095199,0.031647,-0.026135,-0.0088878,0.02694,-0.056079,0.046841,0.11638,-0.017779,0.10055,-0.02366,-0.088572,0.018949,-0.04625,-0.014043,0.10177,-0.071949,-0.07393,0.042888,-0.058856,-0.12978,-0.12468,-0.10823,0.016355,-0.019719,0.022108,-0.023343,0.010192,0.050272,0.1341,-0.041605,-0.086936,-0.053603,0.15426,0.11002,0.039414,0.13878,0.074902,-0.052353,0.042627
0.05817,-0.17618,0.010529,-0.17453,-0.18339,0.12222,0.22321,-0.16398,-0.075399,-0.009106,-0.056225,0.027169,0.089346,-0.1004,0.060256,-0.071073,-0.075586,-0.15259,0.056046,-0.0011699,-0.022418,-0.051273,-0.10381,-0.22168,0.0757,0.011069,-0.12925,0.069632,-0.11292,-0.2419,-0.033192,-0.16625,0.037259,-0.0775,-0.042758,0.073412,-0.17505,-0.18794,-0.12716,0.01871,-0.12896,-0.10654,0.038819,0.10649,0.15885,-0.026578,0.20639,-0.16648,-0.018282,-0.046621,0.10605,-0.074533,0.046471,0.14897,0.00028035,0.096961,0.00070778,0.11642,-0.047417,0.069797,0.12767,-0.0059516,0.11805,-0.071495,0.026706,-0.10621,0.17441,0.025509,-0.039737,0.010598,0.20101,0.18559,-0.14908,-0.089863,0.079958,0.051434,-0.080364,-0.11029,-0.07644,-0.092511,-0.20292,0.11402,-0.014699,0.04127,-0.040015,-0.080603,0.017259,0.034479,0.15149,0.10331,-0.10643,-0.099033,-0.069828,0.05894,-0.069146,-0.036524,-0.057843,0.2538,0.19584,0.23738,0.24917,-0.094616,-0.21298,0.1748,-0.0038524,-0.17826,0.013154,-0.080471,-0.028993,-0.15777,0.050399,0.086755,-0.12099,-0.016513,-0.094626,-0.024103,-0.059448,0.096855,0.10684,-0.15785,-0.0019802,0.18684,0.054626,0.22382,0.0029751,0.16317,0.27962,0.31322,0.31144,0.097213,0.17706,0.29781,0.05806,-0.10437,-0.12734,-0.074716,-0.035431,0.015534,0.081501,0.087955,-0.022923,0.090307,-0.070893,-0.15262,-0.042959,0.0088934,-0.0099856,-0.091875,0.0097164,0.098853,0.14975,0.2997,0.064042,-0.01066,0.043452,0.079797,0.049828,0.39729,0.34644,0.34618,0.27293,0.11862,0.053762,-0.19018,-0.064978,-0.018479,-0.0019454,0.15739,0.022101,-0.012341,0.012997,-0.060988,0.058245,0.012761,0.0098108,0.042172,-0.040613,0.1188,0.04747,0.14135,0.013261,-0.072361,0.098545,0.22888,-0.029026,0.20224,-0.051194,0.13616,0.074908,0.10484,0.21167,0.10902,-0.092349,-0.12025,-0.13219,0.0011155,0.051039,0.091497,0.038397,-0.0069487,-0.065851,0.16844,-0.057033,0.22126,0.23872,0.10394,0.10021,-0.016466,-0.071114,0.10802,0.097866,0.30361,0.019019,0.13976,0.18062,0.1612,-0.081088,0.047945,0.10253,0.13242,0.084993,0.13687,0.037675,-0.022441,-0.033336,-0.045857,0.097143,-0.086257,0.069757,-0.11219,0.19655,0.043701,0.12841,0.28119,0.39164,0.11431,0.023151,0.13626,0.035004,0.25016,0.16977,0.043045,-0.038536,0.39593,0.29636,0.103,0.021768,0.19395,0.089614,0.054719,-0.014387,0.13804,-0.055084,0.046152,-0.0039228,-0.0433,0.042522,-0.05424,0.11704,0.14731,0.38649,0.20115,0.092094,0.05309,-0.19096,-0.34635,-0.061976,-0.023809,0.11989,-0.0018373,-0.036669,0.12245,0.14318,0.05397,0.35625,0.38677,0.51394,0.22056,-0.10262,0.044977,-0.068516,-0.038409,-0.040039,0.044833,-0.037096,-0.046587,-0.062875,-0.045875,0.012901,-0.046207,-0.25489,-0.23239,-0.44067,-0.20242,-0.084849,-0.079394,-0.14636,-0.39714,-0.21,-0.10019,0.051445,-0.019855,0.25686,0.46041,0.50828,0.24142,-0.040144,-0.04775,-0.15146,-0.12671,-0.051934,-0.07135,-0.040192,-0.32546,-0.35912,-0.36924,-0.4098,-0.32307,-0.2578,-0.22082,-0.031225,-0.12228,-0.061683,-0.26662,-0.3873,-0.61915,-0.36425,-0.22119,-0.25136,-0.078432,0.01375,0.55821,0.25685,0.29618,0.19036,0.11484,-0.14848,0.052445,-0.17809,-0.10012,-0.15729,-0.42374,-0.35587,-0.23186,-0.33705,-0.15635,0.069509,0.20113,0.37863,0.24555,0.046582,-0.20956,-0.42614,-0.60591,-0.36665,-0.41735,-0.25819,-0.058504,0.0035005,0.21971,0.025689,0.015678,0.12937,0.06572,-0.022025,-0.12248,0.14711,0.13302,-0.13207,-0.58487,-0.21602,-0.028374,0.072879,0.13558,0.0081149,0.29785,0.61651,0.36691,-0.081736,-0.52289,-0.46698,-0.48356,-0.38884,-0.54854,-0.57252,-0.29443,-0.11612,0.042013,0.14468,0.071281,0.034632,0.0035282,-0.0099761,-0.089927,0.069122,-0.055024,-0.24552,-0.18133,-0.21384,-0.34047,-0.053339,-0.031355,0.1188,0.18279,0.37641,0.012363,-0.26581,-0.53805,-0.70628,-0.54691,-0.45577,-0.58465,-0.66698,-0.25043,-0.064072,0.059343,0.28534,-0.086253,-0.2022,0.064689,-0.035459,-9.0208e-05,-0.097578,-0.099375,-0.30013,-0.22125,-0.25484,-0.13276,-0.13621,0.24691,0.099074,0.23503,0.25306,-0.016747,-0.47707,-0.53311,-0.42821,-0.64211,-0.55433,-0.62614,-0.54391,-0.16023,-0.10721,0.08778,0.35688,0.089162,-0.075618,0.11319,-0.031982,-0.088295,0.067615,-0.045277,-0.12599,-0.09195,-0.091805,-0.2727,-0.32534,0.008427,0.18365,0.62246,0.38448,-0.23474,-0.62153,-0.5882,-0.56285,-0.38407,-0.30609,-0.38921,-0.047286,-0.020171,0.079969,0.43,0.22567,-0.042923,0.0063941,-0.02899,0.13333,-0.058393,-0.091449,0.0011701,0.064776,0.18476,0.104,-0.07103,-0.2213,0.0049715,0.40502,0.36658,-0.070183,-0.31114,-0.89561,-0.57468,-0.14018,-0.0023387,-0.34546,0.24854,0.31501,0.27845,0.37644,0.35302,0.30732,0.18278,0.025105,-0.16646,-0.10836,0.1743,-0.062167,-0.041582,0.14434,0.27637,0.23662,0.15854,0.033412,0.33173,0.1722,0.33428,0.062947,-0.35285,-0.63195,-0.27821,0.12363,-0.0041111,0.46287,0.51828,0.44772,0.30951,0.54437,0.38317,0.34685,0.18478,-0.036031,0.13158,-0.11781,-0.12154,-0.033537,0.22467,0.19491,0.37541,0.55284,0.52345,0.78188,0.81311,0.7767,0.60445,0.2625,-0.099401,-0.16706,-0.20489,0.044324,0.21878,0.62206,0.56672,0.59654,0.61739,0.63111,0.48112,0.10398,-0.03355,0.22071,0.025676,-0.041873,-0.21796,-0.072765,0.30918,-0.0096581,0.49039,0.79781,0.94195,0.86548,0.94986,1.0785,0.80584,0.57345,0.14939,0.08821,-0.008697,0.11284,0.38259,0.52503,0.55994,0.52961,0.27306,0.35476,0.40337,0.21025,0.078714,0.011464,-0.0048143,0.014992,0.12237,0.15487,0.1616,0.27476,0.33044,0.74384,0.69095,0.61025,0.50271,0.53345,0.56324,0.43267,0.37421,0.2761,0.090921,-0.016476,0.13172,0.26081,0.47346,0.55832,0.42287,0.42644,0.2155,-0.16903,-0.076443,0.084297,0.0092564,-0.0199,-0.022214,-0.10401,0.076098,0.23561,0.20551,0.26806,0.1734,0.014956,0.315,0.47006,0.32678,0.4598,0.5185,0.13303,0.16162,-0.029698,-0.055586,0.072882,0.15136,0.21752,0.34332,0.19718,0.059705,-0.080748,-0.027062,-0.080894,0.10047,0.055551,-0.072423,0.021209,0.078206,0.13941,0.028595,-0.01461,-0.033645,-0.056925,0.34471,0.25132,0.49747,0.26042,0.11096,0.18353,0.29601,0.28063,-0.1338,0.098618,0.012198,-0.14486,-0.072833,-0.012215,0.097351,0.063019,-0.16931,-0.01073,-0.069575,-0.0042732,-0.17604,0.13097,-0.092761,-0.084705,-0.19954,-0.28305,-0.11316,-0.013252,0.23877,-0.050308,0.10369,0.45741,0.49349,0.29596,0.38049,0.19365,0.15345,-0.075254,-0.12926,-0.4856,-0.11272,-0.11892,-0.084204,0.1335,0.047551,-0.03589,-0.081676,0.16061,-0.093665,-0.090384,0.092552,-0.060547,-0.14582,-0.19246,-0.22373,-0.35868,-0.044335,0.28412,-0.17879,0.0080738,0.078332,0.022776,0.074955,0.15438,-0.01333,-0.23703,-0.19582,-0.31625,-0.24262,0.1305,-0.14096,0.20822,-0.0026583,-0.083886,-0.094536,-0.034901,0.021599,0.078724,0.0038524,-0.21183,-0.076177,-0.13295,-0.077942,-0.080887,-0.22797,-0.15278,-0.15505,-0.1344,-0.094638,-0.099392,-0.31042,-0.0872,-0.32379,-0.15792,-0.0077805,-0.15419,-0.33177,0.092335,-0.013938,0.084684,0.092134,0.088425,-0.086195,0.073971,0.22213,0.031988,0.018629,-0.0091703,0.026522,0.0671,0.093991,-0.061411,0.018443,-0.18195,0.045575,0.025221,-0.069804,-0.10733,-0.023151,0.11338,-0.055627,-0.063998,0.018026,-0.17065,0.099858,-0.21049,0.10156,-0.07117,0.0113,0.044789,0.044781
0.049717,0.087009,-0.0203,0.016332,-0.14219,0.011586,0.14054,-0.13411,0.06707,0.015475,0.0097345,0.014792,-0.047064,0.026608,-0.14464,0.066359,0.01537,0.078403,0.081129,0.2455,-0.10881,-0.092074,-0.02233,0.073836,0.048175,0.19532,0.068697,0.057084,-0.033589,-0.068348,0.078471,-0.066233,0.018582,0.095302,0.18013,0.095843,0.066787,-0.056997,0.033387,0.014649,0.13636,-0.20214,-0.068361,-0.084772,-0.088647,-0.0077507,0.032609,-0.061313,-0.17808,-0.0041274,-0.12272,0.06417,-0.14687,0.30317,-0.14397,0.097631,-0.1056,-0.075991,-0.0037583,0.0087548,-0.045393,-0.0010304,0.049985,0.09018,0.018467,-0.2646,0.061972,-0.081452,0.0061564,0.078048,0.20228,-0.12666,0.003003,-0.13495,-0.20006,-0.12484,-0.076596,-0.14578,-0.035291,0.11954,0.036582,0.078625,-0.017265,0.058537,-0.053468,-0.212,0.0042484,-0.041225,0.088591,0.086441,0.035896,-0.0075858,0.22412,0.27039,0.26452,0.1846,0.13412,0.12589,-0.0016981,-0.10238,-0.031569,0.018574,-0.29247,-0.037249,-0.11688,0.0016172,-0.21399,-0.17489,-0.19813,-0.00073272,-0.095748,0.12836,-0.17517,0.077198,-0.010803,0.10485,-0.11018,-0.08576,0.17212,0.02622,0.11171,0.25761,0.00090109,0.096625,0.23423,0.27407,0.031239,0.0076331,0.11674,0.11476,0.090534,-0.12272,-0.079145,0.03023,-0.18684,-0.11518,-0.12925,-0.082062,-0.026273,-0.22036,-0.024969,-0.006582,0.067642,-0.086197,0.13593,0.0022684,-0.017031,0.042753,0.20233,0.3006,0.33312,0.43616,0.30312,0.30727,0.19585,0.17157,0.22134,0.034391,0.015198,0.029489,-0.21832,-0.04524,0.032776,0.0095405,0.023461,0.096779,-0.13838,-0.059012,0.0017918,0.019834,-0.069738,-0.088673,0.045237,0.10329,0.091706,0.099326,0.35592,0.26502,0.27838,0.13988,0.24804,0.14944,0.24107,0.30435,0.18144,0.2821,0.018936,-0.057507,-0.058438,0.071959,-0.23043,-0.34951,0.021339,-0.143,-0.052632,-0.027115,0.057453,-0.21301,0.053233,0.073911,-0.070573,-0.041275,-0.19728,-0.085621,-0.064407,0.15381,0.22668,0.10042,0.13665,0.16617,0.23965,0.24701,0.15205,0.28087,0.16696,0.14388,0.16495,0.16883,-0.043234,-0.078926,-0.19927,0.072033,0.038977,0.10631,0.097025,0.097245,-0.058975,0.047834,-0.020815,0.05357,-0.18031,-0.18438,-0.32429,-0.23973,-0.0089434,0.012772,-0.2747,-0.15972,0.0099784,0.030942,0.21382,0.021651,-0.0011047,0.18324,0.015427,-0.084804,0.20964,-0.010743,-0.17333,0.091632,-0.058826,0.089415,-0.035477,-0.080213,-0.00092474,-0.14387,-0.022562,-0.093545,-0.29716,-0.38161,-0.40716,0.10289,-0.036068,-0.035761,-0.13958,-0.42026,-0.27178,-0.17697,-0.11886,-0.12708,-0.074084,-0.15133,-0.071492,-0.053863,-0.18393,-0.1467,-0.027161,0.14077,-0.044473,0.026853,0.027033,-0.036031,-0.0020949,0.090675,-0.068102,-0.19333,-0.26549,-0.39468,-0.14413,-0.22221,-0.19167,-0.37925,-0.47558,-0.56442,-0.42683,-0.319,-0.19962,-0.01548,0.059192,-0.26858,-0.28603,-0.095556,-0.21473,-0.1985,-0.23875,0.20063,0.10153,-0.23701,0.17231,-0.010821,-0.044846,-0.087788,-0.16499,-0.27914,-0.36365,-0.9319,-0.53951,-0.81493,-0.68748,-0.64172,-0.64657,-0.90415,-0.69886,-0.46319,-0.22316,-0.21468,-0.14302,-0.022215,-0.2463,-0.20209,-0.12283,-0.24113,-0.26945,0.012604,0.078221,0.15195,-0.079351,0.075932,0.12496,0.010494,-0.17826,-0.34654,-0.66679,-0.71895,-0.67115,-0.85203,-0.94664,-0.98128,-0.80853,-0.78121,-1.0636,-0.62777,-0.49814,-0.39533,-0.26247,-0.18153,-0.17935,-0.36315,-0.3022,-0.39988,-0.23898,0.079241,0.17177,0.056573,0.097717,-0.0085929,0.0029924,0.040736,-0.22718,-0.54061,-0.66581,-0.73801,-0.85724,-0.77546,-0.80336,-0.69012,-0.39595,-0.50816,-0.75541,-0.5747,-0.41666,-0.33716,-0.1351,-0.1811,-0.26804,-0.087128,-0.23306,-0.14822,-0.087612,0.050272,0.0018613,0.1735,0.020727,0.0010003,-0.11638,-0.14526,-0.13552,-0.43616,-0.59592,-0.66617,-0.47665,-0.37695,-0.035337,-0.041132,-0.15007,-0.15066,-0.35231,-0.48678,-0.14751,-0.21951,-0.11262,-0.02625,-0.20031,-0.22401,-0.25584,-0.36211,0.15273,0.11776,0.1877,-0.0085132,-0.010411,0.11113,-0.14215,-0.11597,-0.11854,-0.32901,-0.18881,-0.17372,0.13289,0.23284,0.26446,0.23628,0.22246,-0.097508,-0.38971,-0.20353,-0.022548,-0.032443,-0.081579,-0.274,-0.34788,-0.27018,-0.25794,-0.064394,-0.070529,0.13506,0.058234,0.061493,-0.19523,0.010493,0.097259,-0.23567,0.08782,-0.11561,0.091808,0.14352,0.23662,0.67791,0.37471,0.15873,0.15934,0.13327,-0.10583,0.0091201,0.090005,-0.17698,-0.43648,-0.19936,-0.16563,-0.16512,-0.11242,-0.16513,0.0084807,0.13277,0.14253,0.06724,0.067025,0.03635,-0.06763,-0.16877,-0.071552,0.092563,0.38932,0.33972,0.23408,0.37387,0.52337,0.20341,0.15324,0.13697,0.057513,0.19068,-0.018607,-0.19925,-0.22549,-0.30911,-0.22703,-0.15981,-0.065146,-0.013269,0.06555,0.1185,-0.0041982,-0.093672,0.00257,0.028151,0.011826,0.0064791,0.044581,0.18618,0.27835,0.42401,0.44679,0.44385,0.23984,0.16092,0.45535,0.2898,-0.10507,0.011548,-0.22996,-0.078489,0.029017,-0.043713,0.0072463,-0.16662,0.042126,0.16638,0.19878,0.25175,0.048133,0.064051,0.041386,-0.02059,-0.046637,0.12187,0.1771,0.26098,0.33108,0.39413,0.38097,0.53212,0.25944,0.22716,0.19224,0.29232,0.14043,0.068385,-0.093509,0.12777,0.072325,0.19003,0.23718,0.08949,0.14195,0.13276,0.11022,0.064279,-0.096228,-0.065396,0.03086,0.023554,-0.089427,0.034453,0.17464,0.12088,0.17795,0.27298,0.32442,0.31207,0.15186,0.06263,0.083364,0.15784,-0.0046602,-0.17987,0.015937,-0.054848,0.0022378,0.071504,0.094492,0.12568,0.16352,0.17823,-0.050827,0.031853,-0.11205,-0.058086,-0.054746,0.051247,0.1199,0.020704,0.077681,0.113,-0.0095643,-0.03571,0.14716,0.26323,-0.12511,-0.032806,0.023778,-0.073206,0.024211,-0.16362,-0.2627,-0.2617,0.24777,-0.20407,0.15598,0.12362,0.12487,0.09889,0.20954,-0.00041583,-0.011974,-0.016116,0.12744,-0.2446,0.12801,-0.037627,-0.15081,-0.0063824,-0.0034472,0.021098,-0.00081196,-0.028293,-0.1188,-0.22812,-0.23625,-0.051049,-0.15122,-0.35297,-0.10769,-0.089364,-0.11395,0.21809,0.046386,-0.014032,0.21338,0.06455,0.16519,0.12118,0.10165,0.13529,0.003908,0.087389,0.24522,0.042499,-0.017397,-0.0723,0.083259,-0.095707,-0.185,-0.2634,-0.32196,0.21289,-0.093585,-0.19896,-0.18935,-0.36717,-0.090289,-0.25331,-0.022812,0.074603,-0.058088,0.10035,0.072357,-0.046965,0.22762,0.10262,-0.12646,-0.045766,0.17135,0.016223,-0.045246,-0.0065068,-0.14326,0.12274,0.014384,-0.17909,-0.20288,-0.37047,-0.25468,-0.13257,-0.23051,-0.15888,-0.23944,-0.20896,-0.30297,-0.16084,-0.047536,-0.085116,-0.027147,-0.092353,-0.11176,-0.023114,-0.1025,-0.1747,-0.19171,-0.091279,-0.056861,0.093337,0.077913,-0.082492,-0.077004,0.11144,0.050583,-0.040799,-0.21075,-0.109,-0.036869,-0.052944,-0.084635,-0.023592,-0.081474,0.014651,-0.061368,-0.27613,-0.056532,-0.2421,-0.13237,-0.025129,-0.050099,0.14688,0.044948,-0.018488,-0.13428,0.058696,-0.037964,-0.0073687,-0.015553,0.012215,-0.032826,-0.19731,0.030724,-0.046983,-0.10058,0.033508,-0.034403,0.079295,0.05235,-0.031306,0.038896,0.16777,-0.03259,-0.070485,0.013484,-0.1654,0.077271,-0.0055572,-0.11454,-0.032825,0.09045,0.12444,0.047625,-0.036392,0.10968,-0.048503,-0.31328,0.072613,0.13693,-0.0080111,0.04413,0.12618,0.0092881,-0.023391,0.13632,0.065354,0.010885,-0.095456,-0.034131,-0.11609,0.0077169,0.0072864,-0.18208,0.08604,0.066818,-0.035701,-0.049118,-0.081974,0.027392,-0.073773,0.067511,0.0043777
0.0328,0.066562,-0.054748,0.022304,0.089194,-0.031996,-0.017536,0.18405,0.10398,-0.008646,-0.032237,-0.12901,0.12593,-0.00091912,-0.004142,0.063746,-0.16625,0.13651,-0.22398,0.14489,0.16145,0.055921,0.090661,0.089392,-0.15167,-0.089702,0.0089271,0.060149,0.021099,-0.046229,0.02643,-0.093749,-0.063777,0.0047391,-0.21897,-0.082649,-0.1387,0.13052,-0.10083,0.11268,0.012768,-0.07789,-0.063106,-0.054777,-0.049536,-0.10718,-0.017864,-0.073582,-0.10219,-0.13523,0.17754,0.061954,0.047256,-0.0082786,0.082857,-0.008548,-0.011042,0.050103,-0.15325,0.05415,0.066538,0.16294,0.015583,0.081929,0.082561,-0.046428,0.048332,0.001612,-0.049652,-0.040547,0.16225,-0.18024,-0.083142,-0.15871,0.047204,-0.039315,-0.1908,-0.041581,0.0053515,0.0084885,0.072117,-0.074547,0.10441,0.014028,-0.025422,-0.20245,0.013134,-0.27135,-0.062667,0.0634,-0.17702,-0.022124,0.070649,0.10694,-0.046067,-0.16421,-0.12725,-0.27583,-0.1133,-0.42459,-0.13116,-0.24707,0.050234,-0.24866,-0.16032,-0.083388,0.043373,0.086366,-0.051845,-0.1073,-0.12927,-0.15581,0.070266,-0.055931,0.13898,-0.063735,-0.011691,0.020932,-0.0061188,-0.012413,-0.1855,-0.060379,-0.27731,-0.28505,-0.061901,-0.3542,-0.10358,-0.20127,-0.010087,0.069799,-0.005333,-0.049775,0.12588,0.10083,-0.052794,0.1135,-0.10518,-0.10736,-0.099507,0.0598,-0.061328,-0.13191,0.023476,-0.16582,0.027655,-0.032969,-0.030758,-0.27834,-0.061657,-0.34636,-0.21975,-0.10358,-0.027959,-0.098201,0.088427,-0.15902,-0.16052,0.02843,0.33756,0.26771,0.32139,0.23845,0.18978,0.1865,0.024415,0.22772,0.14103,0.15433,0.08273,0.078929,-0.12245,-0.1075,-0.031181,-0.093808,-0.24996,-0.12405,-0.23226,-0.21806,0.073565,-0.045613,0.09194,-0.051384,-0.12875,0.17172,0.15804,0.29832,0.0053997,0.40117,0.40925,0.41237,0.012717,0.09841,0.15155,-0.0069687,0.033199,-0.095697,-0.0056954,0.033738,-0.02326,-0.036387,0.029658,-0.057125,-0.4343,-0.29905,-0.0010278,-0.16531,0.11576,0.067981,0.068333,0.15353,-0.019829,-0.086045,0.11046,0.10782,0.22489,0.075446,0.040046,0.24903,0.19224,0.23501,0.018338,-0.059854,0.056359,-0.038001,-0.00086924,0.1117,-0.17255,-0.14481,-0.19823,-0.14507,-0.083236,-0.040646,-0.056681,-0.01556,0.11444,0.29491,0.098591,0.34327,0.069546,-0.15364,-0.11455,-0.26201,-0.1843,-0.15989,0.0068451,-0.14529,0.16043,0.080373,0.040303,-0.19444,-0.0069943,0.082254,0.020841,0.08739,0.21968,-0.15323,-0.041933,0.050874,0.029348,-0.09694,-0.16832,0.033056,0.10003,0.47932,0.28194,0.30024,0.12439,-0.19645,-0.3384,-0.4042,-0.47638,-0.25508,-0.46949,-0.21307,0.025245,-0.12508,0.0094884,-0.18678,-0.12501,-0.10349,0.11221,-0.066818,-0.10294,-0.073978,-0.098285,-0.054143,-0.13382,-0.38057,-0.14087,0.088044,0.16656,0.24505,0.43807,0.29283,0.23586,0.13663,-0.36147,-0.62536,-0.67605,-0.37379,-0.35031,-0.16866,0.12449,-0.12643,-0.22738,-0.018451,0.060155,0.17377,-0.071955,-0.0048146,0.036938,-0.22982,-0.13617,-0.0095769,0.06285,0.027999,-0.13913,0.12428,0.011269,0.15602,0.20368,0.21942,0.20784,0.068296,-0.05634,-0.39465,-0.41325,-0.31079,0.026204,-0.12584,-0.093446,-0.25445,-0.048025,0.016494,0.0645,0.041389,-0.0083919,0.070946,0.08092,0.0041602,0.011025,0.0024974,-0.29632,0.0095088,-0.2859,-0.081103,-0.47451,-0.076932,-0.0028918,0.17094,0.21337,0.41175,-0.0026888,-0.20413,-0.24158,-0.27817,-0.16945,-0.027778,0.056882,-0.20884,-0.074956,0.11098,-0.040065,0.0082776,0.047019,0.061374,-0.085544,-0.061871,-0.066841,-0.046288,-0.29286,-0.10391,-0.23393,-0.49287,-0.47135,-0.13986,-0.019372,0.0038922,0.19906,0.26678,0.022539,-0.24965,-0.46726,-0.13976,0.13563,0.0001046,-0.19454,-0.24244,-0.05446,0.087308,-0.046307,0.024072,-0.057374,-0.055365,0.0041355,-0.01206,0.044468,-0.37915,-0.27472,-0.23436,-0.22613,-0.32886,-0.44657,-0.32349,-0.19997,-0.10582,0.20398,0.3596,-0.0070471,-0.55336,-0.60529,-0.48895,-0.14388,-0.3735,-0.14822,-0.088245,-0.11637,0.014153,0.13879,-0.036245,0.052489,0.062041,-0.033871,0.058122,0.1477,0.063447,-0.25052,-0.44549,-0.45561,-0.3686,-0.19001,-0.14322,-0.0012698,0.023298,0.19713,0.23406,-0.11144,-0.5641,-0.54856,-0.35491,-0.33736,-0.47803,-0.40308,-0.084162,-0.13746,0.054438,0.024009,0.16518,0.14594,0.02878,0.0052635,-0.13926,-0.086718,-0.17769,-0.19728,-0.35952,0.011698,0.15297,0.18581,0.12655,0.1031,0.16129,0.16144,-0.051091,-0.13531,-0.56057,-0.70836,-0.42182,-0.2525,-0.17403,-0.1108,-0.1557,0.033152,0.13948,0.1895,0.087085,0.13463,-0.027967,-0.18941,-0.088272,-0.095467,-0.23062,-0.070805,-0.15641,0.21918,0.28855,0.22714,0.43795,0.36661,0.21744,0.44384,0.10043,-0.43279,-0.43361,-0.32161,-0.051381,-0.14544,-0.086881,-0.098117,-0.12537,0.05305,0.12723,0.036109,-0.087071,-0.013202,0.16379,-0.11481,-0.14114,-0.03729,-0.021076,0.033483,-0.24246,-0.082784,0.27228,0.24087,0.29816,0.35015,0.32507,0.16069,-0.23753,-0.43629,-0.56391,-0.082355,0.0047767,0.26504,0.17466,-0.085309,0.1772,0.17116,0.063077,-0.013299,-0.064612,-0.097686,-0.066544,-0.031084,0.02121,0.089632,-0.044944,0.17179,-0.050725,0.021911,0.41554,0.56827,0.29722,0.19227,0.11693,-0.079268,-0.1444,-0.20608,-0.35427,-0.13434,-0.1195,0.060835,-0.11701,-0.06758,0.058292,0.25645,0.20729,-0.092517,-0.069934,0.093635,-0.092999,-0.096068,-0.10683,0.040768,-0.0049963,0.14293,0.14076,0.28502,0.10641,0.15798,0.19038,0.29605,-0.077939,-0.14074,-0.28046,-0.097392,-0.011903,-0.095588,0.068979,0.19754,0.13676,-0.13631,0.18478,0.030605,0.12799,0.025307,0.025075,0.20552,0.013411,0.043028,-0.10305,0.13564,0.14877,0.068385,0.33,0.40183,0.24142,0.23248,0.30743,0.028902,-0.032875,-0.28717,-0.12403,-0.1367,0.16785,0.28485,-0.016617,0.11207,-0.037092,0.21441,0.085304,0.023978,0.051028,-0.095181,-0.31402,-0.13401,0.081431,0.13626,-0.034576,0.015631,0.3551,0.14709,0.17057,0.30558,0.29347,0.010739,-0.087442,0.070938,-0.017052,-0.050525,-0.17404,0.02028,-0.0072264,0.15113,-0.0093301,0.21181,0.30069,0.055774,0.053659,0.095722,-0.054439,0.13862,-0.037246,-0.036251,0.15896,0.061608,-0.18063,-0.086593,-0.1104,-0.050194,-0.11796,0.20764,-0.058687,0.017715,-0.10067,0.073315,-0.13413,0.10652,0.02321,-0.29091,-0.21919,-0.18585,0.04762,0.012657,-0.1071,-0.0038552,-0.099687,-0.0035629,0.083125,0.0084273,0.087912,-0.070906,-0.086491,0.18401,0.004906,-0.019866,-0.0295,-0.023255,-0.42597,-0.2232,-0.093575,-0.076764,-0.21042,0.07593,-0.21972,-0.1237,-0.34233,-0.16396,-0.42113,-0.17236,-0.019605,0.061059,-0.14913,0.017375,-0.22088,0.055876,-0.12191,-0.17341,0.10983,-0.10136,-0.059411,-0.059032,-0.28619,0.044453,-0.023835,0.010169,-0.10969,-0.31518,-0.18573,-0.037023,-0.27658,-0.31883,-0.19953,-0.36379,-0.16636,-0.21352,7.7929e-05,-0.073604,-0.014921,-0.26321,0.034323,-0.020316,-0.052437,-0.01183,-0.023027,-0.099267,-0.006155,0.099006,0.041198,0.073222,0.057504,-0.038614,0.047811,0.18802,0.096049,0.041938,-0.073467,-0.12311,-0.026351,-0.23669,-0.09558,0.00059384,-0.26678,-0.17438,0.03071,0.0077485,0.027086,-0.076184,0.07267,0.051634,0.019649,-0.0057838,-0.032408,-0.15247,-0.21671,-0.055274,0.10475,-0.048223,-0.059157,-0.064557,-0.013118,0.28859,-0.16211,-0.01672,-0.035763,-0.048263,-0.024583,0.15411,-0.053183,0.018709,-0.064405,-0.0305,-0.018682,0.05344,-0.052448,-0.092578,-0.027629,-0.017038,-0.0027736,0.025923,-0.0558,0.074041,0.094141
0.12231,-0.036795,-0.051295,-0.0061139,-0.062859,-0.05531,-0.16408,-0.01557,-0.081762,0.090164,-0.13683,-0.18275,0.010518,0.071106,0.10981,0.32184,0.022077,-0.023753,-0.080054,-0.1405,-0.073289,-0.11319,-0.1791,0.037293,-0.026574,-0.056776,0.13823,-0.03706,-0.1457,-0.023797,-0.093354,-0.090077,-0.077662,0.18078,-0.11111,-0.072948,0.035877,0.031501,0.048219,-0.0068456,0.046008,-0.10754,-0.11862,0.11056,-0.063362,0.19457,0.10189,0.12083,-0.25293,0.020987,0.00043539,0.090701,0.10089,-0.050244,0.012669,-0.02894,-0.048616,-0.24736,-0.15539,0.0037629,-0.10394,0.077643,-0.025956,-0.00023522,0.043406,-0.095756,-0.026435,0.082802,0.11123,0.12187,0.11543,0.061494,0.096358,-0.20098,0.034877,0.086535,-0.094293,-0.10215,0.079523,0.0080462,0.1981,-0.075205,0.001702,-0.20682,0.01952,-0.003371,0.026205,0.065374,0.031459,0.033147,0.083757,-0.019701,0.0039515,-0.094188,0.065227,0.056641,-0.021264,0.12908,-0.11413,0.036677,-0.21842,0.12687,0.18249,-0.00078219,0.13238,-0.23642,0.13508,-0.0012245,-0.025953,-0.10861,0.045747,0.015788,0.0063487,-0.12841,0.0063303,0.12541,-0.033928,0.10375,0.053482,0.067266,0.15389,0.04215,0.00068207,-0.06505,0.01539,-0.075555,-0.056214,-0.082401,0.055836,0.079323,0.18432,-0.16277,-0.090582,0.0028381,0.090496,-0.008327,0.030463,-0.012392,0.035441,-0.024254,-0.054151,0.079582,-0.048875,0.049638,-0.092959,0.055959,0.0088633,-0.033215,0.057569,-0.19111,-0.035452,0.10967,0.033012,-0.058493,-0.0086129,-0.21419,-0.12452,-0.20585,-0.17519,-0.1913,-0.050166,0.12814,-0.011672,-0.064656,-0.0044257,0.0018447,0.25087,-0.20961,0.12425,-0.027334,-0.064094,-0.18401,-0.037511,0.016467,0.028216,0.15105,0.0059004,0.089048,0.038463,-0.23677,0.0027898,-0.022886,-0.09312,-0.025385,-0.071778,0.0038826,-0.052123,-0.12737,0.019642,0.04009,0.0072017,-0.14514,0.09328,-0.19815,0.10691,0.17568,-0.14532,-0.052004,0.10783,0.075533,0.044495,0.081743,0.011418,0.085268,0.09256,-0.12338,-0.19299,-0.077139,-0.21331,-0.15772,-0.13455,-0.23566,0.069901,-0.060283,-0.076048,-0.004927,-0.013782,-0.16012,-0.086897,-0.11871,-0.053298,-0.08233,0.033676,-0.059934,0.020237,-0.023096,0.094333,-0.046445,0.14058,-0.043082,0.0057854,-0.077212,-0.11098,0.032057,-0.0268,0.059863,-0.105,-0.17658,-0.15062,-0.20028,-0.17422,-0.28524,-0.091495,0.021838,-0.16405,-0.09969,-0.15999,0.013749,0.069758,-0.15448,-0.032094,-0.13607,0.024715,-0.011118,0.043566,-0.00049442,-0.013135,-0.099896,0.039385,0.072618,0.085737,-0.034425,-0.019504,0.035461,-0.06297,-0.11769,-0.11218,-0.25156,-0.17664,-0.23659,-0.19209,-0.25307,-0.018293,0.032775,-0.16632,-0.027583,0.009078,0.050479,0.061971,-0.051084,0.10671,0.022675,-0.0014822,-0.26717,-0.16176,-0.07716,-0.10169,0.040232,0.052631,-0.040873,-0.008128,-0.21094,0.075438,-0.12221,-0.15356,-0.093489,-0.0056384,-0.087319,-0.31416,0.039058,-0.25362,-0.1419,0.075994,-0.11791,-0.18865,0.0019409,0.0011571,-0.11782,-0.030702,0.13993,0.07192,-0.11664,0.00057205,-0.077832,-0.016467,0.043294,-0.0084012,0.11843,-0.028979,-0.012545,-0.062982,0.050786,0.047173,-0.36013,-0.064596,0.02046,-0.066281,-0.12909,-0.090384,-0.10906,-0.12034,-0.13662,-0.055313,-0.073065,-0.13392,-0.12338,0.040796,0.010806,0.061056,0.052193,0.0036343,-0.070359,-0.0031099,0.024041,-0.059999,-0.098704,-0.14657,-0.12833,-0.21476,-0.19865,-0.17962,-0.13697,-0.10636,-0.011145,0.16097,-0.34945,0.21721,0.18533,0.011019,-0.013803,0.085624,-0.097271,-0.067221,-0.059475,-0.058003,-0.19516,0.07737,0.027695,-0.016247,0.24055,0.018218,0.025741,-0.15881,-0.081703,-0.10593,-0.064711,-0.049391,0.089694,-0.13241,-0.17142,-0.17825,-0.099174,0.050424,0.1477,-0.10956,0.15493,0.021016,-0.033347,-0.035394,-0.049407,-0.0072556,-0.097481,-0.066684,0.02363,-0.054385,-0.0578,0.085593,0.15192,-0.048373,-0.06476,0.0037651,-0.16632,-0.20768,-0.11642,-0.072351,-0.15375,-0.1317,-0.11188,-0.15674,-0.063403,0.082201,0.01274,-0.20672,0.04232,-0.10495,0.032991,-0.028269,0.060042,-0.17041,0.00087839,-0.0085346,-0.14435,-0.024261,0.041689,-0.0064624,-0.049025,-0.0043302,0.10297,-0.14201,-0.17505,-0.13829,-0.14553,-0.081265,-0.17214,-0.19748,-0.093869,-0.12393,-0.30124,-0.039398,-0.14638,-0.15539,0.042525,0.13003,-0.1627,-0.074987,0.0053353,-0.1257,-0.039414,-0.04293,-0.025008,0.071988,0.14482,0.015228,-0.31459,0.06087,-0.024721,-0.19857,-0.10311,-0.17997,0.012615,-0.17041,-0.19502,-0.14318,-0.20816,-0.22688,-0.12064,0.067011,-0.14661,-0.1058,-0.19003,-0.13331,-0.049244,-0.16359,-0.14222,-0.037015,0.22672,-0.044744,-0.0031002,-0.097424,0.08073,-0.14105,-0.25515,-0.19549,-0.13491,-0.29072,-0.18547,0.07051,-0.040028,-0.031935,-0.31775,-0.019309,-0.0033707,-0.11165,-0.039821,-0.20255,0.11602,-0.14325,-0.12003,-0.078271,-0.20765,-0.054248,-0.0097135,0.15478,0.063562,-0.00326,-0.083162,0.0073463,0.22141,-0.12978,-0.035473,-0.053583,-0.14236,-0.024335,-0.040932,0.061277,-0.19036,-0.06538,-0.002625,-0.010903,0.021213,-0.11619,0.042136,8.443e-05,0.0085245,-0.10466,-0.054152,-0.16903,-0.1699,-0.17013,-0.28975,0.10705,-0.020055,0.05137,-0.066028,0.0044069,0.11766,-0.10638,0.053874,-0.02768,-0.067477,-0.13192,-0.010099,0.10049,-0.18975,-0.11458,-0.10332,-0.17313,-0.22272,-0.094196,-0.05159,-0.039922,-0.19122,-0.12729,-0.1167,-0.059669,-0.029363,-0.3759,-0.13411,0.028093,-0.067091,-0.13786,-0.03074,0.098339,-0.065456,0.013408,-0.18543,0.071409,-0.21846,-0.037203,-0.26233,-0.028527,-0.10341,-0.16483,-0.15719,0.0983,-0.096906,-0.15704,-0.20836,0.00067356,0.086718,-0.08845,0.13537,-0.11428,0.036134,0.16273,-0.05663,-0.080639,-0.14206,0.064531,-0.075194,-0.1211,0.058075,0.069194,-0.060411,-0.19483,0.022367,0.022882,-0.0078163,0.11935,0.00099504,-0.22043,-0.064041,-0.09582,-0.31213,-0.20125,-0.030949,-0.16916,-0.066302,-0.098023,-0.13963,-0.12376,-0.095354,0.13693,0.16023,-0.058296,-0.033525,-0.095409,0.077733,-0.015281,0.18582,-0.0091846,0.066744,0.12645,0.073107,-0.16684,-0.15454,-0.31288,-0.14723,-0.16263,-0.01423,-0.13345,0.057977,0.085366,-0.089689,-0.073616,-0.12028,-0.0211,0.013844,0.020017,0.03715,0.013548,-0.056327,-0.012462,-0.035908,0.11677,0.17697,-0.053275,-0.00016905,0.068824,-0.0031768,-0.14174,-0.10276,0.030667,0.19521,-0.070468,-0.23559,-0.053343,-0.23053,-0.079837,0.046887,0.065798,0.048472,-0.11138,0.081383,-0.17745,-0.024724,0.088545,0.00080684,0.18939,0.034142,-0.043064,0.085823,0.17087,-0.038609,-0.051455,-0.039769,0.051374,0.036154,0.11104,0.13173,0.2266,0.034284,-0.049219,-0.019856,-0.08856,-0.027406,-0.17771,-0.15401,-0.047202,0.069278,0.090022,0.087361,0.16606,0.05939,-0.15153,0.034653,0.19827,-0.18513,0.12311,0.038681,0.063235,0.1765,0.16938,0.049626,-0.053639,0.07927,0.080898,0.15868,0.078713,0.092438,0.1427,0.039946,0.15764,-0.062622,0.030938,-0.068509,0.13732,0.020104,0.035042,0.13179,0.043391,-0.0095905,-0.0056109,0.027593,-0.0041668,-0.15296,0.21181,0.19332,-0.070864,0.16431,-0.044924,-0.13936,0.21532,-0.0033812,0.11917,0.05563,0.0053814,0.042245,-0.10303,-0.14215,-0.13174,-0.073985,0.22623,0.097737,0.053202,0.044244,-0.15507,0.13078,-0.098605,0.015833,-0.14333,-0.11327,-0.013107,0.06103,-0.008128,-0.0036843,-0.09281,0.054139,0.078051,0.071104,0.019111,-0.021969,-0.060043,0.0044608,0.036325,0.012754,0.0062602,0.0072414,0.069543,0.086681,-0.14631,-0.018682,0.019596,-0.012146,-0.11288,0.1378,-0.0031616,0.2229,0.095018,0.001918,-0.018353,-0.097411,-0.074254,-0.074721
0.010689,-0.15952,0.053389,-0.058041,-0.096235,0.025472,0.19044,-0.1411,0.1079,0.2759,-0.073084,-0.096161,-0.095906,0.016628,-0.053195,0.022437,-0.081041,-0.22035,-0.051609,-0.20329,-0.17223,0.014978,-0.048652,0.11176,0.12237,0.11994,-0.062994,0.022112,-0.10545,-0.057077,0.0027837,-0.073653,0.09435,-0.14297,0.061929,-0.045076,0.032594,-0.083997,0.042952,-0.13651,0.033255,-0.033166,-0.11579,0.021227,-0.14442,0.029611,-0.0061334,0.11217,-0.015123,0.091761,0.1469,-0.012349,0.035097,0.12944,0.19239,-0.061637,-0.090982,-0.14924,-0.05612,0.060569,0.030306,0.18986,-0.01174,-0.0031975,0.13695,0.13389,-0.050393,0.085855,0.02865,-0.040163,-0.077724,-0.11229,-0.0078604,0.059834,0.10218,-0.017903,0.026783,0.077099,-0.22634,-0.083171,-0.10866,-0.02119,-0.070583,-0.013835,0.070724,-0.026712,0.0089234,0.041372,-0.13064,0.063891,-0.049213,-0.0096704,-0.096544,0.11161,-0.22976,-0.13136,-0.1845,-0.13608,0.044911,0.024456,0.097177,-0.02646,0.12513,-0.038333,0.2049,-0.047006,-0.0581,-0.042132,-0.079962,0.10402,0.032919,0.083739,-0.14757,0.053264,0.03978,-0.13628,-0.023982,0.050894,0.14684,0.11322,0.082719,0.12443,0.12684,-0.097381,0.0052249,-0.033396,0.15236,0.0043642,0.016371,0.024141,0.13479,0.2075,0.039675,0.12192,0.077105,0.084355,0.10944,0.21433,0.070326,-0.02616,0.1062,0.067357,0.014277,0.11438,-0.068241,-0.030259,0.086114,0.025383,0.29795,0.1826,0.025308,-0.10269,-0.035241,-0.15122,-0.25639,-0.053775,0.34176,0.26503,0.089918,0.1797,0.26155,0.32184,-0.022993,-0.017546,0.29834,-0.038323,0.077076,-0.041259,-0.076131,-0.040635,-0.02327,0.23421,0.13764,0.05104,0.43304,0.43157,0.37692,0.66065,0.062474,-0.014689,-0.25048,-0.30626,-0.40741,-0.072953,0.35199,0.42757,0.21153,0.3318,0.28907,0.23109,0.0025886,-0.17947,0.0078794,-0.20261,-0.036845,0.1467,0.034806,0.024348,0.15627,0.034043,0.34025,0.14161,0.31462,0.27354,0.49357,0.2153,0.16499,-0.14652,-0.20539,-0.57086,-0.58062,0.020586,0.17378,0.43773,0.50454,0.23276,0.036738,0.017346,-0.20703,-0.058435,-0.074238,-0.14882,0.026212,-0.013671,0.092416,0.13906,-0.0028468,-0.069136,0.016669,0.14618,0.2869,0.55697,0.30416,0.20241,0.12528,0.11269,-0.010307,-0.32339,-0.27936,0.31932,0.53816,0.27339,0.18262,0.11103,-0.0061168,-0.030122,0.17646,0.12574,-0.0024078,-0.15281,0.027381,-0.10415,0.10688,0.22423,0.0036073,-0.061824,0.13709,0.41435,0.2954,0.31601,0.115,0.24552,0.050629,-0.3352,-0.13486,-0.41337,-0.094275,0.24025,0.32381,0.33337,0.18804,0.11895,0.025039,0.00029142,0.29025,0.27315,-0.069526,-0.098965,-0.017791,0.045714,-0.014084,0.019262,0.1115,0.25791,0.079784,0.0040474,0.12042,0.28128,0.14538,-0.097113,-0.2533,-0.55365,-0.95865,-0.37405,-0.13054,0.26661,0.24621,0.40777,0.11011,0.10139,0.06952,0.14772,0.23721,0.32793,0.09717,-0.10649,-0.0086962,0.10274,0.15446,-0.0090308,-0.10039,0.067753,-0.054609,-0.14822,-0.17508,0.014786,0.039099,0.023245,-0.54969,-0.51457,-0.31897,-0.0035791,0.29447,0.1426,0.22594,0.22588,0.11395,-0.095323,0.049329,0.02783,0.33264,0.25218,0.24641,0.011483,0.02372,0.077385,-0.13928,-0.090831,-0.076631,0.1098,-0.13349,-0.15629,-0.28298,-0.055038,-0.26664,-0.26311,-0.54943,-0.46348,-0.19956,0.13418,0.084584,0.40141,0.026323,0.35859,-0.11378,-0.38344,-0.084488,-0.015708,0.17094,0.30705,0.13808,-0.017047,0.017879,-0.13852,0.13819,-0.020144,-0.1156,0.10222,-0.050412,-0.067158,-0.11429,-0.18802,-0.12385,-0.20173,-0.51627,-0.18049,-0.13637,0.073948,0.01651,-0.13081,0.1394,0.072665,-0.076247,-0.11317,-0.09884,-0.057147,-0.0058978,0.16369,0.0458,-0.16805,0.13924,-0.022716,-0.13349,-0.023312,-0.10381,-0.19503,-0.14654,-0.070034,-0.27857,-0.30789,-0.57743,-0.51011,-0.45039,-0.34783,-0.10031,-0.091443,0.18027,0.12545,-0.26419,-0.2248,-0.30278,-0.079423,-0.21453,-0.17362,-0.12776,0.0024174,0.20203,0.10336,0.094675,-0.15012,-0.073903,-0.054277,-0.07339,-0.07532,-0.074279,-0.23911,-0.22766,-0.15498,-0.40413,-0.46343,-0.33755,-0.0737,0.22589,0.4668,0.43494,-0.056858,-0.58121,-0.44149,-0.06775,-0.084866,-0.23763,0.10187,0.16222,0.13927,-0.088016,-0.15141,-0.0097182,-0.086619,0.090517,0.012556,0.12307,0.091608,-0.086494,-0.086042,-0.10733,0.010299,-0.29812,-0.2296,-0.085103,0.15201,0.37998,0.47758,0.067102,-0.25263,-0.43295,-0.1966,-0.429,-0.27337,0.042547,-0.072078,0.1603,0.26552,-0.1532,0.036587,-0.10566,0.02518,-0.068309,0.090355,-0.049122,-0.074282,-0.11166,0.095721,-0.21833,-0.15158,-0.1151,-0.065322,0.323,0.23056,0.59561,0.59817,-0.18021,-0.71516,-0.38447,-0.035835,-0.54793,-0.026112,0.017861,0.054367,0.24964,0.044187,-0.040819,-0.12845,-0.060165,-0.028405,-0.015468,-0.10952,0.16369,0.028099,-0.0045882,0.10534,-0.27253,-0.11523,-0.10898,0.18136,0.065393,0.24371,0.63886,0.068384,-0.65458,-0.85187,-0.37354,-0.55907,-0.36687,-0.3165,-0.42884,-0.21327,-0.070522,-0.037889,-0.20433,-0.074871,-0.013246,-0.037374,-0.056478,0.061136,0.0059856,0.1036,-0.023428,-0.13801,-0.17481,-0.203,-0.029504,0.21211,0.18449,0.42326,0.41835,0.15842,-0.84404,-0.43571,-0.35322,-0.44024,-0.39038,-0.53847,-0.015917,0.10063,-0.038356,-0.19395,-0.27192,0.051553,0.014202,-0.12032,-0.21689,0.010737,-0.037834,-0.0013983,0.022002,-0.093805,0.25744,0.022235,0.078115,0.22241,0.57894,0.36868,0.49268,0.26485,-0.2776,-0.21192,-0.33023,-0.42691,-0.38597,-0.023765,0.28666,0.2797,0.15736,0.08079,-0.29066,-0.19829,-0.047452,-0.00084852,0.00033717,-0.013514,0.0064618,0.037897,-0.21214,0.16249,0.23405,0.0075498,0.18829,0.40449,0.50177,0.15239,0.41154,0.14768,0.16795,0.12593,0.07512,0.11202,0.14113,0.20097,0.17204,0.041999,-0.061681,0.05445,-0.10328,-0.09924,0.017402,-0.081654,0.28739,0.040794,0.14926,0.09388,-0.026554,0.14382,0.080766,0.25818,0.25717,0.29294,0.31783,0.27748,0.34176,0.26427,0.43635,0.38293,0.081858,0.22185,0.40838,0.23876,0.13644,0.074093,0.022136,-0.11187,-0.10166,-0.046797,-0.1312,-0.096631,0.15674,0.057899,0.084958,0.037197,0.024742,0.065511,0.36327,0.14753,0.23937,0.10741,-0.10549,0.20906,0.34394,0.15339,0.28622,0.30826,0.35618,0.32762,0.65562,0.47193,0.18278,0.09655,0.0084661,0.067904,0.021652,-0.018726,-0.12142,-0.091212,0.10726,0.02261,0.019787,-0.12921,0.13841,-0.099895,0.076505,0.027366,0.17144,0.13138,0.059846,0.53421,0.39254,0.52357,0.54455,0.28272,0.30692,0.057703,0.22779,0.048385,-0.0961,-0.10476,0.0031959,-0.0039373,-0.023705,0.0061905,0.082893,-0.01774,0.15055,0.052573,-0.016918,0.088534,0.028016,0.033911,0.01161,0.24747,-0.12749,-0.11735,0.10744,0.18813,-0.052396,-0.10092,-0.069272,-0.038656,-0.11214,-0.016593,-0.14971,-0.24593,-0.41008,-0.20512,0.095623,0.061956,-0.10123,-0.011649,-0.011986,0.030315,0.1117,-0.09138,-0.34744,-0.18328,-0.07127,-0.092982,-0.054858,0.22173,-0.071504,-0.0053231,-0.016475,-0.13078,-0.10556,-0.043939,-0.028543,-0.021547,-0.021527,0.067227,-0.22728,0.039693,-0.1618,-0.11305,-0.2396,0.02536,-0.10574,0.072436,-0.0045134,-0.16121,0.092505,-0.21244,-0.028215,-0.041303,0.13023,0.062795,-0.13103,-0.038759,-0.025433,0.12489,0.13654,-0.097753,0.1797,0.0032326,-0.04218,0.033211,0.087097,0.28777,-0.20655,-0.013959,-0.016609,-0.068734,0.10311,0.050275,-0.025811,-0.10008,0.14197,0.12546
0.034173,0.055667,0.17803,0.089852,-0.13778,-0.11884,-0.10352,0.076527,0.018799,-0.0086992,0.068954,0.10843,0.099643,0.0771,0.10804,0.17414,0.0079009,-0.1832,0.11762,-0.090531,-0.13332,-0.10576,-0.064,-0.028277,0.11847,0.019332,0.13659,-0.10941,-0.21987,-0.0045108,-0.039586,0.10264,0.051701,-0.035785,0.085045,-0.045102,-0.15178,0.068248,0.24948,-0.12163,0.20921,-0.09278,0.0052033,-0.11157,-0.21927,-0.017643,-0.082885,0.020266,0.035719,-0.044838,-0.04449,-0.033977,0.10235,-0.051846,0.031135,-0.029439,0.069924,0.21071,0.00043862,-0.12311,-0.0059758,-0.034717,0.013978,-0.12175,0.18419,0.088787,0.060846,-0.014732,0.17125,0.12141,-0.00095497,0.1708,0.069913,0.037592,-0.03312,0.021008,0.072691,0.083264,0.020117,0.12452,0.029441,0.077741,0.029054,0.02409,0.12228,-0.089234,0.03391,-0.20881,-0.091047,0.24268,-0.0070273,-0.1162,0.10425,-0.013663,-0.067413,-0.0044217,-0.065688,-0.1752,0.086058,-0.19583,-0.060987,0.18358,0.12983,0.15262,-0.023257,0.010081,-0.14308,0.015122,-0.055236,-0.12565,0.080179,0.07189,0.079423,0.088584,0.030862,0.1308,0.036835,-0.033517,0.075667,0.12734,0.1347,0.025323,0.034424,-0.086145,-0.09512,-0.051882,-0.0847,0.091484,0.20329,0.16838,-0.035555,-0.076849,-0.010816,-0.046242,-0.11741,0.11147,-0.033122,0.11668,-0.036088,0.022126,0.0025685,0.14132,-0.11483,-0.053224,0.1981,0.075424,0.058462,-0.027032,0.043611,0.14887,0.017509,-0.074763,0.095641,0.095037,0.14513,0.18553,0.2965,-0.057486,-0.28801,-0.24315,-0.095812,-0.23278,-0.10056,-0.0064167,0.063877,0.096102,0.1281,-0.24003,-0.060059,0.095769,-0.26435,0.055687,0.13995,-0.12293,0.14072,0.071644,0.062927,-0.13762,0.090184,0.030598,0.12169,0.011585,0.23448,0.66937,0.30098,0.068899,-0.25185,-0.28454,-0.43443,-0.073707,-0.035413,-0.06472,-0.07002,0.044941,0.00673,0.034877,0.076635,-0.053563,-0.12832,-0.073344,0.064376,0.13463,-0.072875,-0.13226,0.081514,-0.012987,-0.1824,-0.27606,0.037258,0.063717,0.59926,0.7654,0.39986,-0.038245,-0.45163,-0.37523,-0.46058,-0.13667,0.07638,-0.22354,-0.14161,0.00060016,0.012245,-0.077385,-0.034828,-0.031075,-0.10693,0.17532,-0.020642,0.067676,-0.010388,-0.23314,-0.12698,-0.17516,-0.17981,-0.12105,-0.22849,0.14341,0.68107,0.72124,0.11465,-0.36589,-0.60476,-0.52103,-0.14333,-0.12693,-0.17099,-0.00098408,0.036589,-0.00094827,-0.031282,-0.017884,0.12249,0.11025,0.18386,0.059514,-0.050633,-0.22422,-0.23159,-0.061426,-0.28775,-0.1494,-0.048007,-0.10112,0.28329,0.71693,0.74332,0.17537,-0.22021,-0.54075,-0.3648,-0.10131,-0.091268,-0.14092,-0.13472,-0.25935,-0.071923,0.039866,-0.054825,0.029613,0.01771,0.070943,-0.071252,-0.1385,-0.23477,-0.09961,-0.089059,-0.18502,-0.14262,0.13914,0.13206,0.22168,0.32998,0.49202,0.27123,-0.037567,-0.51979,-0.29786,-0.48197,-0.3676,-0.25078,-0.065697,-0.11706,-0.10665,-0.0369,0.083974,-0.31944,0.22996,0.061619,-0.14216,0.1101,0.080273,0.098649,0.20746,0.074897,0.15433,0.14311,0.23676,0.26862,0.40291,0.22709,0.33156,-0.3374,-0.49019,-0.1534,-0.17237,-0.082204,-0.15743,-0.24893,0.12463,0.083073,0.1709,-0.029852,-0.14057,-0.026067,-0.078675,0.080073,-0.034338,-0.021388,-0.063575,0.027903,0.14434,0.087939,0.50875,0.2435,0.49856,0.43238,0.27418,0.15883,0.0076123,-0.51541,-0.44612,-0.18033,0.062852,-0.08553,-0.12825,0.052685,-0.026508,0.028356,0.12278,-0.097204,0.039741,-0.026511,-0.079455,0.16167,0.0018873,0.084329,-0.026086,0.13082,0.2719,0.49229,0.43522,0.35751,0.46866,0.27374,-0.010011,-0.026241,-0.39332,-0.38837,-0.44807,-0.16004,-0.073064,-0.075891,-0.14334,-0.08753,-0.044126,0.19192,0.14417,0.21753,0.044684,0.047917,0.24762,0.08811,0.1001,0.019365,0.024804,0.049642,0.3641,0.42044,0.33173,0.32558,0.19693,0.063807,-0.20205,-0.46008,-0.40414,-0.41858,-0.4926,0.048401,0.12161,-0.11405,-0.073827,-0.19115,-0.012887,0.063455,0.012363,0.19545,0.12867,0.18336,0.079838,-0.15845,-0.13105,0.060309,-0.0092375,0.068318,0.25563,0.41548,0.24163,0.16464,-0.1537,-0.087569,-0.16086,-0.51267,-0.73344,-0.68539,-0.26498,0.23966,0.52818,0.15635,-0.02868,-0.0017309,-0.031945,-0.12629,-0.14436,0.20975,-0.19393,0.1982,-0.11138,-0.19928,-0.079133,-0.081549,0.05039,0.18144,0.061929,0.21356,-0.076127,-0.068276,-0.27144,-0.069983,-0.29966,-0.63678,-0.54385,-0.29556,-0.081862,0.34079,0.26996,0.26161,0.14358,0.1784,0.12042,-0.012279,-0.012579,-0.046927,-0.16044,-0.014872,-0.07108,0.011666,0.01279,0.013253,-0.17165,0.1081,-0.045665,-0.25008,-0.2339,-0.25265,-0.2709,-0.085405,-0.36788,-0.68262,-0.54461,-0.035637,0.23665,0.1703,0.13636,0.23095,0.0013716,0.087996,0.17389,0.071728,-0.171,-0.17104,-0.099985,-0.071569,-0.11018,-0.20474,0.0086844,-0.12213,0.093863,0.076337,-0.087872,-0.30138,-0.31557,-0.21626,-0.33489,-0.31308,-0.48536,-0.82925,0.12878,0.34664,0.28078,0.11625,0.26215,0.19375,0.057747,-0.074289,0.16724,-0.15304,-0.18319,-0.04806,0.070617,-0.08047,0.058566,-0.049591,-0.002954,-0.18447,-0.076569,-0.16642,-0.16077,-0.23545,-0.27572,-0.27164,-0.44204,-0.34442,-0.54779,-0.33809,0.35951,0.66949,0.22769,0.24312,0.1685,0.13726,0.15247,0.34616,-0.0074655,0.094872,-0.1227,-0.028523,-0.006566,-0.19872,0.13277,-0.062675,0.13021,-0.07375,-0.1275,-0.086111,-0.20449,-0.15282,-0.19075,-0.20653,-0.24062,-0.59503,-0.31152,0.13203,0.5646,0.52777,0.034913,0.53657,0.19265,0.14864,0.14189,0.19088,0.022653,-0.080966,0.060295,0.087982,-0.16817,-0.11044,0.1176,-0.024872,0.061556,0.017659,0.046499,0.071881,-0.055267,-0.16564,0.034447,-0.2896,-0.2381,-0.23842,0.024376,0.42832,0.47785,0.1471,0.16021,0.31958,0.26034,0.27327,0.020348,0.10929,-0.089622,-0.09087,-0.024446,0.17303,0.16502,-0.11783,-0.021459,-0.11707,0.086763,-0.25429,-0.011962,-0.066208,-0.22596,-0.21316,-0.33857,-0.27264,-0.16484,-0.19735,0.1569,0.20407,0.15775,0.12153,0.036427,0.22358,0.22263,0.010338,-0.050427,-0.0088479,-0.14142,0.017744,0.0050032,0.18596,0.060509,0.072214,-0.12505,0.17693,0.00082423,-0.0089465,-0.042642,0.025292,-0.30509,-0.24245,-0.30191,0.082973,-0.164,-0.098406,0.13353,0.15124,-0.005508,-0.038974,-0.098177,0.048849,-0.021409,0.10906,-0.0028083,0.12745,-0.066574,-0.0055498,0.094055,0.032164,-0.11581,0.076681,0.01842,0.071553,-0.1878,-0.015122,0.0022291,-0.078739,-0.037634,0.029722,-0.015554,-0.1555,-0.080658,0.045346,0.00083072,0.1133,-0.054741,-0.068635,-0.030292,-0.063252,0.15489,0.11002,0.31039,0.13892,0.15826,-0.019954,-0.086034,0.06477,-0.067611,-0.11247,0.032294,0.17261,0.13852,-0.12625,-0.2223,-0.030527,-0.12833,0.10442,0.027397,0.10755,0.06418,-0.04361,-0.26811,-0.0030143,0.11057,0.060267,0.049601,-0.0041682,0.15874,0.10051,0.16722,0.12564,0.23707,0.10937,-0.036404,0.15584,0.069436,-0.053011,0.036787,0.020154,-0.015791,0.031292,0.035436,-0.018482,0.097278,0.035733,-0.011807,0.047651,0.044991,0.035839,0.17356,-0.046315,0.18878,0.035916,0.1061,-0.0092535,0.078836,-0.072775,0.086213,0.12885,0.124,-0.02543,0.10268,-0.043967,-0.084815,-0.003997,-0.054514,0.15701,-0.06345,0.04334,-0.19203,0.0059546,0.037259,-0.23849,0.06337,0.089831,0.055615,0.0047288,-0.013921,-0.069536,0.18747,0.23856,-0.036408,0.081704,-0.0040236,0.21788,0.053138,0.019297,0.21762,0.044934,-0.042219,0.062804,-0.053101,0.042299,0.10988
