0.053066,0.083336,0.017622,0.0072922,0.026264,-0.0086905,0.046885,0.19015,0.053413,0.042936,0.066669,-0.0048675,0.13144,-0.04574,-0.15222,-0.16918,-0.21816,-0.080084,-0.045922,0.14457,0.028916,-0.052794,0.0045981,-0.16233,0.097698,-0.091883,0.11684,0.017642,-0.040514,-0.082632,0.086359,-0.073717,0.063408,-0.059662,-0.085965,-0.092544,0.015943,-0.18009,-0.12127,-0.098389,0.08454,-0.18984,-0.049118,-0.00036948,-0.046597,0.0044328,-0.1818,0.090475,-0.01736,0.066007,-0.045651,-0.057437,-0.055785,0.11726,-0.205,-0.2279,0.062607,0.039386,0.014655,0.055687,-0.05155,-0.16593,0.016474,0.057758,-0.052367,-0.10426,-0.17501,-0.12983,-0.25712,-0.062726,-0.29944,-0.20757,-0.095324,-0.096224,-0.14003,-0.21409,-0.26552,-0.0044232,0.017985,-0.10645,-0.07839,0.18456,0.078968,0.060413,-0.075222,-0.067469,-0.18033,0.026519,0.046785,-0.00069684,-0.12609,0.031827,-0.13409,-0.073985,-0.20862,-0.01842,-0.29865,-0.063334,-0.16127,-0.19677,-0.32799,0.03511,-0.24291,-0.16051,-0.023678,0.034075,-0.1618,-0.12872,-0.024589,-0.11105,-0.020499,0.24339,0.096463,-0.031434,-0.061928,0.059973,-0.10376,-0.052657,-0.088658,-0.040861,0.044939,-0.034281,-0.088899,0.038727,-0.044749,0.10791,0.12459,-0.25687,-0.06815,-0.15206,-0.025846,-0.13541,-0.11353,-0.27763,-0.28889,-0.0858,-0.084068,0.14368,0.060216,0.10384,0.28402,0.16415,-0.0020623,0.019908,0.019646,0.019841,-0.087613,-0.054207,-0.1089,-0.051301,-0.33569,-0.16647,-0.12238,-0.19994,0.048554,-0.26987,0.18503,0.062124,0.056729,-0.15832,-0.094949,-0.0036324,-0.22682,-0.038094,0.045889,0.14056,0.0099441,0.089091,-0.062731,0.097189,-0.14244,0.0079504,-0.042386,0.075356,-0.08549,-0.12241,0.010032,-0.1185,-0.3556,-0.43537,-0.48461,-0.32556,-0.28427,-0.25903,-0.35219,-0.20314,-0.21745,-0.076077,0.015347,0.20545,0.067443,0.10114,0.11309,-0.037435,0.12627,0.087386,-0.039624,7.4063e-05,0.054001,-0.020625,0.022348,-0.34306,-0.18305,0.044828,-0.31949,-0.37635,-0.20376,-0.54518,-0.37699,-0.44364,-0.59297,-0.45507,-0.61532,-0.38338,-0.21726,-0.16672,-0.20765,-0.081178,0.046099,0.13731,0.15771,-0.0074771,0.16288,0.080816,-0.057583,-0.102,0.037831,-0.062001,-0.12407,-0.043766,-0.084893,-0.33755,-0.33246,-0.088792,-0.25395,-0.50838,-0.53371,-0.48257,-0.5375,-0.37393,-0.50835,-0.17879,-0.0052807,0.01821,0.25916,0.11545,0.21208,0.094448,0.10907,0.23541,0.17092,-0.027611,0.030276,-0.0456,0.052147,-0.24229,-0.089184,-0.14501,-0.24967,-0.13938,-0.16448,-0.1335,0.11185,-0.19166,-0.059294,-0.15109,-0.43976,-0.21398,-0.030416,0.090135,0.16738,0.24286,0.17229,0.21593,0.1416,0.13064,-0.019272,0.2096,-0.15562,-0.037117,-0.015561,-0.016156,0.10636,-0.08638,-0.11666,-0.077238,-0.19936,-0.040626,0.014549,-0.031436,-0.14514,0.072777,-0.27482,0.061982,-0.17475,0.27229,0.24848,0.10355,0.15347,0.25562,0.067604,0.042968,0.042477,0.039752,0.13315,0.23057,0.074056,-0.13648,-0.19377,-0.017214,0.045126,0.005968,-0.098845,-0.21122,-0.075187,-0.033973,-0.11622,0.049217,-0.14431,-0.091499,-0.19459,-0.35248,-0.15243,0.035579,0.10356,0.050952,-0.0079205,0.1605,-0.0036764,-0.093542,-0.12688,-0.29687,0.1689,0.1467,0.12515,-0.08178,0.05824,0.081744,0.050708,-0.041259,-0.11445,-0.18111,-0.19916,-0.026358,0.08382,-0.0012539,0.41383,0.066185,0.054349,0.022729,-0.076193,-0.076523,-0.15315,-0.28476,-0.36817,-0.18295,-0.18808,-0.091187,-0.22005,-0.070194,-0.003809,0.253,0.056368,0.11185,-0.06639,-0.064952,-0.21535,0.012342,-0.29818,-0.20549,0.036698,0.088413,0.27801,0.23133,0.42272,0.61842,0.58546,0.42566,-0.037193,-0.08174,-0.15789,-0.24786,-0.21338,-0.18729,-0.21165,-0.13763,-0.10781,-0.10373,-0.060858,0.072264,-0.030316,0.0019544,0.12617,0.045681,-0.0042639,-0.13642,0.016756,0.19798,0.16348,0.32626,0.25089,0.2267,0.45494,0.51084,0.69441,0.36827,0.14777,0.070772,0.041212,-0.0092391,-0.21971,-0.013178,0.03008,-0.11338,0.093527,0.029116,0.10869,0.13612,-0.046715,-0.10403,0.1793,-0.21377,0.18883,-0.15311,0.082273,0.24276,0.15522,0.27325,0.39362,0.48344,0.38293,0.28251,0.37773,0.23137,-0.012925,0.21635,0.37624,0.25276,0.075634,0.16849,-0.060727,0.11066,0.12486,0.021388,0.008111,0.044876,-0.058157,-0.017024,0.088722,-0.1402,-0.074956,0.018308,0.20267,0.40204,0.12723,0.15467,0.35944,0.17809,-0.1677,-0.053035,0.20341,0.16737,0.5182,0.58037,0.61093,0.316,0.13423,0.090076,0.05836,0.29196,0.29354,0.084629,0.071878,0.21704,0.00092781,0.016488,0.0067346,0.052851,0.081304,0.093898,0.23277,0.23827,0.51423,0.23127,0.21312,-0.12889,-0.32484,-0.22076,-0.30792,0.28678,0.5312,0.72822,0.66217,0.27418,0.20158,-0.1136,0.047128,0.070381,0.25678,0.21813,-0.023258,0.061371,0.25591,0.1487,-0.0009008,0.12329,-0.16429,0.049372,0.25732,0.46983,0.32164,0.14294,0.18494,-0.12425,-0.30163,-0.27374,-0.13513,0.12155,0.21599,0.2482,0.29631,0.054958,-0.053819,-0.28873,-0.13028,0.027186,0.0825,0.032528,0.11201,-0.065888,-0.089446,-0.0451,0.0060521,0.027521,0.039462,-0.01174,0.22067,0.12101,0.26864,0.21593,0.064163,-0.11972,-0.32409,-0.23158,-0.43507,-0.34663,-0.043116,-0.24975,-0.24762,-0.32047,-0.11435,-0.26153,-0.30998,-0.26642,0.020239,-0.22206,0.095197,0.10726,0.041023,0.099603,0.010024,-0.098229,0.011282,0.13455,0.20901,-0.048492,0.022145,0.063533,-0.14083,-0.44988,-0.54449,-0.2974,-0.4964,-0.59771,-0.83737,-0.3862,-0.31312,-0.32448,-0.052519,-0.012741,-0.21263,-0.12262,-0.22727,0.24423,0.13555,0.063962,0.021079,0.0066171,0.088881,-0.11294,0.066115,0.1315,-0.10442,0.19716,-0.097804,-0.1078,-0.51929,-0.55294,-0.48841,-0.26151,-0.45871,-0.54575,-0.53965,-0.41001,-0.21833,-0.22318,-0.29095,-0.23086,0.09622,-0.073804,0.023231,0.065108,0.19883,-0.061074,0.082377,0.034392,0.071955,0.05697,0.23282,0.00051189,-0.038353,-0.25733,-0.26244,-0.28307,-0.055008,-0.27612,-0.23226,0.011524,-0.12831,-0.25865,-0.39606,-0.25891,-0.073056,-0.21547,-0.29849,0.017309,-0.086152,-0.10296,-0.036294,-0.050845,-0.010875,-0.15062,0.02817,0.086954,-0.08738,-0.21743,-0.12921,-0.015711,0.13359,-0.11386,-0.22418,-0.27686,-0.27469,-0.1607,-0.23696,-0.14805,-0.37426,-0.32281,-0.075049,-0.23073,-0.234,-0.043406,0.041129,-0.084091,-0.24241,0.010717,-0.14857,0.059545,0.037979,0.049548,0.070595,0.04115,-0.042695,0.11753,0.21619,-0.03958,0.21336,-0.101,-0.11633,-0.23661,-0.34414,-0.055479,-0.27649,-0.20815,-0.1194,-0.053895,-0.1497,-0.07875,-0.20089,-0.11314,-0.23549,0.12064,-0.22606,-0.25869,-0.060434,0.074244,0.017631,-0.066072,-0.15491,-0.034779,-0.075361,-0.03348,-0.027151,-0.13365,-0.13976,0.012626,-0.010134,-0.13438,-0.12478,-0.11682,-0.18844,-0.16845,-0.243,-0.35777,-0.39556,-0.28577,-0.13861,-0.38057,-0.08021,-0.08361,-0.19577,-0.08183,-0.043338,-0.14718,0.066586,0.070023,-0.090844,0.082492,0.10927,-0.036999,-0.033691,-0.075651,-0.0089203,-0.044442,-0.019628,-0.030307,0.037112,-0.0402,-0.14827,-0.025593,-0.28548,-0.056425,-0.26191,-0.1824,-0.20564,-0.061857,-0.031373,-0.13514,0.076099,-0.087635,-0.075726,-0.076209,-0.073781,0.097553,-0.02977,-0.085166,-0.15916,0.047197,0.041579,0.037812,-0.16804,-0.12993,0.065392,-0.1349,-0.1225,0.055328,0.014845,0.014022,0.0075143,-0.0047811,-0.15628,0.0032114,0.059966,-0.21054,-0.041108,-0.0032161,0.1678,-0.10943,-0.044453,-0.11516,-0.24067,-0.038186,-0.29658,0.049963
0.18227,-0.089919,-0.10409,-0.095964,0.048313,0.088732,0.14011,0.011107,-0.1552,-0.051552,-0.068027,-0.062666,-0.099901,0.052152,0.1019,0.040216,0.013346,0.05298,0.077221,0.13687,0.11896,-0.12902,-0.018905,-0.050297,0.0090072,0.0038279,0.038658,-0.027089,0.024528,0.09568,0.03196,-0.092748,0.093555,0.02479,0.053884,0.011063,-0.029575,-0.069083,0.21363,0.19436,0.1038,-0.035073,-0.10096,-0.021087,-0.054284,-0.18819,0.030756,0.030485,-0.04124,0.045593,-0.058592,-0.15015,-0.13534,0.074181,-0.13,-0.016781,0.20112,0.051682,0.014083,0.030866,0.064992,-0.18353,0.11351,-0.035173,-0.11543,-0.061622,0.035037,-0.004606,0.040979,-0.079674,-0.1399,0.11557,-0.072188,-0.1765,0.21098,-0.10226,0.062741,0.053227,-0.046657,-0.057001,-0.029611,0.0846,0.02662,-0.034142,-0.12786,0.17425,-0.11443,-0.037261,0.1223,-0.099243,0.046625,-0.02756,-0.11224,0.02271,-0.091008,0.058307,-0.11139,-0.19151,-0.2578,-0.10391,-0.054503,-0.041986,-0.13579,0.049357,-0.11619,0.025458,-0.15367,-0.0018861,-0.034265,-0.009804,0.044149,0.065944,0.047682,0.023686,0.025436,-0.071377,-0.0139,0.12624,-0.073656,-0.13069,0.032813,-0.084487,-0.21115,-0.18977,-0.11608,-0.16964,-0.14168,-0.30299,-0.19829,-0.017481,-0.16485,-0.096473,-0.17378,0.097915,-0.082017,-0.023408,0.0064402,0.12632,-0.078432,-0.17609,-0.016092,0.03423,-0.093483,0.1282,-0.028999,-0.076769,0.13129,-0.11467,-0.30446,-0.2338,-0.21602,-0.31775,-0.15946,-0.14803,0.19278,0.034853,-0.089595,-0.21525,-0.1162,-0.0711,-0.15172,0.17474,-0.09106,-0.16872,-0.16423,-0.096079,0.16748,0.014833,0.028335,0.025309,0.072174,-0.13131,-0.09872,-0.12938,0.065555,-0.1085,0.10448,-0.074504,-0.26744,-0.062942,0.023674,0.25531,0.46018,0.15897,-0.28107,-0.21949,-0.58354,-0.26671,-0.26408,-0.026238,-0.12439,0.078514,-0.12406,-0.13343,-0.089815,-0.020127,0.069793,0.06076,-0.043758,-0.074568,-0.11218,-0.084375,0.13126,0.017239,-0.28914,-0.067088,-0.021702,0.041645,0.2464,0.21852,0.25719,0.28523,0.1622,0.024316,-0.12572,-0.058283,-0.30937,0.011568,-0.03269,-0.099832,-0.011218,-0.14873,-0.10592,-0.25208,0.045979,-0.17585,-0.12743,-0.11524,-0.16263,-0.16413,-0.0019923,-0.055092,-0.11328,-0.10785,-0.098499,-0.092988,0.21858,0.49398,0.44237,0.42491,0.2627,0.36119,0.015051,0.043864,0.08896,0.053903,0.04405,0.05882,-0.057295,-0.097966,-0.15515,-0.033451,0.043617,-0.089274,0.025989,-0.089117,-0.25223,-0.16384,0.014423,-0.16723,0.0075551,-0.025312,0.09519,-0.066597,-0.10456,0.32851,0.33677,0.43719,0.30714,0.14633,0.23111,0.1869,0.026427,0.022124,-0.0059578,0.15257,0.066179,-0.31528,-0.22286,0.049784,-0.043136,-0.14616,0.050666,-0.13002,-0.1811,-0.24677,-0.32019,-0.24624,-0.12873,0.017319,-0.38842,-0.27476,-0.16766,-0.044888,0.10071,0.020969,-0.064252,0.087921,0.12241,0.15604,0.26727,0.10497,0.22083,-0.041848,-0.14004,-0.13802,-0.07127,0.095963,-0.21269,0.095466,0.21058,0.03273,-0.20281,-0.059775,-0.24737,-0.0578,-0.14509,-0.011949,-0.41992,-0.57401,-0.49182,-0.084296,-0.1545,-0.44406,-0.41608,-0.45976,0.031119,-0.0065047,-0.013949,0.15142,0.19222,0.14901,0.045452,-0.090952,0.028124,-0.24947,0.043414,0.075003,-0.18822,0.015449,-0.19049,-0.35348,-0.094879,-0.14881,-0.24894,-0.36729,-0.30993,-0.31591,-0.09042,-0.36423,-0.1544,-0.27469,-0.39648,-0.41123,-0.21074,-0.033484,0.026734,0.044514,0.069547,0.52168,0.31378,0.11641,-0.017067,0.1016,-0.034362,0.19017,0.032262,-0.065471,-0.42279,-0.13426,-0.14835,-0.24849,-0.31061,-0.064846,-0.023981,-0.44937,-0.31428,-0.19382,-0.29944,-0.11105,-0.62768,-0.48798,-0.28778,-0.36552,-0.35487,0.049481,0.18611,0.52229,0.15014,-0.064994,0.079522,0.071045,-0.08626,-0.15545,-0.11591,0.010206,-0.23899,-0.05912,0.012209,-0.0143,-0.20639,-0.22051,-0.10644,-0.16057,-0.27362,-0.047287,-0.077454,-0.38192,-0.7168,-0.56846,-0.29348,-0.22638,-0.15112,0.017574,0.04936,0.13893,0.2891,0.15638,0.043083,-0.024164,0.12993,-0.046924,-0.027286,-0.098143,0.040586,-0.023957,-0.12846,-0.077289,-0.18612,0.15224,0.0067358,0.025994,-0.094931,-0.20235,-0.062649,-0.33439,-0.72821,-0.37271,-0.07865,-0.072608,-0.094257,0.18773,0.048916,0.14935,0.19362,0.10369,0.13718,-0.11094,-0.16282,-0.03846,0.020462,-0.1812,-0.026,0.05498,0.027354,-0.097569,-0.29461,0.17212,0.3758,0.0096408,-0.035858,-0.19395,0.11924,-0.26118,-0.57079,-0.15628,-0.17917,-0.04156,-0.062912,0.12926,0.011676,0.09187,0.085492,0.028368,0.1079,0.23173,-0.073303,-0.14419,-0.028562,-0.10233,-0.11962,0.026575,-0.21586,0.18477,0.086782,0.3905,0.39771,0.42295,-0.085001,-0.35974,0.13938,-0.14755,-0.21799,-0.30032,-0.096446,-0.12333,0.015407,-0.13007,-0.011479,-0.092103,0.17353,0.0037335,-0.07068,-0.021841,-0.097142,-0.096782,0.078277,-0.18556,0.058422,-0.042051,-0.060579,-0.12204,0.19163,0.56617,0.55032,0.16816,0.095789,-0.18028,-0.15485,-0.37271,-0.6302,-0.19757,-0.30115,-0.4867,-0.33171,0.040555,-0.17174,-0.11306,0.090711,-0.04237,0.023491,0.089593,-0.23081,0.0073063,-0.034388,-0.20346,-0.12178,-0.12489,-0.022217,-0.020464,0.15565,0.35323,0.26046,0.51075,0.29682,0.14461,-0.17462,-0.28277,-0.42807,-0.35902,-0.45462,-0.42919,-0.26709,-0.34357,0.21276,0.053482,0.065508,0.094076,-0.047261,0.064703,-0.14898,-0.053349,0.25068,0.052033,-0.18264,-0.06041,0.13875,0.1073,0.30885,0.19869,0.38232,0.28782,0.43703,0.26952,-0.039012,-0.22596,-0.41885,-0.41884,-0.44912,-0.17576,-0.345,-0.18235,-0.25959,-0.12319,0.10882,-0.17378,0.048994,-0.084954,0.009541,-0.017407,-0.0050093,-0.19629,-0.067675,0.25126,0.062771,0.17379,0.02236,0.27498,0.22451,0.68937,0.27425,0.10476,0.18525,-0.06839,-0.26832,-0.25839,-0.25051,-0.15322,-0.11004,-0.040372,-0.12934,0.11064,-0.046339,-0.026784,-0.013319,-0.011003,-0.021308,-0.067854,0.066924,0.19178,-0.00026966,0.075248,0.17669,0.40171,0.35425,0.19403,0.16324,0.29706,0.34229,0.19302,0.29312,0.26901,0.046238,-0.14127,-0.2131,-0.02344,-0.3055,-0.051373,-0.080303,0.11272,-0.038466,-0.25528,0.10075,0.10265,0.077114,0.075694,-0.20037,-0.046831,-0.14823,0.094164,0.19042,0.3063,0.13873,0.35339,0.13675,0.20879,0.25493,0.36304,0.071017,0.21365,0.09613,-0.039736,-0.012335,-0.18219,-0.040715,-0.13139,0.15954,-0.072004,-0.048309,-0.11566,0.21003,0.093605,0.061082,-0.0056265,-0.093175,-0.070712,-0.0075631,0.028764,-0.10302,-0.080242,-0.019388,-0.023223,0.057708,0.026022,0.141,-0.057277,-0.013067,0.052969,-0.10104,-0.25089,-0.094712,-0.084132,-0.0563,-0.10754,-0.0063166,0.068405,0.10269,-0.091377,-0.056655,-0.067337,-0.14275,0.073969,-0.03935,0.12709,0.0015455,-0.01408,-0.052739,-0.010822,-0.055879,-0.2218,-0.21702,-0.098118,-0.15921,-0.33593,-0.36863,-0.035464,-0.09391,-0.24108,-0.13717,-0.099132,-0.23869,-0.0097616,-0.074812,0.0063808,0.062984,0.056565,-0.012617,-0.078841,-0.017736,0.011687,0.08645,0.026908,-0.072054,-0.11891,-0.039733,-0.068477,-0.10341,-0.30126,0.078936,0.14653,0.0066421,-0.20286,-0.072315,0.074115,-0.051571,-0.073831,-0.09732,-0.010921,-0.078036,0.036156,0.0019354,0.052263,-0.1437,-0.060344,-0.07018,-0.046721,0.14576,0.12205,0.030948,0.0056773,0.016885,-0.042914,0.005887,0.071433,-0.0055321,-0.11369,-0.042086,-0.039155,0.020466,0.084335,-0.040071,0.21999,0.083953,-0.13398,-0.039091,-0.069871,0.12787,0.07966,-0.10408,0.016067,-0.061558,-0.010005,-0.035821,-0.054978
-0.23802,-0.0021276,0.082785,0.029012,-0.16045,0.0062335,-0.009876,0.092566,-0.032451,-0.0019261,-0.052169,0.11928,0.16858,-0.11518,-0.087935,0.038038,0.054766,-0.068043,0.11159,-0.0026232,0.09688,-0.01776,0.16511,-0.10907,-0.048407,0.095668,0.18299,-0.14762,0.0098657,-0.009102,-0.14693,0.16662,-0.047558,-0.099306,-0.049575,-0.16143,0.0094975,-0.11089,-0.077162,-0.010405,-0.11911,0.030823,-0.10482,-0.094631,0.078201,-0.10653,-0.11254,0.045444,0.03778,-0.13766,0.084552,0.031597,0.061522,0.036271,0.016948,-0.13192,-0.053472,-0.26339,-0.081448,-0.074371,0.13165,0.08737,-0.10064,0.015192,0.11711,0.1143,-0.10384,-0.14524,-0.017059,0.018662,0.0021668,0.0052116,-0.10623,0.016094,-0.041866,0.17841,-0.077658,-0.070929,-0.31653,-0.12144,0.086367,0.04383,0.0022183,0.0069166,0.042225,0.23457,-0.12115,-0.14337,-0.0065288,0.15414,0.0039387,0.027021,0.094981,0.10865,0.10833,0.16619,0.31439,0.34803,0.047891,0.038546,0.0077165,-0.10077,-0.19615,-0.15762,0.13479,-0.39897,0.033223,-0.059299,-0.021695,-0.047245,0.21278,-0.08009,0.12291,0.048134,0.045271,-0.094111,0.004991,-0.042032,0.19394,0.10142,0.24635,0.29419,0.44163,0.3277,0.66147,0.43557,0.50337,0.43606,0.22667,0.15723,0.23284,-0.14016,-0.17481,-0.33061,-0.38373,-0.22677,0.045722,0.074815,0.019338,-0.058942,0.052974,-0.052437,0.060254,0.013508,0.17239,0.14183,0.029298,0.31322,0.063834,0.17903,-0.012304,0.28461,0.12373,0.19847,0.3354,0.40718,0.15433,0.023243,-0.12425,-0.17944,-0.054567,-0.22348,-0.40266,-0.49112,-0.32857,-0.14612,-0.13853,-0.062196,0.0080242,-0.22623,0.078146,0.17748,-0.091671,0.041267,-0.088947,-0.2409,0.09164,0.049051,0.17244,0.12535,0.27877,0.39727,0.41477,0.75178,0.90924,0.38639,0.36424,0.055433,-0.060865,-0.067245,-0.46563,-0.4242,-0.28465,-0.16779,-0.16876,-0.002429,0.047593,0.087119,0.073602,0.14041,-0.096629,-0.0038289,-0.36912,-0.36827,-0.31664,-0.066375,-0.27372,0.026715,0.19558,0.32258,0.58887,0.87844,0.70914,0.44007,0.099172,0.045638,-0.031378,-0.0052235,-0.12617,-0.51191,-0.22905,-0.12109,0.071176,-0.094769,-0.14868,-0.22482,0.095708,-0.2166,-0.15412,-0.14524,-0.36837,-0.57586,-0.68139,-0.40694,0.010733,-0.10498,-0.1032,-0.20267,-0.058572,0.45851,0.80245,0.47736,0.24595,0.26964,0.063628,-0.010521,-0.18741,-0.16454,-0.12364,-0.26981,-0.017937,-0.030378,-0.067576,-0.045581,-0.032109,-0.0059733,-0.31118,-0.35452,-0.34722,-0.38873,-0.45262,-0.10783,-0.066878,-0.34855,-0.62161,-0.67019,-0.26311,0.55174,0.80697,0.81136,0.88569,0.71303,0.37342,0.4627,0.34991,0.4682,0.055793,0.017304,-0.18983,-0.13097,0.15298,0.18529,-0.27945,-0.0063445,-0.21445,-0.20882,0.020239,-0.31492,-0.24468,-0.1871,-0.13427,-0.02084,-0.67891,-0.88915,-0.23641,0.022176,0.50296,0.65144,1.0532,1.17,1.2752,1.0526,0.86959,0.75761,0.38997,-0.045083,-0.11784,0.043029,-0.056982,-0.039803,0.057287,0.0021636,-0.11172,-0.097477,0.056462,-0.21411,-0.071199,0.15387,0.10797,0.10678,-0.41895,-0.50355,0.0047166,-0.11976,-0.12503,0.17955,0.54587,0.6416,1.1211,1.0842,1.0159,0.95682,0.37039,0.14251,0.0015587,-0.089405,-0.077511,-0.068374,0.0092274,-0.15886,-0.068234,0.19072,-0.18825,-0.16605,-0.04163,0.33761,-0.00013351,-0.40514,-0.6581,-0.25773,0.27006,-0.019302,-0.29371,-0.21684,-0.11089,0.11496,0.49323,0.59728,0.82246,0.82016,0.42107,0.15769,0.098875,0.096555,-0.22142,-0.018151,0.11348,-0.0047045,-0.21182,-0.12125,-0.27889,0.049296,0.16336,0.18321,-0.080484,-0.68277,-0.32254,0.23665,0.40043,0.03421,-0.13788,-0.049073,-0.21634,-0.12932,-0.037572,0.10079,0.35295,0.5948,0.26846,0.032443,0.080007,0.01719,0.12712,0.14212,-0.018494,-0.17915,-0.090244,-0.15315,-0.099556,0.039827,0.059892,-0.03718,-0.045811,-0.077331,0.043196,0.59652,0.22412,0.15412,-0.21802,-0.30893,-0.3199,-0.15704,-0.1697,0.12043,-0.1921,-0.033029,0.17697,-0.017434,0.30494,-0.056418,-0.067732,0.03349,-0.011549,-0.064409,0.017787,0.074007,0.09031,0.19065,0.074123,-0.061909,-0.12468,-0.18675,0.066881,0.30357,0.24206,-0.25503,-0.23821,-0.39699,-0.25605,-0.27595,-0.47507,-0.1883,-0.13725,-0.18103,0.099346,-0.035474,-0.17779,0.043834,0.021327,-0.0019617,0.15349,-0.08468,0.017888,0.23717,0.06922,0.19117,0.029916,-0.059494,-0.035416,-0.028927,0.34698,0.34747,-0.27973,-0.47301,-0.38355,-0.26344,-0.475,-0.67761,-0.51666,-0.17575,-0.22758,-0.18351,0.014753,0.010526,-0.039994,-0.029594,-0.018382,-0.020337,0.02795,0.12719,0.040701,0.17359,0.099325,-0.020213,-0.014252,-0.23639,0.1599,0.16715,0.40862,0.17153,-0.56175,-0.47032,-0.27731,-0.37238,-0.57251,-0.37157,-0.56805,-0.30832,-0.060341,0.031812,-0.012005,0.13577,0.0060418,-0.1652,-0.017795,0.044176,-0.042167,-0.014833,-0.20122,0.12011,0.1732,0.031361,-0.03758,0.18805,0.1074,0.30081,0.047912,-0.16684,-0.50808,-0.25204,-0.4003,-0.1368,-0.23913,-0.26451,-0.31896,-0.38291,-0.051117,0.032129,0.036831,0.072284,-0.14868,0.078372,-0.20073,-0.06044,-0.073878,-0.11365,0.030797,-0.10223,0.075155,0.10807,0.0003526,0.25223,0.52745,0.28621,0.39998,0.11868,-0.29382,-0.42675,-0.11171,-0.084765,-0.044975,-0.084094,-0.19659,-0.19436,-0.16833,0.032954,-0.029469,-0.18325,0.038919,-0.053017,0.14911,-0.0051556,0.0058449,0.087006,0.013482,-0.10928,-0.019626,0.3088,0.28415,0.36734,0.2891,0.24271,0.34064,0.083683,-0.3167,-0.59857,-0.2055,-0.36445,-0.17485,0.22295,0.13194,-0.021011,-0.17256,-0.1654,-0.15426,-0.0050662,0.15602,0.05095,-0.034484,-0.090451,-0.073425,0.091087,-0.12905,0.067834,0.043083,-0.11905,0.24356,0.1163,0.11848,0.081193,0.097327,0.091427,-0.0070225,-0.34569,-0.23692,-0.18367,-0.023867,-0.13081,-0.09644,0.023084,0.012352,0.0057845,-0.036182,-0.079757,-0.11524,-0.16733,-0.032467,-0.030086,0.032764,0.030125,0.065251,0.16878,0.3771,0.32711,0.24309,0.028394,0.081806,0.15758,0.16701,-0.11654,-0.2312,-0.24643,-0.35932,-0.09631,-0.42899,-0.13844,-0.21571,-0.058077,0.094314,0.0081904,-0.085086,0.015052,-0.22169,-0.1744,-0.18567,-0.015528,0.053488,0.10879,0.13536,-0.062377,0.36506,0.32262,0.18542,0.23553,-0.024409,-0.08367,0.0061159,0.27441,0.1849,-0.21273,-0.060142,-0.12782,-0.28363,-0.17343,-0.21673,0.065774,-0.17947,0.15008,0.1105,-0.00451,-0.086577,0.013525,0.02534,-0.020183,-0.019144,-0.10897,0.081922,0.03192,-0.056552,0.15962,0.1404,0.032338,-0.13992,0.0037411,-0.11583,0.24142,0.092657,0.12452,0.20694,-0.061822,-0.050005,0.021968,-0.02653,0.068223,-0.15414,-0.1273,0.13448,0.012928,-0.089557,0.089377,0.074541,0.063639,-0.12988,0.089542,0.22284,0.12923,0.16432,0.20103,0.21781,0.11209,0.22197,0.15674,0.17095,0.35359,0.40286,0.34229,0.25607,0.098393,0.25833,0.067576,0.10606,0.13055,0.14449,0.032016,-0.13757,-0.045442,0.083717,0.084667,0.0072411,-0.018165,-0.1092,-0.086169,0.010202,-0.16795,0.035435,0.066426,0.29723,0.10251,0.15891,0.14323,0.26058,-0.031825,0.15388,0.19541,0.16932,0.12095,0.098906,0.040293,0.25991,0.014572,0.2159,0.14685,0.14091,0.014198,0.06051,-0.05616,-0.07814,-0.03617,0.14481,-0.070979,0.062918,-0.058714,-0.051791,0.015238,0.048076,-0.032291,0.015828,-0.082516,-0.050351,0.0080339,0.14234,0.11932,0.04826,0.12382,0.019102,-0.057231,-0.17799,-0.11798,0.017953,0.078645,-0.083217,-0.09237,0.023369,-0.009869
0.07681,-0.06386,0.021299,0.058291,-0.11143,0.019672,-0.014194,-0.032099,-0.059404,0.11022,-0.076587,-0.15491,-0.046943,0.099504,0.19866,-0.0010909,-0.09429,0.18825,0.098313,-0.05212,-0.045277,-0.030375,-0.26029,-0.056818,-0.08329,0.021411,-0.099873,-0.12515,-0.18055,0.1257,0.14538,-0.091447,-0.067289,-0.088195,-0.17522,-0.1738,0.048939,-0.05764,0.0013176,0.052804,-0.017424,-0.015619,-0.13243,0.0013072,-0.034769,0.081738,-0.068481,0.056336,0.043147,0.045043,-0.0085562,-0.079592,-0.10136,0.068137,-0.030986,-0.032201,0.054057,-0.006984,0.10754,-0.14652,-0.16218,0.049921,-0.014988,0.041972,0.069216,-0.086577,0.072571,-0.11944,-0.029171,-0.040272,-0.035914,0.029292,-0.26436,0.036828,-0.0096081,0.014486,-0.0059333,-0.041424,-0.11917,0.099327,-0.068309,-0.008736,0.068633,0.071417,-0.073829,-0.082694,-0.12393,-0.063003,-0.067241,-0.00035376,0.12638,-0.048797,-0.054717,0.027499,-0.024991,-0.084408,-0.026982,-0.001157,-0.052706,-0.0037743,0.22977,1.8279e-05,-0.072191,-0.18404,0.13635,-0.060194,0.046005,0.078243,0.024493,-0.046801,-0.055385,-0.0045542,-0.010055,-0.030134,-0.082029,-0.074432,-0.084082,0.0020458,0.12113,-0.058361,-0.068679,-0.24809,0.12853,0.1645,0.2506,0.22244,0.2149,0.17228,-0.11873,-0.20373,-0.10388,0.038408,-0.28753,-0.19686,-0.22166,-0.16806,0.056092,-0.0026587,-0.077634,0.051756,0.005284,0.02037,-0.090483,0.15732,-0.0039764,-0.080528,-0.031937,0.049244,0.10302,0.11921,0.10274,0.21207,0.29084,0.34538,-0.090072,-0.45726,-0.55068,-0.66349,-0.39485,-0.43528,-0.36569,-0.2902,-0.26079,-0.21957,-0.10877,-0.19916,-0.089763,0.053921,0.19178,-0.08425,-0.019392,-0.058728,-0.043553,0.11029,0.092054,-0.16143,-0.11253,-0.14187,0.20637,-0.032258,0.10963,0.2804,-0.09121,-0.18409,0.014138,0.27817,0.13924,-0.083074,-0.079465,-0.20323,-0.42188,-0.54989,-0.18759,-0.086052,-0.047139,0.16992,0.070924,0.11362,-0.13598,-0.11643,-0.0089435,-0.21534,-0.14621,-0.08173,-0.23004,-0.097746,0.095795,0.074522,0.26131,-0.047703,0.26684,0.63757,0.671,0.56769,0.36329,0.33689,0.28363,-0.024799,-0.2711,-0.34158,-0.41407,-0.28112,-0.058519,0.097678,-0.0093025,0.12312,0.030644,0.033763,0.050871,-0.15078,0.024178,0.11633,-0.033719,-0.32273,-0.0016618,-0.058519,0.13733,0.22401,0.84247,0.77461,0.83509,0.36235,0.55026,0.28779,0.057528,0.17724,-0.10875,-0.047274,-0.18676,-0.49921,-0.057553,0.094168,0.083922,0.038596,-0.080239,0.014451,-0.04463,-0.38415,0.060149,-0.010135,-0.20267,-0.23046,0.054081,-0.019087,0.19708,0.5767,0.91942,0.59226,0.53569,0.64761,0.48436,0.51681,0.32471,0.35596,0.24791,0.1821,-0.13022,-0.28938,0.058236,-0.13434,-0.037149,-0.13333,0.13859,0.11872,0.00072089,-0.26582,0.07362,0.17657,0.15602,0.026941,-0.047496,-0.02293,-0.15684,0.32213,0.5151,0.28926,0.57142,0.33854,0.42322,0.28713,0.53644,0.3988,0.59709,0.28617,-0.19671,-0.26619,0.051996,-0.0045538,-0.10967,-0.062235,-0.0075755,-0.065957,-0.12681,-0.097415,-0.0015156,0.15504,0.22587,0.26024,0.022036,0.21348,0.11624,0.4666,0.19408,0.2004,-0.017492,0.3605,0.57321,0.36178,0.78563,0.45119,0.3074,0.41794,-0.041746,-0.09326,0.084015,0.078845,0.055554,0.039295,0.15381,0.071397,0.21418,0.22564,0.050957,0.27759,0.32508,0.36326,0.088177,-0.042541,-0.44503,-0.37775,-0.070587,0.083998,-0.020197,0.47958,0.34094,0.40536,0.42954,0.46561,0.4974,0.1986,0.25084,0.0039455,0.14552,-0.053432,0.038932,-0.039933,0.10013,-0.0076458,0.10377,0.089978,-0.04595,-0.10918,0.099879,0.051342,-0.30286,-0.44319,-0.73794,-0.57762,-0.34782,-0.14702,0.077203,0.22303,0.23903,0.034782,0.067381,0.29215,0.37027,0.064653,0.046989,0.05969,-0.005324,0.044018,0.039829,-0.16558,-0.13161,0.03574,-0.082386,-0.067845,-0.19357,0.05873,0.040678,-0.17601,-0.14224,-0.5184,-0.81978,-0.85673,-0.55368,-0.21466,0.28003,0.20931,0.21893,0.067764,-0.0092928,0.089035,0.14406,0.084164,-0.11335,-0.13796,-0.08669,0.037524,0.091221,0.12291,-0.042777,-0.084908,-0.061351,-0.14721,0.19118,-0.15301,-0.096786,-0.26389,-0.051779,-0.27489,-0.84121,-0.74876,-1.02,-0.44661,-0.17855,-0.080095,0.17719,0.11052,0.048462,0.17155,0.025911,0.10012,0.020434,-0.13214,0.021038,-0.092962,0.042342,0.084766,-0.014538,0.082145,-0.044954,0.070174,-0.04292,-0.079893,-0.15942,-0.39129,-0.2342,-0.51861,-0.39066,-0.7993,-0.9619,-0.61599,-0.27658,0.052859,0.033171,-0.1753,0.066847,-0.14905,0.13825,-0.18248,-0.41732,-0.10768,-0.025811,0.046479,0.16048,-0.052223,-0.076381,-0.13784,-0.13941,-0.056534,-0.090555,-0.14933,-0.24959,-0.23159,-0.24406,-0.23171,-0.60179,-0.67747,-0.7756,-0.61995,-0.35675,-0.31231,-0.11082,0.03975,-0.024254,-0.19763,-0.025933,-0.30494,-0.16868,-0.13599,-0.13598,0.036779,0.13432,0.074462,0.057637,-0.037618,-0.12951,-0.21728,-0.17735,-0.13499,-0.077249,-0.21167,-0.034959,-0.37809,-0.97766,-0.49011,-0.37191,-0.39804,-0.474,-0.195,-0.027842,0.16713,-0.020388,-0.11133,-0.28913,-0.36138,-0.38179,0.084739,-0.084774,-0.18164,-0.090043,0.048717,0.076686,0.13206,0.018167,-0.11072,0.15578,-0.12463,0.071087,-0.20105,-0.33957,-0.38366,-0.28337,-0.35318,-0.24151,-0.39496,-0.7743,-0.44087,-0.3223,-0.03515,0.065909,-0.35446,-0.35251,-0.46566,-0.15107,0.19107,-0.043187,-0.091134,0.14311,-0.17157,-0.0071986,0.072507,0.10632,-0.0093175,0.12367,0.035601,-0.099696,-0.17334,-0.16362,-0.23603,-0.21254,-0.32268,-0.3516,-0.57415,-0.42259,-0.45597,-0.36243,-0.23527,-0.29858,-0.58258,-0.54339,-0.31701,-0.10518,0.043944,0.066016,-0.19459,-0.045268,-0.026025,-0.0067712,-0.084924,0.088133,-0.19114,-0.024803,-0.086872,-0.20251,-0.077201,-0.17817,-0.03834,0.23405,-0.060165,-0.16031,-0.54227,-0.42455,-0.64511,-0.49041,-0.32267,-0.21074,-0.70157,-0.30087,-0.22417,-0.20616,-0.30456,0.022544,-0.00039439,0.0097457,0.0091582,-0.17718,-0.093035,-0.079936,-0.10679,-0.27017,-0.016682,0.16621,0.12243,-0.031908,-0.048225,0.20794,0.31126,0.10508,-0.20132,-0.17242,-0.62073,-0.44193,-0.61789,-0.58199,-0.59408,-0.25969,-0.12193,-0.06656,-0.019802,-0.048907,0.033565,-0.0064483,0.209,0.030525,0.0052351,0.099065,0.17644,-0.083806,0.12515,0.047784,-0.29088,-0.0014752,-0.074663,0.21039,0.006031,0.060772,-0.43593,-0.25442,-0.40787,-0.45173,-0.45807,-0.48717,-0.18799,-0.025986,-0.12409,0.1666,-0.21391,-0.0017465,0.038336,0.12532,-0.053276,0.0056244,0.096668,-0.11624,0.15349,0.25147,-0.031099,0.081261,0.10989,-0.046799,-0.12402,0.10304,-0.12152,0.071922,0.072919,-0.047762,0.057346,-0.12239,-0.066769,0.071703,-0.090851,0.00033191,-0.0084904,-0.040212,-0.10501,-0.10558,-0.089378,-0.072193,-0.024182,0.17469,0.069843,0.14115,-0.027615,0.12441,0.057984,0.091023,0.68441,0.22236,0.63852,0.71433,0.64792,0.72111,0.44108,0.37277,0.43507,0.51576,0.41959,0.49471,0.24424,0.11691,-0.10709,-0.057418,0.19933,-0.10292,0.0695,-0.069445,-0.11379,-0.10903,-0.16673,-0.10003,0.19343,0.1351,-0.083647,0.21593,0.46505,0.073908,0.34658,0.35741,0.45805,0.7611,0.49946,0.32537,0.26916,0.33054,0.15512,0.0076082,0.049501,-0.19414,0.0025584,-0.053199,0.0077653,-0.079086,0.0041931,-0.19876,0.037657,0.04325,-0.030346,-0.11275,0.033836,0.086104,-0.18879,0.021112,-0.10031,0.042173,0.024566,-0.058191,-0.082955,0.015081,-0.20581,0.058634,0.11469,0.02513,-0.10206,-0.17977,-0.12592,0.0084802,0.12133,0.023695,-0.059261,0.14025,-0.076932
0.032107,0.030583,0.013748,0.086004,-0.044469,0.011525,0.17036,-0.016019,0.038533,0.012259,0.057794,-0.174,-0.14037,0.18885,-0.22184,0.016016,-0.0054783,0.054697,-0.0032534,0.051312,-0.012762,0.019441,-0.045428,-0.066386,-0.14775,0.030195,-0.067984,-0.075968,-0.12034,-0.10841,-0.061433,-0.01944,0.0058698,-0.033916,-0.016094,0.046559,0.056005,0.04655,0.15773,0.086285,-0.016982,0.24007,0.0065555,-0.10179,0.19455,-0.16365,0.044005,0.088747,0.21382,0.068056,-0.041568,0.046909,0.10373,-0.0054354,0.27536,0.24706,0.032186,0.20979,-0.078563,-0.027299,0.17567,0.029878,-0.10364,-0.20226,0.077991,0.28288,0.05805,0.082059,0.12427,0.14201,0.19342,0.20241,-0.013809,-0.044423,0.14476,0.16995,0.073942,-0.23303,0.11245,0.029086,0.15548,-0.062724,0.085975,-0.066489,-0.2212,-0.19117,0.23944,-0.05418,0.087525,-0.0224,0.061244,0.17286,0.058543,0.27697,0.12856,0.057441,0.20447,0.18618,0.07916,-0.1493,-0.04786,-0.21561,-0.057735,0.032203,0.10221,0.10216,-0.057975,0.043299,0.066675,-0.042522,0.011507,0.11628,-0.0097113,-0.06337,0.030304,-0.048778,-0.02314,0.069667,0.067985,0.080076,0.18319,-0.054483,0.33722,0.074237,0.29774,0.21437,-0.25598,0.0090518,-0.10484,-0.35204,-0.036475,0.13269,0.027943,-0.01613,0.088782,0.048898,0.12112,-0.057385,-0.13836,-0.044857,-0.064567,0.029492,0.034568,-0.094619,-0.031833,-0.11708,-0.0481,0.071496,-0.009608,-0.14319,-0.034937,-0.10378,-0.10655,-0.10609,-0.14427,-0.2212,-0.52611,-0.41496,-0.18757,0.1182,0.28157,0.38891,0.14845,0.13575,0.050369,0.091175,-0.11503,0.066659,-0.15616,-0.11626,-0.021409,0.05685,0.099146,-0.19021,-0.27064,-0.079153,-0.065562,-0.20898,-0.056743,0.043364,-0.3147,-0.16558,-0.36474,-0.6009,-0.49892,-0.61603,-0.19884,-0.24526,0.045339,0.2127,-0.07313,-0.0033638,0.016986,0.029269,-0.029675,0.14153,-0.11378,0.17349,-0.19802,-0.17554,-0.079606,-0.047083,0.012959,-0.037163,-0.072857,-0.11049,-0.152,0.2037,-0.07937,-0.22386,-0.44897,-0.39346,-0.51476,-0.4546,-0.43765,-0.558,-0.14112,-0.2232,-0.052744,-0.10007,-0.040326,0.14426,-0.042513,-0.11717,-0.11572,0.063609,0.1238,0.078193,0.089304,-0.13514,-0.029937,0.043358,0.083532,-0.10718,-0.2894,-0.078022,-0.25034,-0.3334,-0.35426,-0.31628,-0.38559,-0.2165,-0.46043,-0.35996,-0.48504,-0.26981,-0.17568,-0.092842,0.17515,0.013637,-0.17206,-0.0774,0.081283,0.0014192,0.07221,-0.038491,-0.094193,-0.046453,0.015817,0.1346,-0.014082,-0.26218,0.028633,-0.14578,-0.18431,-0.35891,-0.13033,-0.026711,-0.082906,-0.31801,-0.26953,-0.30359,-0.28034,0.093014,-0.23874,-0.25545,-0.11552,-0.05844,0.059309,-0.19735,0.070879,0.162,-0.145,-0.17549,-0.23134,-0.053306,-0.0043454,0.068602,0.061572,-0.090141,-0.095367,-0.080541,-0.30909,-0.35806,0.23935,0.18418,0.033334,-0.19102,-0.18228,-0.38624,-0.14518,-0.32746,-0.15995,-0.15359,-0.20303,-0.082616,0.0023341,-0.15613,-0.085986,0.19329,0.0020606,-0.14088,-0.22114,-0.14957,-0.14114,0.19652,0.010122,-0.23253,-0.27731,-0.35913,-0.56244,-0.2872,0.15269,0.13128,-0.069868,-0.25027,-0.11485,-0.13184,-0.18743,0.029849,-0.010157,0.08512,0.061147,-0.04316,0.012854,0.0001395,0.097063,-0.1031,0.04278,-0.062758,-0.01996,-0.022014,-0.20388,0.13976,0.33025,-0.10931,-0.2199,-0.51061,-0.44091,-0.15257,0.40467,0.31752,0.10671,-0.17993,-0.11691,-0.15406,0.19031,0.17711,0.29291,0.23265,0.33382,-0.060149,-0.086171,-0.071643,-0.12458,0.0094872,0.1169,0.022697,-0.0072831,-0.022308,0.1819,0.057035,-0.23077,-0.062937,-0.23981,-0.59892,-0.31562,-0.038178,0.61549,0.35664,0.054972,-0.24192,-0.39506,-0.067556,-0.32664,0.14003,0.18954,0.35203,0.22673,-0.073401,0.14258,0.017895,-0.014577,0.032389,0.11227,-0.11797,-0.13323,0.027718,0.15259,-0.091306,-0.076783,-0.10222,-0.15198,-0.5102,-0.13719,0.40083,0.4466,0.080654,-0.077854,-0.33082,-0.27166,-0.37611,0.13199,0.21996,0.38408,0.35896,0.43891,0.019631,-0.034349,0.12043,-0.088552,0.079307,0.098779,0.26278,-0.20097,-0.1839,-0.059177,0.0031681,0.1515,-0.094701,-0.16983,-0.17197,0.18664,0.57508,0.58086,0.24705,-0.033353,-0.43043,-0.20477,-0.14558,0.079722,0.10782,0.17394,0.29758,0.25988,0.11819,-0.10732,0.11667,-0.188,-0.0096133,0.032143,-0.007541,-0.22304,-0.14748,0.1591,-0.025321,-0.087703,-0.0049782,-0.17307,0.092384,0.094408,0.53302,0.34474,-0.13302,-0.24923,-0.69537,-0.35466,-0.31033,0.15324,0.052197,0.02347,0.059396,0.15237,0.11872,0.051744,-0.036639,0.076729,-0.17041,0.16049,0.063069,-0.27365,-0.063858,-0.28417,0.1847,-0.073893,-0.087795,0.20411,0.24865,0.29174,0.46049,0.18385,0.023721,-0.24804,-0.1105,-0.20818,-0.17544,0.16367,-0.086433,0.17913,0.062012,0.062549,0.12934,-0.011542,-0.17214,0.016389,-0.077317,-0.066118,-0.063098,0.014935,-0.046405,-0.26618,0.03364,-0.17705,-0.074637,0.07627,0.32606,0.20551,0.34752,0.2057,0.40245,0.17923,-0.15966,0.22314,0.018737,-0.12021,0.12792,0.026492,0.036208,0.026168,0.027448,-0.10157,-0.077663,0.045764,0.059363,-0.19443,-0.047021,-0.074078,-0.12074,-0.48681,-0.10915,-0.11308,0.013939,0.084157,0.35853,0.53277,0.60328,0.34388,0.34104,0.44456,0.37101,0.27118,-0.076081,-0.21738,-0.11513,-0.23095,-0.18481,0.014358,0.020451,0.0024287,-0.22211,-0.079661,-0.0056678,0.043152,-0.10556,-0.14762,-0.18064,-0.35759,-0.087721,-0.00026054,-0.0019118,-0.048992,0.070599,0.28054,0.38981,0.30053,0.2048,0.45488,0.39083,0.28153,-0.057955,-0.10673,-0.077981,-0.1953,-0.16055,-0.018402,-0.030583,0.096486,-0.074296,0.073616,0.13014,-0.071608,0.11719,-0.14161,-0.059849,-0.032014,-0.22498,-0.069277,-0.23312,-0.043568,-0.047538,-0.1637,0.21765,0.13016,0.15964,0.14945,0.32783,0.27911,-0.021328,-0.044468,-0.094967,-0.13897,-0.017298,0.033523,-0.027615,0.097557,-0.0028786,-0.09909,-0.056399,0.063281,0.032732,-0.024812,0.24132,-0.051786,-0.034526,0.0080471,-0.018783,-0.21269,-0.3859,-0.50663,-0.18881,-0.1756,-0.059301,0.20281,0.054839,0.11037,-0.058939,-0.021431,-0.20267,-0.13524,-0.046291,-0.1904,0.029612,-0.22807,-0.10392,-0.026374,-0.20225,-0.079314,0.03335,0.067545,0.022571,0.12967,0.041302,-0.19956,-0.16899,-0.1808,-0.082088,-0.24813,-0.19962,-0.38248,-0.18027,-0.084467,-0.13028,-0.13331,-0.094468,-0.14166,-0.057642,-0.019658,-0.11408,0.14102,0.031105,-0.081946,0.075573,0.0010725,0.12859,-0.16935,-0.031102,0.021358,-0.076103,0.0058275,-0.0094575,-0.07257,0.022193,-0.15433,-0.21964,-0.22795,-0.2801,-0.37751,-0.39708,-0.36334,-0.27002,-0.070999,-0.30739,-0.049109,-0.071053,-0.12537,0.01151,-0.12803,0.12535,0.13815,-0.14772,0.17071,-0.018165,-0.076541,-0.014132,-0.22371,-0.12194,-0.13149,-0.048345,-0.040755,-0.10879,-0.24752,-0.31762,-0.32492,-0.46851,-0.20693,-0.42507,-0.12194,-0.083878,-0.11624,0.01099,-0.31799,0.016689,-0.040437,-0.022816,0.0045855,0.059842,0.007625,0.025552,0.15342,0.084056,0.056473,-0.1048,0.22932,-0.092673,-0.033709,-0.083501,-0.019242,-0.067986,0.077367,-0.014563,-0.048885,-0.20599,-0.22022,-0.18329,0.050128,-0.16276,0.0051925,0.16802,-0.076088,0.063938,-0.01656,0.143,-0.10436,0.044739,-0.075391,0.0725,-0.094098,-0.025955,-0.014417,-0.0059294,0.090152,0.11066,-0.13458,0.066934,0.15641,-0.0019828,-0.060063,-0.032579,-0.040066,0.16014,-0.006564,0.044302,-0.089274,-0.20852,0.060827,-0.28974,0.023389,0.043257,-0.062838,0.080768,0.035653,-0.037044,0.01597,-0.13265
-0.12807,-0.057339,0.054219,-0.066422,0.01366,0.046689,-0.048277,0.071699,0.043898,-0.10099,-0.075115,0.023225,-0.059989,-0.029471,0.047565,-0.0501,0.031873,-0.011096,-0.047705,-0.062933,0.076068,0.10193,0.24573,0.050532,0.018031,-0.017028,0.20452,-0.022336,-0.1746,0.026721,-0.067163,-0.08632,-0.086639,0.067444,-0.06056,-0.12891,-0.069237,0.078258,0.11472,0.019682,0.01192,-0.052488,-0.056193,0.01824,-0.018933,0.12686,-0.13628,-0.13964,-0.14377,-0.1453,0.070231,-0.081966,-0.031647,-0.0011561,-0.13881,0.0060827,-0.032131,-0.01615,-0.03187,-0.014095,0.13095,0.099138,-0.092448,-0.06543,-0.016911,0.056881,0.028298,-0.059223,-0.043398,-0.014302,0.026699,-0.18455,-0.11733,-0.22223,-0.25098,-0.032259,-0.081789,-0.19098,-0.051779,0.020663,-0.12665,0.13113,-0.05987,0.078424,0.027336,0.052276,0.17683,0.049668,-0.065994,-0.15302,0.12145,-0.12023,-0.021254,0.084652,0.031114,0.033998,-0.05961,-0.085217,-0.12148,-0.039207,-0.13296,-0.11052,-0.096032,-0.23021,-0.41026,-0.18733,-0.10409,-0.022814,-0.013068,-0.0022697,0.26814,0.18357,-0.012435,0.066896,-0.12009,0.049319,-0.01098,-0.085525,-0.01855,0.10229,-0.10837,-0.12326,-0.088492,0.15561,0.09081,0.14799,0.1781,-0.0022623,0.011046,-0.069822,-0.20953,-0.28226,-0.38255,-0.17406,-0.13713,-0.04437,-0.078681,0.12272,-0.068959,0.048035,-0.078954,0.11909,-0.11072,-0.044358,-0.06854,-0.13128,0.14239,0.025201,0.058256,0.058201,0.11313,0.28162,0.23466,0.31122,0.30635,0.13351,-0.019757,-0.072691,-0.20123,-0.48265,-0.19942,-0.11953,-0.24317,-0.029887,-0.015462,0.10687,0.026552,-0.2352,0.14797,-0.002182,-0.021516,0.089039,0.07181,0.065895,0.024554,0.11384,-0.010759,0.021747,0.15075,0.24728,0.17841,0.067206,0.09785,-0.0059696,0.13175,-0.053668,0.066083,-0.03963,-0.27226,-0.1534,-0.10969,-0.081806,-0.0018228,-0.016837,0.038139,0.031266,-0.03465,-0.091441,0.10153,-0.058769,-0.015577,-0.27161,-0.36091,0.0097811,0.046755,-0.12328,0.063003,0.065913,0.13518,0.19697,0.015382,-0.12373,0.12607,-0.0040492,0.075153,-0.016309,-0.19724,8.4218e-05,-0.11838,-0.19921,0.083681,-0.031312,0.10245,0.034778,-0.091312,0.10253,-0.040847,0.17229,-0.32893,-0.052757,-0.13396,-0.17418,-0.26023,-0.15844,-0.15862,-0.15698,-0.054929,0.14589,-0.083433,0.20186,-0.08555,-0.12397,-0.032089,-0.15832,0.0027234,-0.14051,-0.13071,-0.11063,0.17421,0.17087,0.11343,0.06264,0.038857,0.074023,0.012729,0.16411,-0.25789,0.17456,-0.38448,-0.29877,-0.21871,-0.093118,-0.44467,0.031585,-0.153,0.20489,0.076867,0.29537,0.20947,-0.16564,0.15092,-0.043316,-0.31138,-0.18279,-0.28802,-0.3086,0.1537,0.11652,-0.0055039,-0.044153,-0.052388,0.078645,0.0083508,-0.16929,-0.13097,-0.17357,0.072567,-0.51596,-0.40992,-0.061112,-0.050538,-0.044069,0.14459,0.27689,0.33174,0.39308,0.27038,0.25007,0.12537,0.08146,-0.054075,-0.23981,-0.19352,-0.2131,0.03098,-0.066551,0.060882,-0.099905,-0.044036,-0.070505,0.019017,-0.11399,-0.082678,-0.084766,-0.20835,-0.52169,-0.16801,-0.17216,-0.38936,0.14881,0.049941,-0.016584,0.15786,0.7378,0.37292,0.023049,0.0523,0.13604,-0.20474,-0.09263,-0.28016,-0.21848,0.06269,0.0026995,-0.064566,0.10696,-0.050071,-0.0085425,0.0010489,0.065971,0.034338,-0.21296,-0.36779,-0.31621,-0.22943,-0.34686,-0.33924,-0.33089,-0.25913,-0.39938,0.16835,0.35081,0.23174,-0.091786,-0.15437,-0.25684,-0.5706,-0.58703,-0.49971,-0.35482,-0.085873,0.030007,0.16958,-0.017607,0.018905,0.13156,-0.012619,-0.053156,-0.15669,-0.030014,-0.18663,-0.16339,-0.12863,-0.28202,-0.04071,-0.068385,-0.28713,-0.13107,0.35941,0.25934,0.11229,0.042937,-0.081177,-0.32634,-0.76566,-0.5361,-0.38922,-0.35987,-0.34695,-0.083477,0.062372,0.14245,0.14744,-0.156,-0.15696,-0.10016,-0.027444,-0.15086,-0.36695,0.11855,0.025297,-0.12714,0.075535,-0.055405,-0.13077,0.1831,0.24096,0.33472,0.49162,0.04868,-0.36316,-0.59437,-0.67401,-0.65318,-0.39987,-0.089876,-0.12316,-0.011349,0.12925,0.025908,-0.028095,0.060727,0.10045,0.0033759,-0.084839,-0.14153,-0.087305,0.014948,0.21003,-0.041325,-0.087244,-0.27582,-0.27694,-0.11123,0.10697,0.40936,0.52652,0.087368,-0.56001,-1.0206,-0.63943,-0.24939,-0.19547,-0.21724,-0.12295,0.20705,0.11795,0.09906,-0.02256,-0.010084,0.051594,-0.23502,0.014042,0.18145,0.11278,-0.018803,-0.0083773,0.1731,-0.12621,-0.32429,-0.11216,0.037049,0.047449,0.25042,0.12489,-0.53997,-0.92182,-0.76586,-0.37334,-0.22067,0.0025617,0.16425,0.075091,0.32239,0.096166,0.049668,0.12873,-0.088066,0.093133,0.29509,0.0078294,0.06413,0.16152,0.042961,0.0071345,0.015845,0.087252,0.039032,0.23269,0.46063,0.17716,0.30806,0.00092093,-0.48236,-0.67014,-0.40567,-0.21038,-0.042562,0.18105,0.20934,0.29026,0.10224,0.052652,0.048357,0.19528,-0.090452,-0.065823,-0.015368,0.040625,0.024065,0.32334,0.14572,0.029548,0.1266,0.12784,0.26378,0.56807,0.52218,0.62045,-0.1398,-0.56555,-0.58155,-0.28742,-0.037912,0.152,0.11081,0.06199,0.24415,0.19622,0.039954,-0.034801,-0.039574,-0.082809,-0.10103,0.10382,0.0053003,-0.067704,0.12167,0.11091,0.17496,0.083868,0.27667,0.016657,0.28899,0.38557,0.56039,0.34068,-0.23636,-0.42457,-0.48658,-0.27482,0.15195,0.28252,0.19795,0.36106,0.39636,0.13716,0.1345,-0.1341,-0.10793,0.10655,-0.13497,0.12494,-0.042233,-0.073469,0.044402,0.10657,0.095426,0.18404,0.52492,0.33127,0.45357,0.046194,-0.050637,-0.25871,-0.49826,-0.35916,0.044197,-0.16133,0.079442,0.25613,0.22533,0.17528,0.18834,0.27164,-0.013574,-0.10371,-0.024691,0.14803,-0.019919,0.062259,0.093917,-0.015346,0.11802,-0.16206,-0.10747,0.088367,0.19969,-0.14627,-0.16953,-0.4355,-0.41309,-0.12246,-0.33566,-0.17807,-0.2752,-0.13334,-0.012893,0.16063,0.28624,0.20905,0.26878,0.12321,0.089179,-0.07182,0.11157,0.12151,0.08605,0.0037437,0.098636,0.057845,0.016846,-0.20117,-0.15437,-0.026363,-0.072304,-0.29733,-0.46115,-0.52467,-0.43436,-0.17731,-0.2535,-0.2035,-0.09755,-0.11365,0.054418,-0.0048141,0.18981,0.23371,0.09109,0.20247,0.005498,0.041204,-0.041821,0.069615,0.015003,-0.11615,-0.046567,0.10476,-0.017139,-0.11349,-0.25153,-0.30999,-0.55634,-0.41766,-0.43306,-0.37672,-0.31067,-0.23185,-0.12912,-0.086279,-0.36843,-0.34519,-0.26364,0.0063356,0.018642,0.18564,0.39515,-0.0097847,-0.094302,0.10995,-0.0022592,-0.16721,-0.04845,0.24207,0.063068,0.061342,-0.090655,-0.0031978,-0.26515,-0.31773,-0.19044,-0.3699,-0.28929,-0.41897,-0.35018,-0.45138,-0.32974,-0.23623,-0.27059,-0.20746,0.016685,-0.14974,0.098618,0.067416,-0.042904,0.17605,-0.10097,0.062906,0.085032,0.015641,0.086052,0.064162,0.082646,0.12548,-0.13814,-0.041145,0.042138,-0.22675,-0.0018241,-0.026008,-0.19304,-0.27081,-0.07881,-0.10968,-0.25285,-0.050689,-0.052658,-0.17608,-0.041379,0.059565,0.039502,0.10758,0.037023,0.041354,0.077738,0.030927,-0.036805,-0.1269,-0.10403,-0.017141,-0.12132,-0.071567,0.14851,-0.063576,-0.084503,-0.18977,-0.15837,-0.15384,-0.11747,0.0066876,-0.19247,0.051485,0.00096284,-0.10275,0.0088332,-0.1267,-0.15385,0.1522,0.045108,0.058382,-0.13544,0.158,0.10886,-0.11188,0.10631,-0.052732,0.10433,-0.068369,-0.054516,0.076861,0.017005,-0.3012,0.023667,-0.08385,-0.08202,0.086627,-0.049176,-0.029156,-0.094279,0.08631,0.036612,0.12321,0.056625,-0.15335,0.10921,-0.18548,-0.039523,0.26763,-0.047336,-7.474e-05,0.23751,-0.0044996,0.14383
-0.037161,0.055194,0.032339,0.051136,0.11907,0.016364,0.0059124,0.061774,0.046747,-0.079512,-0.10016,0.12549,0.099474,0.0037063,0.0048801,0.078446,-0.055264,0.068185,-0.1162,-0.0063038,0.018231,0.063822,-0.040947,-0.097908,-0.025504,-0.0084443,0.051632,-0.15868,-0.0010513,-0.09842,-0.13616,0.097273,0.11841,0.21129,-0.10575,-0.050062,-0.058363,0.014283,-0.077144,0.014841,0.19939,-0.24078,-0.036473,-0.17164,0.16733,-0.049124,0.11147,-0.064954,-0.064066,0.0010936,-0.045192,-0.12377,-0.02459,0.10824,-0.018189,0.15715,0.0058425,-0.058221,-0.06054,-0.21113,0.015548,0.011825,-0.14931,-0.057802,0.13075,-0.0618,-0.11497,-0.14504,0.083391,-0.029906,-0.15683,-0.074255,-0.045046,0.015008,0.11079,0.034344,0.012919,-0.025184,0.19728,0.10629,0.19481,0.1194,-0.16609,-0.012383,0.066006,-0.064227,-0.055768,0.059453,-0.069341,0.035711,0.07709,0.1194,0.1489,-0.018308,0.025574,-0.026787,-0.19739,-0.0074641,-0.39139,-0.25106,-0.10477,-0.23113,-0.030009,0.023711,-0.034945,0.13921,0.0042558,0.0092143,-0.022114,0.0084007,-0.095347,0.07466,-0.11555,-0.0061087,-0.062134,0.092563,-0.026075,-0.082346,-0.093613,-0.050098,-0.015733,-0.059293,0.022777,0.084385,-0.33181,-0.2567,-0.42319,-0.47527,-0.3606,-0.20552,-0.20518,-0.078935,0.048108,0.047811,0.15666,0.21686,0.13219,0.0099986,-0.051261,0.061065,-0.09441,0.092825,0.014408,-0.01805,-0.0052046,0.091748,0.2101,-0.12314,-0.018388,0.17271,-0.0065183,-0.27431,-0.40263,-0.56943,-0.55212,-0.62804,-0.25817,-0.037959,0.036966,-0.32589,-0.21497,-0.085921,-0.057794,-0.0071711,0.23003,-0.049123,-0.17089,-0.016205,0.14912,-0.065328,0.076381,0.077324,0.10085,0.011228,0.33618,0.2414,0.28396,0.22788,0.2144,-0.064609,-0.26981,-0.45148,-0.47302,-0.42106,-0.15029,-0.038495,0.066265,-0.19842,-0.19809,0.082179,-0.017342,0.27342,0.084666,0.20016,-0.025108,0.027165,0.11955,-0.098,0.037065,0.15004,0.095445,0.29582,0.35026,0.24612,0.22541,0.1481,0.19918,0.19102,-0.042217,-0.2782,-0.64024,-0.61897,0.12591,0.35049,0.013458,0.072236,-0.023488,0.030835,0.1782,0.12133,0.1413,0.06556,0.19175,0.1084,-0.086313,-0.09164,0.13132,0.12299,0.25056,0.097246,0.061264,0.12186,0.20321,0.2117,0.11668,0.083298,-0.095689,-0.50217,-0.6143,-0.41766,0.22395,0.5534,0.3473,0.24906,-0.0052927,0.16556,0.32961,0.16645,0.060888,0.14878,0.028339,-0.11636,-0.19208,0.081205,0.17449,-0.090476,0.14892,0.08452,-0.1181,0.13817,0.38363,0.27239,0.035733,-0.16289,-0.29571,-0.39247,-0.67647,-0.098825,0.61692,0.6616,0.21221,0.38037,0.24322,0.28139,0.3138,0.1519,0.11783,0.035877,0.034424,0.0054919,0.127,0.04058,0.067966,0.17839,-0.074989,0.049238,-0.26927,-0.079499,-0.11864,-0.051165,-0.14041,-0.72573,-0.65608,-0.59634,-0.53878,0.31673,0.73705,0.611,0.16289,0.27395,0.29771,0.34729,0.21939,0.092366,0.15954,0.075524,0.08607,0.16435,0.094511,0.0045562,0.19951,0.07195,0.30613,0.066356,-0.32293,-0.030572,-0.088525,-0.096985,-0.34911,-0.21327,-0.46342,-0.39948,-0.21193,0.57184,0.63618,0.44835,-0.086103,0.01756,0.22793,0.13684,-0.17842,-0.12301,-0.0072922,-0.074642,-0.07945,-0.17001,0.19322,-0.14102,0.0072904,0.16258,0.20286,0.028585,-0.022818,0.07933,0.15139,0.0772,-0.2793,-0.25849,-0.25235,-0.41742,-0.087196,0.43764,0.48728,0.07187,-0.14338,-0.2149,-0.1772,0.043251,-0.063331,-0.19725,-0.051273,0.0091047,-0.093213,0.12184,-0.069189,0.02658,-0.14987,0.092321,0.04929,0.034214,0.092553,0.077436,-0.10633,-0.20079,-0.17069,-0.41159,-0.39243,-0.35678,0.11691,0.31583,0.1878,-0.099943,-0.1179,-0.19855,-0.12093,-0.046957,-0.0027371,0.018948,-0.015228,0.029826,-0.034837,-0.054389,-0.026154,0.086526,0.040323,0.054495,0.18782,0.027624,-0.0080014,-0.12548,-0.18564,-0.32648,-0.26141,-0.27392,-0.17382,-0.17126,0.21536,0.15962,0.3351,0.15181,0.0084376,0.12784,0.087399,-0.011642,0.023807,0.048417,-0.2027,0.028303,0.089045,-0.097497,0.012807,0.123,0.031383,-0.048325,0.058284,-0.1023,-0.10901,-0.11833,-0.2818,-0.096444,-0.46069,-0.18635,-0.11779,-0.15421,0.26037,0.36498,0.077867,0.19345,0.046191,0.28601,0.24719,0.047718,0.23164,-0.017781,-0.10931,0.07194,0.20337,-0.031151,-0.11371,-0.039582,0.095046,-0.22769,-0.052353,-0.27195,-0.18843,0.12161,-0.2129,-0.2643,-0.30045,-0.27632,0.15938,0.14607,0.22956,0.19759,-0.10308,-0.070939,0.17283,0.18743,0.048248,-0.01874,-0.022249,-0.11858,-0.071289,-0.053759,0.10887,-0.033389,0.16328,0.089254,-0.091862,-0.22415,-0.3534,-0.37435,-0.12566,0.11794,-0.18401,0.033337,-0.05546,0.17735,0.21583,0.2499,0.32865,-0.062228,-0.22217,-0.0397,0.10362,-0.041236,-0.17931,-0.11755,-0.3367,-0.33835,-0.34601,-0.054468,0.059932,0.025148,-0.077997,-0.016015,0.073514,-0.2279,-0.0056983,-0.30175,-0.44202,0.024303,0.089041,-0.0003651,-0.21777,0.27522,0.32969,0.25882,0.038862,-0.20802,-0.34123,-0.30327,-0.20418,-0.15942,-0.30796,-0.42499,-0.5693,-0.32071,-0.20726,-0.13371,-0.21844,-0.096776,-0.11123,0.06912,-0.039286,-0.057756,-0.192,-0.42438,-0.28461,-0.40224,-0.27743,-0.2164,-0.066637,0.15595,0.25626,0.03356,-0.18771,-0.19553,-0.40211,-0.2227,-0.44083,-0.49958,-0.32285,-0.47888,-0.38456,-0.17473,0.075334,0.035227,0.014193,-0.016925,0.021187,0.073284,-0.063534,-0.23161,-0.28069,-0.50411,-0.42529,-0.39373,-0.52201,-0.16609,0.16902,0.0088056,0.16724,-0.241,-0.16314,-0.078735,-0.48789,-0.3115,-0.28821,-0.24895,-0.48319,-0.21763,-0.44286,-0.19403,-0.30698,0.23815,-0.089832,-0.10456,0.054117,0.27651,-0.09067,-0.12852,-0.1281,-0.22334,-0.50494,-0.25838,-0.18546,-0.11997,0.081799,-0.13136,-0.10802,0.065422,0.011748,-0.30441,-0.35531,-0.47955,-0.5391,-0.41974,-0.38519,-0.20718,-0.16195,0.037207,-0.17744,-0.068082,0.018655,0.03376,-0.0087466,-5.1434e-06,0.11347,0.14338,0.16459,-0.068899,-0.087843,0.12778,-0.019041,0.21383,0.28216,0.16652,-0.086831,-0.16213,-0.10607,-0.30497,-0.38407,-0.39233,-0.51106,-0.097001,-0.36005,-0.15598,0.035683,0.016058,0.0039126,-0.086507,-0.067211,-0.065139,0.21899,-0.12561,0.047854,0.014925,0.083279,0.074519,0.28559,0.30703,0.079396,0.093354,0.04324,-0.0059706,-0.038148,0.07826,-0.11923,-0.17402,-0.22381,-0.41934,-0.2893,-0.3139,-0.12106,-0.1153,-0.12641,-0.085282,-0.01942,0.052949,0.059916,0.035917,-0.019409,0.047831,0.094967,-0.20281,0.21152,0.19751,0.30427,0.26557,0.20789,0.10708,0.012503,0.25536,0.12879,0.1938,-0.028729,-0.10044,-0.25945,-0.25332,-0.24295,-0.31321,-0.07793,-0.18613,-0.0097327,-0.17507,0.015787,0.093436,0.088675,0.040021,-0.047073,0.026533,-0.096048,-0.1052,0.1992,0.19571,-0.022893,0.11854,0.11406,0.22479,-0.15724,-0.045868,0.29697,0.23504,0.26026,0.19295,-0.11104,-0.071601,-0.090871,-0.3023,-0.1613,0.0021102,0.018139,-0.15575,0.070894,-0.034995,-0.033257,-0.037737,0.033822,0.01371,-0.036592,0.093206,-0.086785,-0.02199,0.13183,-0.091368,-0.13923,-0.17216,0.0056794,-0.19014,-0.049751,-0.0079226,0.022597,-0.044669,0.080521,-0.099371,-0.12947,0.13706,-0.026566,0.022952,0.075372,-0.1002,-0.075114,-0.017955,-0.032636,0.032148,0.13362,-0.010452,0.013514,-0.02236,-0.0012508,-0.085141,-0.1801,0.11257,-0.075693,0.016091,-0.0034659,-0.10992,0.037299,0.097432,0.087156,-0.068808,-0.072864,0.065548,-0.057461,0.14014,-0.058989,0.0099237,0.046721,0.097983,-0.15565,0.072729,-0.14735,-0.047729
0.035123,0.074797,-0.093288,0.010924,-0.028136,0.27959,0.092847,-0.11117,-0.035518,-0.016127,0.056158,-0.079422,0.10622,0.050359,-0.075498,-0.084164,-0.00050405,0.00030199,0.012711,-0.052186,0.11449,0.13144,-0.055173,-0.081206,0.032752,-0.0094468,-0.0033502,-0.017339,-0.17125,0.062732,-0.010103,-0.00036626,0.078443,0.08058,0.044942,0.067453,-0.11046,0.00094636,0.060279,0.10567,-0.11363,0.058705,0.024303,-0.26024,-0.25704,0.043832,0.034347,-0.047375,-0.1321,0.14746,0.13735,-0.14129,0.13042,0.10959,0.0048853,-0.11021,0.062639,-0.099916,-0.088803,0.13015,0.15712,0.014179,-0.10133,-0.13443,0.037021,-0.052235,0.044241,-0.16307,-0.22464,-0.22878,-0.15555,0.0052645,-0.2218,-0.18816,-0.13426,0.042135,-0.021833,-0.10498,-0.0089118,-0.14344,0.010666,-0.17438,-0.14492,-0.028785,0.071182,-0.0068685,0.045008,-0.024007,0.055996,-0.11203,0.14902,0.078522,-0.12156,-0.097216,0.19906,0.023934,0.0023302,-0.086778,-0.19366,-0.15129,-0.13591,-0.19874,-0.0045042,-0.084371,-0.17837,-0.14888,-0.062293,-0.15106,-0.27663,0.13285,0.026528,-0.076943,0.20411,0.01173,-0.061887,-0.20384,0.066021,-0.030106,-0.086706,-0.027026,0.080728,-0.26509,0.12726,0.016042,-0.06039,0.039402,-0.030809,-0.036564,0.037265,-0.078855,-0.19756,-0.015279,-0.16909,-0.018934,-0.11326,-0.081304,0.19195,0.044054,0.07714,-0.064967,0.10211,0.10033,0.15723,0.049358,-0.012042,-0.04022,-0.055994,0.19904,-0.078162,0.057823,-0.029949,0.061125,0.091083,0.029131,0.046473,-0.089049,0.052195,-0.14849,0.047382,-0.11794,0.10255,-0.031512,0.13962,-0.12827,0.16406,0.1273,-0.0080851,0.22333,0.10963,-0.23901,0.0057123,0.018043,0.034703,-0.10787,0.010653,-0.19226,-0.098224,-0.14374,-0.20024,-0.097544,-0.02189,-0.21606,-0.21963,-0.069431,0.026715,0.19796,0.098063,0.047474,0.25299,0.048748,0.037105,0.41286,0.11196,-0.049743,0.14438,0.16009,-0.14775,0.1343,0.065913,0.1135,-0.11214,0.11674,-0.26438,-0.10394,-0.13529,-0.34933,-0.066694,-0.20428,-0.24898,-0.0023844,-0.27227,-0.00050359,0.24728,0.087234,0.21769,0.20557,0.24446,0.30862,0.098891,0.0092867,0.057864,-0.072651,0.21403,0.1639,-0.23087,0.073729,-2.1948e-06,-0.091776,-0.027937,0.00011776,-0.25792,-0.043516,-0.17786,-0.23016,-0.19525,-0.055321,0.023168,-0.010418,-0.10329,-0.015616,0.22746,0.2178,0.16803,0.22449,0.19811,0.067025,-0.052655,-0.074919,-0.20481,0.042497,0.26244,-0.10685,-0.061537,0.074607,-0.048294,-0.0044197,0.0087549,0.022466,-0.071207,-0.055768,-0.035499,-0.064689,-0.14579,-0.078191,-0.15813,0.002616,-0.15084,0.16756,0.1545,0.28006,0.15312,0.22622,0.16247,0.16866,-0.11824,0.1183,0.066366,0.10592,0.2292,-0.01896,-0.19036,0.0071625,0.038249,0.057821,-0.04989,-0.14498,-0.026441,-0.1339,0.018645,-0.0072905,-0.11103,-0.048463,-0.14366,-0.074672,-0.29457,-0.12131,-0.054497,0.043458,0.13488,-0.0074498,0.0016146,-0.094293,-0.3479,-0.22184,0.0084502,0.026521,0.25021,0.0081552,-0.11324,0.029003,0.11794,-0.10659,0.022058,-0.21278,0.071605,0.10202,0.025589,-0.080537,-0.11316,-0.24218,-0.25438,-0.19589,-0.38531,-0.2367,-0.014572,-0.1707,-0.081029,0.026882,-0.32642,-0.095908,-0.25993,-0.34411,-0.21054,-0.032508,-0.14933,0.066411,0.020851,0.11647,0.012126,0.09333,0.012977,-0.037275,0.073069,-0.12644,-0.20389,-0.16965,-0.23215,-0.47424,-0.19138,-0.17126,-0.36448,-0.078063,-0.02413,-0.034884,0.053981,-0.15736,-0.29826,-0.22382,-0.29737,-0.26832,-0.17689,-0.013395,-0.036315,0.004702,-0.048771,-0.055093,-0.014641,-0.022004,0.10365,-0.027841,0.0010192,-0.19754,-0.26006,-0.30956,-0.31033,-0.22569,-0.27346,-0.17264,-0.43069,-0.060391,0.016441,0.011198,0.078615,-0.35865,-0.062823,-0.18493,-0.42126,-0.40251,-0.20412,-0.13989,0.062243,0.094417,-0.10862,-0.058012,-0.020898,-0.03286,0.0060647,0.0092862,-0.12028,-0.1397,-0.25788,-0.33138,-0.24384,-0.46554,-0.079695,-0.53534,-0.45835,-0.35681,-0.14455,-0.0183,-0.19427,0.021363,-0.20158,-0.073584,-0.32526,-0.25665,-0.01313,0.17703,0.23588,0.047615,-0.069413,-0.031577,0.2302,0.21283,0.20513,0.027688,0.18221,-0.14247,-0.097061,-0.18897,0.11849,-0.034777,0.24961,0.025833,-0.21738,-0.18669,0.089437,-0.21979,-0.2581,-0.087902,-0.29883,-0.23518,-0.29236,-0.16596,-0.15022,-0.094573,0.22757,0.093087,0.053116,0.18993,0.16122,0.10526,0.082356,0.027074,0.20565,0.50967,0.42251,0.2442,0.31199,0.39226,0.24927,0.014728,-0.29417,0.10628,0.082829,0.041926,0.11718,0.11009,0.09383,-0.1298,-0.09514,-0.072328,-0.037478,0.10663,0.015511,-0.10515,0.071104,-0.094662,-0.10289,0.11281,0.093903,-0.046034,0.27587,0.67822,0.64588,0.55765,0.52747,0.30219,0.16261,0.037588,0.071502,0.21729,0.1098,0.21363,0.2197,0.074332,-0.038535,0.0056028,-0.1662,-0.015343,0.068377,-0.17577,-0.081163,-0.10187,-0.12163,0.011418,0.25142,-0.11312,0.22036,0.31239,0.27954,0.40964,0.38562,0.30255,0.40391,0.16703,-0.042758,0.20307,0.23996,-0.10535,-0.036015,0.034017,0.12782,0.054665,0.091,-0.17677,-0.16835,0.0049983,-0.14238,-0.08459,-0.046733,0.09483,0.012239,0.10349,0.10627,-0.17541,0.19601,0.17245,0.17846,0.16662,0.059485,0.12226,-0.0594,-0.006037,-0.10675,-0.02894,-0.0020771,0.11981,-0.082653,0.1867,0.29454,0.2784,-0.16212,-0.22703,0.09227,-0.17761,-0.062521,0.080909,0.034091,0.28678,0.013249,0.12716,0.093896,0.10863,0.043334,0.10199,-0.066992,-0.063799,-0.098329,-0.14032,-0.25936,-0.2988,-0.20515,-0.16018,-0.3011,-0.14161,0.099894,0.31287,0.10179,0.16992,-0.0022036,0.2498,0.022142,-0.070746,0.20178,0.076519,-0.13367,0.0035783,-0.034793,0.10611,-0.029132,0.17766,-0.079008,0.10337,0.021296,-0.18994,-0.069159,-0.33931,-0.21624,-0.28432,-0.23644,-0.34467,-0.24861,0.023093,0.10927,0.28666,0.11589,0.21189,0.16133,0.087649,0.1027,0.030273,-0.076813,0.032545,0.0079825,-0.064833,0.0026109,-0.25494,0.18038,-0.13658,-0.0016989,-0.20002,-0.2758,-0.2228,-0.24057,-0.26022,-0.33912,-0.14086,-0.3271,-0.031719,-0.012939,-0.057504,0.063404,0.30433,0.17198,0.14817,0.043275,0.16134,0.037754,0.12636,-0.024441,0.00046397,0.010536,-0.076545,0.12127,-0.029927,-0.055616,0.0044852,0.13868,0.020759,0.10855,-0.11549,-0.26591,-0.087359,-0.25882,-0.21872,-0.21138,-0.23808,-0.24963,-0.089122,0.044346,0.1667,0.14234,0.10913,0.099896,0.084224,0.15823,-0.033953,0.021379,0.075009,0.10099,-0.18055,-0.024514,0.028021,-0.046761,0.0029281,-0.24386,-0.23249,0.13506,-0.033403,-0.14601,-0.19008,-0.049311,-0.081447,0.0288,-0.045181,0.17445,-0.0074816,0.065958,0.066627,-0.033458,-0.054023,-0.094034,-0.055301,-0.039303,-0.21519,-0.046905,-0.004403,-0.21169,-0.077489,-0.25501,-0.015028,-0.078518,-0.014049,-0.048327,-0.12361,0.04564,0.03086,-0.069727,0.059351,-0.10253,0.11332,-0.090432,0.074765,0.0046971,0.041807,-0.027409,-0.04662,0.0095784,-0.050955,0.10796,0.011579,-0.046908,0.22711,-0.0008177,0.059776,0.019102,0.098745,-0.15566,0.044623,0.065851,-0.23309,0.0058147,-0.11845,-0.068271,0.15368,-0.0054048,-0.040314,0.12927,0.0048425,0.037035,0.044742,-0.074601,-0.060788,-0.1434,-0.11907,-0.2029,-0.18883,-0.0015781,-0.048803,0.072054,0.10805,0.17886,0.075576,0.0097892,0.0055383,-0.084416,-0.083243,-0.013005,-0.078869,0.033501,0.09129,-0.047932,-0.14486,0.12994,-0.065892,-0.022479,-0.035802,-0.076986,-0.18092,-0.08514,0.0872,0.10865,0.063553,-0.071144,0.0078684,0.062293,0.0022588,0.094868,-0.24957,-0.075567,-0.033102,0.020471,0.17656
0.3533,0.16664,-0.020778,0.078062,0.12161,-0.12121,0.010436,-0.15781,-0.064472,-0.023711,-0.046887,-0.13111,0.011487,0.11584,0.03593,-0.084181,0.036667,0.10618,0.091403,0.0060141,-0.073222,-0.077475,-0.12719,0.0055684,-0.1502,-0.28444,0.041272,0.057024,0.065644,0.12596,-0.014816,0.0027369,0.091705,-0.11165,-0.00047783,0.08772,0.095279,0.033245,-0.11502,-0.1175,0.19115,-0.14388,-0.037271,-0.029629,0.0326,-0.12048,0.13945,-0.16487,-0.063409,-0.054062,-0.067295,0.023593,0.021564,-0.051628,-0.14193,0.12301,0.2283,-0.18564,0.0009172,0.039009,0.019931,-0.092035,0.03215,-0.22767,0.002158,0.064648,-0.0075027,0.081545,-0.085071,-0.028727,0.051256,-0.1041,0.06806,-0.088756,0.060227,-0.030951,0.046218,0.062962,-0.1873,-0.11797,-0.22092,-0.11959,0.085538,0.028478,0.032528,-0.014531,-0.16992,0.018743,-0.06275,-0.12147,0.0076244,0.14147,0.20252,0.22222,0.21596,-0.074946,0.1141,0.1354,-0.034679,0.012268,-0.20542,-0.22826,-0.11964,-0.13498,-0.01657,-0.021513,-0.074347,-0.12253,0.018789,-0.042444,-0.031148,0.06401,-0.14724,0.055101,0.014312,-0.055514,-0.099003,-0.078096,0.07241,-0.015558,0.015581,0.071816,0.09987,0.010629,-0.096189,-0.20634,-0.10012,-0.026388,-0.12164,0.11959,-0.017347,-0.022468,-0.16239,-0.22828,-0.15598,0.035911,0.13341,0.11257,-0.11216,0.072657,-0.060364,0.011842,0.0073077,0.034792,-0.21275,-0.058021,0.071522,-0.058477,-0.15783,0.12853,0.048784,0.20125,-0.13801,-0.15986,-0.15959,-0.056884,-0.22812,-0.095399,0.13102,-0.22417,0.02701,-0.1043,-0.0050333,0.062643,0.15487,-0.040983,-0.15493,0.033506,0.028812,-0.040985,-0.080735,0.044833,-0.096815,0.08387,-0.098727,0.10899,0.10432,-0.034404,0.018467,0.011738,-0.13431,-0.06488,-0.1553,-0.22218,-0.22071,-0.12273,-0.046524,-0.20454,0.063484,-0.11251,0.15056,0.057042,0.10811,-0.071638,0.026279,0.063709,0.041447,-0.15214,-0.092867,-0.20906,0.014045,-0.084359,0.021239,0.21493,0.088875,-0.086622,0.017673,-0.055612,0.0049891,-0.15208,-0.024315,-0.24998,-0.3228,-0.16567,0.075247,-0.0032145,0.13765,0.21901,0.15817,0.12449,0.32184,0.090011,-0.062515,-0.040669,0.06841,-0.12073,0.12213,-0.0046051,-0.098113,0.10558,-0.033957,-0.067746,0.083422,0.013538,0.014111,-0.069177,-0.089968,-0.14606,-0.12058,0.15687,-0.12553,-0.13802,0.043297,0.071959,0.26587,0.0086941,0.22405,0.3865,0.13074,0.13333,0.1204,0.022701,-0.061333,0.013388,0.097124,-0.14056,0.064654,0.13757,-0.079151,0.1371,0.077839,0.22303,-0.12504,-0.082615,0.016802,-0.0024464,-0.059751,0.053562,0.060054,0.12895,-0.081337,0.12073,-0.017856,0.078731,0.16504,0.19499,0.05886,0.061482,-0.061184,0.034101,-0.055634,0.034496,0.14526,-0.022529,-0.11345,-0.086475,-0.030279,-0.041889,-0.026964,-0.05507,-0.14787,-0.065019,0.0038906,-0.13261,-0.12111,-0.12571,-0.28079,-0.16802,-0.20665,-0.34567,-0.1283,-0.099797,-0.18456,-0.17441,-0.072278,0.20548,-0.054834,-0.0028604,0.18233,-0.019719,0.1064,0.019114,-0.056981,-0.094535,0.10352,-0.21058,0.066625,0.010962,0.031835,-0.048442,0.068609,-0.093543,-0.18909,-0.32684,-0.17986,-0.39273,-0.19056,-0.30349,-0.28325,-0.051066,-0.30793,-0.32094,-0.1283,0.093201,0.12389,-0.095378,-0.056816,0.00057597,0.063804,-0.047726,-0.17104,-0.24353,-0.22725,-0.16926,-0.18994,-0.12642,-0.25071,-0.1326,-0.059502,-0.15417,-0.30937,-0.27111,-0.45151,-0.52793,-0.11311,-0.36604,-0.25338,-0.17369,-0.069221,-0.28851,-0.23326,-0.032688,-0.081617,0.076696,0.087439,0.065215,0.077545,0.052224,-0.013526,-0.23386,-0.088067,-0.0081215,0.058274,-0.17756,-0.12466,0.10282,-0.16037,-0.20817,-0.42244,-0.15788,-0.29093,-0.49862,-0.26197,-0.22129,-0.23946,-0.30716,-0.23929,-0.25518,-0.17781,-0.0067198,-0.056559,0.063907,-0.054066,0.027934,-0.028449,-0.056867,-0.1541,0.074448,-0.32338,-0.33136,-0.056306,0.060497,-0.080552,0.036151,0.029502,-0.18123,-0.30141,-0.33175,-0.214,-0.1287,-0.25754,-0.24881,-0.31461,-0.28415,-0.2278,-0.081992,-0.052653,0.028693,-0.024802,0.0056639,0.21598,-0.014288,0.20422,-0.018756,0.10025,-0.23608,-0.077113,-0.10239,-0.23164,0.15908,0.3435,0.15431,-0.012732,-0.15403,-0.03485,-0.27533,-0.096787,-0.27417,-0.1299,-0.42967,-0.21335,-0.1654,-0.12249,0.097456,-0.17812,-0.16224,0.067166,0.018917,0.020229,-0.1292,0.10526,0.021494,0.034795,-0.080341,-0.20848,-0.33503,-0.10449,-0.151,-0.079083,-0.085295,-0.054338,0.11353,-0.14272,-0.31423,0.0057496,-0.37397,-0.25724,-0.054887,-0.21386,-0.2135,-0.019615,-0.056187,-0.06025,0.11111,0.17297,0.0046093,0.13129,0.0093721,-0.13331,-0.062371,0.044088,0.0076239,-0.069085,-0.19673,-0.19877,-0.18051,-0.056196,-0.18965,-0.064599,-0.32595,-0.26051,0.011501,-0.071845,0.017905,0.01004,-0.16736,-0.056719,-0.055584,0.045039,-0.072969,-0.0049733,0.024918,-0.10105,-0.076624,0.022549,0.086611,0.098777,0.028439,-0.13087,0.1144,0.12008,-0.051097,0.0094559,0.0073377,-0.19829,-0.2331,-0.25264,-0.081886,-0.1156,-0.12687,0.014173,-0.16257,-0.088131,-0.065663,0.0047633,-0.04454,-0.018552,-0.12083,-0.068493,0.085115,0.064159,-0.13721,-0.0053349,0.16108,-0.028359,0.015097,0.016319,-0.029167,0.10081,0.31265,0.018128,0.061885,-0.028141,-0.047239,0.10966,-0.075232,0.084561,-0.22935,-0.08002,-0.17086,-0.026539,-0.056307,0.019274,0.038178,0.1426,-0.13781,0.13622,-0.036462,0.14375,0.00074659,0.065654,-0.061396,-0.0021896,-0.016208,0.079252,0.089074,0.1406,0.22673,0.10367,0.10835,-0.07559,0.1409,0.036496,-0.117,-0.088554,0.025907,-0.12969,-0.033452,0.022243,-0.081729,-0.034517,-0.10109,0.11154,-0.01942,-0.081034,0.12139,0.016181,0.0072357,0.091633,0.258,0.024038,0.014187,-0.029105,0.23533,0.14489,0.044382,0.040503,-0.03199,0.055247,-0.085857,0.017306,-0.1132,-0.0049212,-0.085256,-0.16362,-0.067028,-0.20238,-0.053736,-0.27263,0.0065933,0.080955,0.22916,-0.029946,0.058426,-0.19887,0.084806,0.070262,-0.094734,0.18544,0.041534,0.13286,0.071281,-0.0261,-0.15263,-0.1573,0.11044,-0.056346,-0.10177,-0.13305,-0.10775,0.088761,-0.17,0.043047,-0.015993,0.076734,0.034148,0.11185,0.14019,0.16586,0.10039,0.076472,0.15564,-0.0098663,0.076748,-0.042445,0.077638,-0.034314,0.08219,-0.055713,-0.062734,-0.068356,0.26625,-0.13855,-0.024698,-0.0556,-0.046261,0.12992,-0.052301,0.029267,-0.0195,-0.095683,-0.22939,-0.0051005,-0.068458,0.033588,0.035302,0.045181,-0.12408,0.023834,0.069112,-0.015779,0.066684,0.16734,-0.08156,-0.1194,-0.044313,-0.2,-0.09411,-0.028306,0.12571,-0.074495,-0.039076,-0.015702,0.13641,0.072169,-0.065132,0.065869,0.088497,0.0027864,-0.026821,-0.038699,0.16424,0.193,-0.1111,-0.1362,0.012965,-0.032552,-0.024793,0.085058,0.087391,-0.0022265,-0.087653,-0.15374,-0.21488,-0.027292,0.15824,0.029971,0.11107,0.10674,0.07953,0.18708,0.020045,-0.01691,0.13076,0.096135,-0.0485,0.00123,0.078239,0.17817,0.14971,0.0605,-0.03333,0.20646,0.032552,0.069882,-0.078255,-0.050723,0.016969,-0.048034,-0.078676,-0.032267,0.0099716,-0.035361,-0.020275,-0.021806,0.10498,0.13265,-0.12481,0.21889,0.055543,0.081404,0.024626,-0.063399,0.048698,-0.1412,0.12374,0.21674,-0.0526,-0.022544,-0.19456,0.016168,0.017178,0.0068069,0.096504,-0.057356,0.22054,0.073416,-0.064631,0.076742,-0.0029586,0.021593,0.0069252,-0.019697,0.029776,0.024885,-0.038684,0.12346,0.13387,0.024919,0.015473,0.063203,-0.035107,-0.059885,-0.1325,0.042596,-0.023355,0.10209,0.047377,-0.085623,-0.052286,0.10333,0.10552,0.1175,0.00091874
0.27217,-0.024186,-0.019379,0.048842,0.042769,-0.1902,0.13572,-0.11456,-0.063733,-0.091355,0.031385,-0.019707,0.023925,0.047415,-0.084072,0.067764,-0.098489,-0.023333,-0.038867,0.10806,0.042395,-0.091231,0.074521,0.10362,0.12741,0.034554,-0.031188,-0.042441,-0.10532,0.097575,-0.037045,0.089168,0.1213,-0.025271,-0.029622,0.15077,-0.0058389,0.26089,-0.17568,0.15812,-0.051467,0.12736,-0.17607,-0.11049,0.014072,0.065339,-0.037198,-0.14654,-0.056291,-0.1397,-0.064144,0.19072,-0.045001,-0.1845,0.10315,-0.17214,0.083869,-0.053718,-0.14419,-0.18013,-0.1068,-0.003762,-0.028268,0.081154,0.013586,0.083439,-0.0028514,0.001876,-0.047083,-0.10533,-0.024547,0.0082667,0.055314,0.11546,-0.068645,0.041585,-0.058224,0.045666,0.24381,-0.023114,0.065638,-0.041593,0.042308,-0.022167,-0.012704,0.027469,-0.075371,-0.093827,-0.10898,-0.073015,-0.2092,0.032354,0.027316,0.00037358,0.21405,0.010336,0.061721,-0.016815,-0.012231,0.050297,0.13773,-0.17959,-0.041603,-0.01042,-0.1154,0.18012,-0.052287,0.11899,-0.097649,-0.0053303,0.12694,0.05206,-0.017173,0.085356,0.18689,-0.15477,0.035289,-0.055045,-0.0077229,0.10922,-0.12073,0.12987,0.02594,-0.00030473,0.038938,-0.10713,-0.25957,-0.1636,-0.14847,-0.0073557,-0.12323,-0.27605,0.16151,-0.037634,0.063545,0.088263,0.18685,-0.18341,0.056865,0.02193,-0.10169,0.031698,0.036147,0.084639,0.074484,0.064439,-0.11583,-0.024581,-0.19193,0.0021759,0.019254,0.16764,0.15715,0.045446,-0.0030954,-0.020922,-0.058385,0.060537,0.025541,-0.10851,0.039328,0.018504,0.061083,-0.0020222,0.14936,-0.044486,-0.00013213,-0.086474,0.097612,-0.16061,-0.09136,-0.13137,-0.15754,-0.13804,-0.055137,-0.23039,-0.11378,-0.10763,-0.31451,-0.18194,-0.028757,-0.37931,-0.003872,-0.20829,-0.11163,-0.1177,-0.09338,0.0053573,-0.17756,-0.10759,0.085245,0.14007,0.16747,0.29709,0.070106,0.0041594,-0.10726,-0.088192,0.15601,0.0069369,-0.089662,-0.27129,-0.23526,-0.10584,-0.15819,-0.20379,-0.044721,-0.2327,-0.22537,0.03347,-0.1506,-0.093834,-0.074691,-0.49706,-0.17765,-0.14896,-0.33406,-0.12511,0.0097558,0.089296,0.1522,0.074234,-0.12354,0.22386,-0.17901,-0.10971,0.041989,-0.013477,-0.13504,-0.085244,-0.2019,-0.29979,-0.19552,-0.16038,-0.40315,-0.27808,-0.061969,-0.2237,-0.40861,-0.37374,-0.066228,-0.37085,-0.15558,-0.19648,-0.13276,-0.27178,-0.0080083,-0.06182,0.057234,0.01422,0.094113,0.19447,0.12836,-0.083317,0.18397,-0.19657,-0.15161,-0.24279,0.036768,0.011798,0.013968,-0.091875,-0.24237,-0.046753,0.17126,-0.25548,-0.223,-0.58554,-0.5247,-0.53849,-0.28578,-0.24441,-0.30829,-0.21205,-0.021389,0.026925,0.058814,-0.041823,0.049118,0.018322,-0.0044283,-0.048147,-0.21692,-0.18314,0.023957,-0.13462,0.18955,0.18363,-0.020291,-0.16917,0.07881,0.30254,0.045625,-0.26276,-0.34992,-0.57663,-0.38215,-0.50311,-0.32255,-0.08729,-0.3181,0.14553,-0.078158,-0.048714,0.029677,-0.039091,-0.14319,-0.055074,0.034192,0.00037894,0.0049301,-0.032712,-0.053236,0.16206,0.05314,0.23666,0.015382,0.071201,0.013682,0.20894,0.056726,-0.16327,-0.38496,-0.24654,-0.28865,-0.4783,-0.51251,-0.22383,-0.11118,0.0054213,0.0082322,-0.11595,0.22063,-0.14339,-0.0016769,0.010687,0.024013,0.16518,0.0056463,-0.057771,0.032123,0.17332,0.19499,0.04479,-0.086284,-0.024277,-0.079885,-0.083189,-0.13368,-0.11329,-0.0057185,0.14748,-0.12193,-0.33519,-0.19635,-0.016033,-0.12155,-0.043771,-0.13395,-0.075195,-0.035353,0.08121,0.015485,-0.040705,-0.09788,-0.067782,-0.087323,0.055389,0.12356,0.0086869,0.067719,0.088678,0.17874,-0.010752,-0.15565,-0.21185,0.0098107,-0.0066553,0.14053,-0.12072,-0.031776,0.066099,-0.27336,0.046595,-0.047477,-0.12433,-0.096559,-0.14551,0.021508,0.10942,-0.086062,-0.11351,0.0292,0.17588,0.1002,-0.055917,0.11764,0.042387,0.16949,-0.12575,-0.11986,-0.13398,-0.070664,0.074401,0.16834,0.11442,-0.002606,-0.03308,0.12677,-0.18763,-0.15436,-0.16455,-0.14357,-0.22355,-0.2115,-0.2574,-0.15853,0.032104,-0.0059506,0.16375,-0.016183,0.023564,-0.034357,0.10838,-0.034369,0.085743,-0.022698,-0.043491,0.059858,-0.022879,0.079669,0.16172,-0.052569,0.086859,-0.11249,0.12563,0.1492,0.031165,-0.2441,-0.30427,-0.45616,-0.35264,-0.32537,-0.09564,0.039049,0.0096754,0.062619,-0.020737,-0.0046128,0.086541,0.14472,0.040955,0.00032892,-0.06342,-0.12425,0.06191,-0.072605,0.086762,0.089953,0.15519,0.14016,-0.054405,-0.18946,0.28152,0.27338,-0.17875,-0.20242,-0.4146,-0.34478,-0.3355,-0.43652,-0.18264,-0.037958,-0.019479,0.14435,-0.031266,0.055062,0.25965,0.098535,-0.061914,-0.059247,-0.0085182,0.044257,0.12997,0.02105,-0.034719,0.26965,0.33328,0.22946,-0.030367,0.11596,-0.020265,-0.056153,-0.20572,-0.30971,-0.31574,-0.13022,-0.24463,-0.18402,-0.1064,0.026775,0.12566,0.058722,0.11033,-0.035542,-0.057485,0.0022231,-0.17141,-0.25148,-0.078437,0.1032,0.23387,0.21268,0.18038,0.095942,-0.005626,-0.01079,0.11304,-0.060881,-0.0091842,-0.072994,-0.24994,-0.21306,-0.22799,-0.12734,-0.0080741,-0.019449,-0.040909,0.14449,-0.047439,0.13496,-0.16046,0.044343,0.10454,-0.03846,-0.30024,-0.30837,-0.23369,0.094141,0.11655,0.053818,0.1821,-0.1929,-0.076449,-0.33169,-0.15551,-0.11307,-0.1498,-0.21856,-0.13627,-0.029012,-0.11567,-0.051911,-0.12235,-0.050781,0.17626,0.057654,-0.072209,-0.068362,-0.042215,0.0195,0.11031,-0.095688,-0.0011123,-0.1071,-0.18122,0.012787,0.062508,-0.13343,-0.20235,-0.37398,-0.25901,-0.15482,-0.21299,-0.29948,-0.30443,-0.37861,-0.032423,-0.095758,0.013819,0.047104,0.01553,0.14085,-0.058909,0.052653,-0.0093881,0.012746,0.12168,-0.037055,0.022104,0.080538,0.0023438,-0.14519,-0.13254,-0.23176,0.031619,-0.046272,-0.19792,-0.30549,-0.27647,-0.053887,-0.12687,-0.12649,-0.22713,-0.47017,-0.13954,-0.20118,0.095159,0.033532,0.17719,0.082495,0.10968,0.055976,0.043172,-0.076551,-0.23662,0.17581,-0.017016,0.11738,0.085679,-0.12011,-0.16835,-0.21065,-0.25591,-0.06779,-0.23158,-0.095461,-0.0046893,-0.10042,0.12351,-0.18215,-0.41817,-0.14039,-0.18889,-0.18338,0.087772,0.28559,0.088475,0.23095,0.025531,0.2154,0.082756,0.10766,0.029071,-0.11445,0.068795,0.067417,-0.11785,-0.10871,-0.012342,-0.22402,-0.39442,-0.081435,-0.10836,-0.19647,-0.027498,-0.21134,-0.0032253,-0.22263,-0.27154,-0.18161,-0.11513,-0.018764,0.22699,0.36735,0.24599,0.27421,0.055026,0.038579,-0.048088,0.020078,-0.013056,-0.039483,-0.017548,-0.061894,0.14835,-0.1667,-0.037743,-0.21269,-0.063853,-0.14573,-0.094666,-0.15185,0.054847,0.040623,-0.056764,0.010118,-0.11843,-0.14901,0.10771,0.14591,0.35777,0.18725,0.18587,-0.011794,0.23617,0.0061002,-0.054359,0.20328,0.066996,0.034046,-0.0073822,0.13783,0.074018,-0.075734,-0.12481,0.0021201,-0.07276,0.033951,-0.26984,0.034058,-0.0079338,0.081652,-0.15514,0.084661,-0.0081642,0.081415,0.071426,0.13584,0.10051,0.066085,0.022995,-0.0017275,-0.16786,0.065509,-0.040514,-0.085866,0.067478,-0.039377,0.0085255,-0.039416,0.10918,0.088322,0.05048,0.088867,0.11636,-0.18163,-0.033113,-0.061284,-0.0059449,0.16998,0.14278,-0.031149,0.11148,0.17851,0.076092,0.073251,-0.058845,-0.055326,-0.063065,0.064277,-0.039966,-0.21022,-0.0056341,0.034257,-0.027214,-0.028899,-0.21212,-0.09705,-0.05655,0.056629,0.011979,-0.091811,-0.022217,0.059286,-0.01359,-0.019216,0.048237,-0.032966,-0.0062311,0.17814,0.18254,-0.076913,0.016844,0.043715,-0.24265,-0.12194,0.024157,-0.051136,0.08269,-0.076269,-0.12098,-0.088809,-0.16103
-0.13193,-0.21077,-0.050138,0.092852,0.12047,-0.11101,0.10648,-0.13851,0.088417,0.021129,-0.032126,-0.16058,0.066354,0.042768,0.089041,0.17172,0.086579,-0.10908,-0.014269,0.077311,0.031897,-0.0064293,-0.20793,-0.18239,0.051783,0.10209,-0.026136,-0.066741,-0.10758,-0.20848,-0.080896,0.070587,-0.007729,-0.052381,-0.051745,-0.097949,-0.062776,0.036258,0.068899,0.070608,-0.061641,0.040973,-0.064315,0.14932,0.19058,0.0014155,0.094097,0.037521,-0.044537,0.017946,-0.059952,0.023107,-0.079633,-0.22647,0.077456,-0.02493,-0.021346,0.033206,-0.028156,0.20131,0.11598,-0.10698,0.061259,-0.058597,0.15759,0.12586,-0.027482,0.11964,0.033928,-0.014392,-0.041515,-0.1785,-0.10616,-0.13258,0.091678,-0.19412,-0.0064091,-0.082329,0.093797,0.071369,-0.21948,0.15148,-0.1363,-0.054834,0.015402,-0.12778,-0.026168,-0.0055433,-0.075564,-0.08617,-0.083962,0.12026,-0.063632,0.12335,0.052277,-0.088984,-0.066827,0.0071466,-0.15906,-0.19861,-0.11104,-0.15245,-0.013516,-0.03731,-0.16184,-0.051245,-0.050505,-0.083625,0.028,-0.16209,0.015095,0.05559,-0.033584,-0.02176,0.062709,0.11917,0.14375,0.04906,-0.12448,-0.11466,-0.18615,-0.35814,-0.19866,-0.24965,-0.28849,-0.21542,-0.32395,-0.072639,-0.068597,-0.055957,-0.12344,-0.15586,-0.15665,0.030737,-0.16674,0.099868,-0.17241,0.13474,-0.079699,0.0072427,-0.014421,0.10923,-0.024465,0.056362,-0.062486,0.014868,-0.095427,-0.081017,-0.41462,-0.4027,-0.16124,-0.2625,-0.33158,-0.38182,-0.3364,-0.43847,-0.26977,0.086851,0.26989,0.15106,0.132,0.081093,0.088104,0.15373,0.055568,0.02485,0.0062284,-0.030136,-0.1807,-0.027991,-0.040018,-0.11567,-0.14744,0.060545,-0.22882,-0.3214,-0.36915,-0.23752,0.013506,-0.12198,-0.028853,0.063112,-0.024308,-0.15425,-0.34347,-0.094453,0.028055,0.20172,0.11811,0.18914,0.40679,0.12896,0.31862,0.15091,-0.11874,0.019322,0.087759,0.1095,-0.045871,-0.078386,0.15678,-0.0072851,-0.050548,-0.072146,-0.17587,-0.040547,0.1065,0.35903,0.12132,0.014051,-0.065504,-0.20998,0.035114,0.032098,0.33494,0.12562,0.17133,0.1852,0.25955,0.070441,0.23918,0.11922,-0.011839,-0.046682,0.0011562,-0.019305,0.086814,-0.066683,-0.040084,-0.0064189,0.087513,-0.042148,0.37793,0.16857,0.14968,0.27773,0.20661,-0.1042,-0.26125,-0.20456,-0.24066,0.071051,0.35692,0.19461,0.20642,-0.021766,-0.11915,0.17024,0.25615,0.22846,0.19308,0.090439,0.10597,0.23018,-0.011479,0.074091,0.14415,0.056565,0.082922,0.11131,-0.081303,0.20811,0.31959,0.63639,0.42516,0.4214,-0.1598,-0.24788,-0.20839,0.12387,0.095203,0.14054,0.12788,0.12448,0.25018,0.43985,0.32021,0.32122,0.15402,-0.098794,-0.19607,0.065274,0.099206,0.089862,0.15711,0.15304,0.41709,0.54947,0.34664,0.6063,0.46143,0.91918,0.79174,0.55092,-0.10657,-0.30756,-0.13405,-0.044279,0.20137,-0.013662,0.053405,0.12088,0.010139,0.10858,0.34755,0.21327,0.010906,-0.028743,-0.12222,0.013098,0.16737,0.077743,0.12193,0.18701,0.2884,0.26163,0.50269,0.48188,0.57401,0.75044,0.67139,0.0026438,-0.48112,-0.76485,-0.25899,0.11045,0.18897,-0.021235,-0.087971,-0.18353,-0.1238,0.14825,0.081154,0.16633,0.02203,0.15601,-0.13628,0.11124,0.10832,0.08964,0.086259,0.049067,0.48732,0.54505,0.59899,0.34439,0.63665,0.37939,0.2272,-0.33854,-0.70498,-0.86729,-0.44848,-0.043277,-0.1113,-0.49755,-0.23114,-0.46452,-0.151,-0.14294,-0.14508,0.096018,0.0034477,0.070958,0.057019,0.13205,0.30616,0.082976,-0.082349,0.22556,0.35597,0.39642,0.38913,0.35482,0.25578,0.14752,-0.24709,-0.52605,-0.57501,-0.80618,-0.68309,-0.42118,-0.39649,-0.75566,-0.54821,-0.32706,-0.19785,-0.035726,-0.081765,-0.047751,0.040424,-0.044036,0.047728,0.032043,0.057931,0.15181,-0.11138,0.10647,0.20287,0.35038,0.23038,0.11205,0.24353,-0.28345,-0.73675,-0.67639,-0.65368,-0.48967,-0.44357,-0.26301,-0.48925,-0.52761,-0.55215,-0.54517,-0.28446,0.12071,0.096034,0.0096645,0.0052913,0.057153,-0.0044723,-0.14419,0.14224,-0.000616,-0.14045,0.1285,0.081861,0.28287,0.043681,0.16025,-0.11759,-0.69446,-0.58853,-1.007,-0.65123,-0.53179,-0.51356,-0.41958,-0.62085,-0.47671,-0.3913,-0.44236,-0.083522,0.21085,0.20104,0.19511,0.0014188,0.046351,-0.033008,-0.053024,0.067605,0.14867,-0.014476,0.013801,0.058119,-0.073506,-0.030172,-0.16487,-0.16745,-0.64673,-0.90574,-0.66699,-0.34674,-0.18088,-0.52659,-0.34313,-0.51585,0.016082,-0.13707,-0.027489,-0.13631,0.20332,0.12384,0.078171,0.099622,0.062802,-0.2174,-0.064364,0.0087382,0.18426,-0.026023,0.21899,0.02028,-0.50981,-0.42639,-0.48589,-0.41082,-0.45052,-0.61431,-0.45122,-0.41352,-0.44378,-0.35591,-0.24159,-0.0013091,0.15923,0.011021,0.33462,-0.091064,0.090823,-0.06717,-0.068537,-0.17678,0.010403,-0.047418,0.011006,0.019084,-0.086725,-0.00082446,-0.13832,-0.21601,-0.27696,-0.34418,-0.46305,-0.6219,-0.64202,-0.46673,-0.48028,-0.26308,-0.29111,-0.25881,0.07472,0.17044,0.14462,0.28017,0.17905,0.10781,-0.14241,-0.0331,0.050954,-0.12273,0.10751,0.11972,-0.11192,0.005078,-0.12242,0.0065642,-0.055119,-0.073141,-0.055847,-0.08643,-0.094397,-0.42967,-0.2989,-0.27264,-0.1975,-0.034163,0.043721,-0.17723,-0.057389,0.16364,-0.083565,-0.092741,0.11793,-0.0095585,0.04903,-0.044632,0.1176,0.021429,0.2091,-4.7992e-05,0.08222,0.036847,-0.1041,-0.059965,-0.045644,0.071087,0.18026,0.14188,0.035151,0.065539,0.2767,0.14312,0.083916,-0.23069,-0.31006,-0.21399,0.08423,0.012285,-0.044315,-0.12051,-0.074637,-0.021117,0.014567,0.085686,-0.015992,-0.025982,-0.034924,0.048886,-0.083666,-0.026785,-0.013936,-0.12172,-0.15839,0.06294,0.15519,0.19693,0.25137,0.22159,0.33225,0.20554,0.02342,0.035304,-0.25774,-0.09012,-0.15314,-0.0033645,0.015121,-0.028494,-0.022584,0.031234,0.10597,0.095967,-0.11736,-0.043841,0.072494,0.018325,0.10033,0.10065,-0.064406,0.011198,0.16078,0.19594,0.14714,0.36745,0.34384,0.3046,0.2556,0.18379,0.20419,-0.10524,-0.15983,-0.0093828,0.054071,0.31792,0.22709,0.14239,0.009044,0.019491,-0.015478,-0.15216,-0.0022105,-0.007573,0.14142,-0.089696,0.15362,0.022917,-0.0013811,-0.04977,0.0058497,0.0080346,0.027185,0.16018,0.27863,0.32816,0.12799,0.075233,-0.11362,-0.01261,-0.029987,0.18322,0.2271,0.28731,0.2178,-0.067729,-0.059817,0.20192,-0.12861,-0.13565,0.063811,-0.023826,0.019901,0.095698,-0.13242,0.04229,0.032358,-0.081168,0.0016266,0.10466,-0.044654,0.15543,-0.067742,0.027796,0.038489,0.049209,0.23594,0.28479,0.16759,0.20306,0.14609,0.29728,0.26527,0.042849,-0.033655,0.036602,0.082839,0.086549,0.10532,-0.021583,-0.095002,0.029302,0.16897,-0.056151,-0.095897,0.14325,-0.043394,0.029949,0.10177,0.1247,-0.021443,-0.21201,0.0059193,0.24381,0.089294,0.12177,0.17136,0.15734,0.26963,0.1413,0.070367,-0.071171,0.10458,-0.0073999,-0.044614,0.036828,0.01228,0.077135,-0.11351,-0.015748,-0.11663,0.038282,-0.032112,0.064036,-0.023466,0.17163,-0.050395,-0.014587,-0.08345,-0.21709,-0.029166,0.19078,-0.089865,-0.024285,-0.089785,-0.14131,-0.12394,0.093187,0.072822,0.061258,-0.017081,0.074262,-0.017052,-0.10116,-0.14945,0.05669,-0.056185,-0.089515,-0.04217,0.13375,-0.043843,0.0081768,-0.016314,-0.001703,-0.12371,-0.18929,-0.042362,0.20448,0.0068063,0.013979,-0.071068,0.023055,0.071287,0.015359,-0.20699,0.026441,0.13529,-0.076661,0.13768,0.11409,0.20743,-0.086705,0.16426,0.00092516,0.037391
0.29848,-0.088974,0.1632,-0.018209,0.0076799,-0.11435,0.024142,0.0009423,-0.19032,0.12164,0.021939,-0.0032803,-0.15089,-0.053228,0.0016723,-0.043654,0.10444,0.01963,0.056615,0.10935,0.13417,0.13331,-0.084954,0.17496,-0.16168,-0.13478,-0.043695,0.025397,0.17404,0.063158,-0.17107,0.073582,-0.062731,-0.034309,0.16265,0.080678,0.062698,0.0090294,-0.17808,-0.11991,0.054932,-0.04076,-0.058864,0.1316,0.020721,0.12027,-0.11694,0.030616,-0.052235,-0.061093,0.030654,0.044118,-0.056736,-0.16727,0.14927,0.024061,-0.20233,-0.10341,0.078018,-0.02037,0.21823,-0.094084,0.097754,0.11139,0.039978,0.025203,0.059497,0.042504,-0.12132,-0.09609,-0.12075,0.016535,-0.031099,0.0045717,0.10301,-0.11223,0.061626,-0.12556,-0.1515,-0.091949,0.029045,0.034095,-0.046482,0.16501,0.18852,0.0187,0.025529,-0.035573,-0.068765,-0.073367,-0.034506,-0.01463,0.050086,0.060794,-0.10152,-0.28121,0.036773,0.10119,0.048247,-0.07267,-0.20342,0.051651,-0.10694,0.022904,0.14695,0.1254,-0.040859,0.029265,-0.13525,0.01435,0.12236,-0.010383,0.0023494,-0.10235,-0.096247,0.15014,0.14929,-0.06387,0.10069,-0.09232,-0.092063,-0.19413,-0.37776,0.12361,0.091125,-0.069971,0.058591,0.161,0.090305,0.18785,-0.057816,-0.0037493,0.097702,0.21241,0.006404,0.11613,0.18031,-0.022252,0.10423,0.087875,-0.072708,0.0038678,-0.13338,0.01825,0.12367,-0.15566,-0.016001,-0.29469,-0.47464,-0.1102,0.042966,0.27969,-0.1089,0.13882,0.10281,-0.23014,0.024707,0.12736,0.24045,0.27866,0.24709,0.41844,0.36163,0.35864,-0.082582,-0.067985,0.038284,0.1012,-0.07265,0.009051,-0.064157,-0.056904,0.030715,-0.12422,-0.194,-0.16523,-0.12459,0.22194,0.068707,0.019489,-0.055932,-0.32367,-0.17528,-0.28216,0.13348,0.1475,0.36293,0.53395,0.38365,0.30642,0.37298,0.26762,0.1265,0.19557,0.13326,0.051876,-0.037316,-0.16386,0.054664,-0.076016,-0.0044735,-0.066498,-0.1026,-0.20784,-0.11326,-0.079715,0.24785,0.011211,-0.17746,-0.21163,-0.037875,0.12142,0.41282,0.43532,0.56714,0.4582,0.56932,0.18436,0.07065,0.13533,0.097299,0.19387,-0.034309,0.15722,0.02748,-0.013756,0.13156,-0.041296,-0.19976,-0.10123,-0.31695,0.0009097,0.047366,0.07349,0.11753,0.22184,0.086104,-0.15155,-0.04852,-0.07087,0.19452,0.16191,0.21176,0.034765,-0.21454,-0.29736,-0.010949,-0.018282,0.099949,0.031858,-0.019832,-0.21366,-0.041949,0.16387,-0.053762,-0.15371,0.035826,-0.21308,0.11253,0.1137,0.15145,0.1434,0.23557,0.26355,-0.082161,-0.3832,-0.62563,-0.65931,-0.60803,-0.70138,-0.61644,-0.71601,-0.53107,-0.6008,-0.6326,-0.34911,-0.097164,0.0080775,-0.11952,0.15757,0.30416,0.046619,0.060492,0.012932,0.065848,-0.022936,0.13357,0.13329,0.017467,0.099574,0.23208,-0.086969,-0.20307,-0.48536,-0.83872,-0.95592,-1.0089,-1.1519,-1.0342,-0.99296,-0.91511,-0.63962,-0.7781,-0.51312,-0.27693,-0.053599,-0.11368,0.12461,0.12064,-0.23822,-0.19762,0.046943,0.027891,0.038558,-0.039547,0.046679,0.075246,0.16362,0.12718,-0.11233,-0.025302,-0.2399,-0.19926,-0.48992,-0.52147,-0.69873,-0.51119,-0.80597,-0.90286,-0.54571,-0.44218,-0.37036,-0.23628,-0.26635,0.089708,0.062937,-0.068173,-0.044705,-0.16056,0.0095821,0.14889,0.029904,0.030607,-0.0045257,-0.11091,-0.12288,0.1126,0.017739,0.16183,0.055696,0.10337,0.078975,-0.095625,-0.38717,-0.3916,-0.37649,-0.39929,-0.43581,-0.40295,-0.22098,-0.32004,-0.080901,0.10584,-0.00019731,-0.019072,0.1838,0.018438,0.068788,0.10306,0.043049,0.061559,0.065198,-0.138,-0.033926,0.21579,0.27859,0.41828,0.2384,0.039821,-0.057024,-0.15468,-0.029591,-0.017817,-0.058527,-0.21678,-0.33705,-0.34695,-0.24103,-0.18359,0.063871,0.045901,0.054246,-0.11187,-0.21746,0.11379,0.077263,0.069967,-0.02678,-0.046038,-0.10853,-0.0040732,0.22051,0.21103,0.042873,0.23021,-0.066799,-0.050909,-0.13742,-0.1272,-0.049088,-0.2224,0.24896,-0.043661,-0.082227,-0.27628,-0.22365,0.029909,-0.093707,-0.036182,0.00053545,-0.051486,-0.25583,0.081601,-0.11188,0.086858,-0.0074523,-0.35434,0.13327,0.026745,0.021762,0.15334,-0.034776,-0.0055412,-0.17177,-0.03309,-0.042369,-0.09013,-0.16723,0.012584,-0.077217,0.15459,0.071095,-0.11296,-0.062147,-0.077547,0.02479,-0.044798,-0.031403,-0.076531,0.027462,0.039406,-0.060528,-0.072638,-0.22051,-0.34665,-0.35803,-0.25436,-0.11311,0.1462,-0.085934,0.21803,-0.18908,-0.22576,0.0082218,-0.20065,-0.016843,0.037882,0.037556,0.08222,-0.064177,-0.19642,0.038454,-0.03262,0.080544,0.16659,0.14947,-0.11122,-0.1725,-0.07123,-0.17396,-0.12753,-0.098808,-0.50202,-0.28718,-0.32757,-0.39834,-0.29385,-0.26588,-0.32676,-0.34699,-0.5118,-0.33859,-0.26169,-0.16387,0.0055814,0.10199,0.042135,0.14237,0.071763,-0.033459,0.08469,0.043174,0.16673,0.042424,-0.050681,-0.092526,0.0046577,-0.038775,0.012236,-0.17194,-0.46135,-0.30181,-0.34589,-0.51908,-0.47944,-0.39479,-0.31129,-0.53236,-0.56757,-0.44205,-0.21281,0.03069,-0.033184,-0.011257,0.13053,-0.084163,-0.077086,0.14133,0.055716,-0.11204,0.12686,-0.060878,-0.15437,0.060929,0.020308,-0.064084,0.11651,-0.02942,-0.1946,-0.49341,-0.25289,-0.27966,-0.25605,-0.46519,-0.24016,-0.38407,-0.36145,-0.38493,-0.16631,0.19843,-0.085635,0.22476,0.089665,0.22103,-0.012491,0.028358,0.15837,0.018405,-0.05348,0.059912,-0.096471,0.10671,0.068947,-0.22756,0.10102,-0.049713,-0.21106,-0.19755,-0.20214,-0.12246,-0.051602,0.0099734,0.087828,-0.094771,-0.052644,-0.17238,-0.066403,-0.0092371,-0.017591,0.059558,0.044713,0.13519,0.13885,0.17241,-0.10259,0.051677,0.14592,-0.092906,-0.039941,0.15867,-0.011139,0.043304,0.061132,0.039606,0.04105,-0.0086239,0.070779,0.021579,-0.030403,0.08166,0.27641,0.018404,0.15969,0.031637,-0.029131,0.29154,0.081762,-0.013996,0.032454,0.08383,0.23631,0.062214,-0.073808,-0.10887,0.074193,0.080135,-0.21331,0.13297,0.16242,-0.10918,0.057387,-0.031405,-0.16467,-0.10068,-0.25092,-0.072103,0.063351,0.275,0.20738,0.22043,-0.085439,0.06933,0.20233,0.12806,-0.15226,0.025243,0.10297,0.1631,0.1328,0.10354,-0.019197,-0.063867,0.042625,0.061387,-0.088173,-0.021636,-0.07548,0.012038,-0.16683,0.10034,0.067944,-0.085989,0.0802,-0.043716,0.014613,-0.080998,-0.0019317,-0.10534,0.0069867,0.083907,0.20823,-0.092742,0.12053,-0.02685,0.035301,0.081828,0.021305,0.18261,0.052747,0.07816,-0.099348,0.020914,-0.071124,0.080422,-0.19216,0.051132,-0.1221,0.0065663,0.092395,-0.12184,-0.060762,0.24161,-0.14535,0.014802,0.023191,0.017841,0.24614,0.11036,-0.060431,0.023774,-0.12627,-0.067263,0.077111,0.040147,-0.011367,0.15096,-0.087524,0.047419,0.14668,-0.022276,-0.13345,0.12583,0.075193,0.034948,0.022474,0.034674,-0.19219,-0.14372,0.10827,0.043236,-0.02037,-0.14548,-0.076433,0.026246,0.13656,0.044637,0.12317,0.016813,-0.024035,-0.13017,-0.0082922,-0.07034,0.01404,-0.026671,0.070322,-0.046952,-0.044941,-0.023019,-0.19346,0.0035992,-0.0063341,-0.10123,0.092399,0.048149,-0.039578,-0.11108,-0.15838,-0.08351,-0.040794,0.057785,0.12815,-0.123,-0.06936,0.044798,-0.18546,0.028454,0.080415,0.035654,-0.082194,0.18492,0.035015,-0.089005,-0.14297,0.080453,0.097156,0.032345,0.11595,-0.030229,-0.12915,-0.0081056,0.1091,-0.082211,0.18492,0.02928,-0.15139,-0.026216,-0.10156,-0.16557,-0.021089,-0.023646,0.0070594,0.18512,0.034303,0.16987,0.007064,-0.031311,0.0019258,0.01622,-0.018429,0.018918,-0.12021,0.0050708,-0.048977,-0.012951
0.071343,0.13426,-0.088771,-0.015918,-0.066879,-0.044559,-0.078967,-0.042323,-0.021928,-0.026315,-0.25764,0.081641,-0.058966,-0.021791,-0.16327,-0.051628,0.03092,0.15491,0.085194,-0.092669,-0.13575,0.12917,0.0555,-0.089035,0.10451,-0.15339,-0.056597,0.10891,0.21504,-0.00032668,0.30005,-0.21447,0.051337,0.11675,0.1164,0.03219,-0.048039,0.16157,-0.21155,0.124,0.10073,-0.079527,-0.16728,-0.042794,0.20022,-0.048074,0.025703,0.10452,-0.045439,-0.036591,0.13056,0.014401,0.038793,-0.1012,0.067555,0.060813,0.023708,0.024149,0.080687,-0.14838,-0.079226,-0.048906,0.0354,-0.094773,0.042246,-0.082253,0.21433,-0.054519,0.046629,0.10205,-0.013786,0.30033,0.10909,0.023758,-0.033162,0.10735,0.044019,0.075254,0.016432,-0.069157,0.22965,0.13033,-0.0076027,0.0036478,0.0034288,-0.042939,0.12032,0.069342,-0.1382,0.16515,0.01456,-0.026781,0.049521,0.10327,0.12761,0.048953,0.23402,0.29939,0.45602,0.2752,0.26971,0.30916,0.18316,0.062854,-0.076114,0.021241,0.011764,0.032053,0.11856,0.0015973,0.03928,-0.022984,-0.14431,0.041415,-0.16897,-0.070664,-0.053908,0.077922,-0.065635,-0.11499,-0.099791,-0.045571,0.14758,0.12631,0.19036,0.33008,0.36143,0.44679,0.38709,0.37831,0.11121,0.24349,0.084279,0.026474,-0.050399,-0.081364,-0.00063532,-0.19959,-0.0059606,-0.019984,-0.012545,-0.15722,0.12843,0.075775,0.13924,0.21212,-0.011891,-0.0038932,-0.14587,-0.2004,-0.080382,-0.037447,-0.025215,0.13614,0.11901,0.23754,0.18993,0.27232,0.23862,0.23204,0.24158,0.18213,-0.033711,-0.012042,0.088452,-0.1177,0.012165,-0.035791,0.10917,0.16806,-0.051556,-0.22042,0.12868,0.084262,-0.051722,0.026799,0.0019208,-0.063985,0.087942,0.03241,0.16008,-0.069212,-0.18728,0.032334,-0.28923,-0.26879,-0.045143,-0.096664,-0.044172,0.21574,0.2235,-0.17491,-0.17843,-0.11989,-0.070042,-0.063157,0.17611,0.075353,-0.11373,-0.18781,0.10253,0.082563,-0.14644,0.060402,-0.25875,0.051883,0.10163,0.28063,0.28532,0.14791,-0.17239,-0.2508,-0.10955,0.024842,0.012707,-0.085295,0.02462,-0.0040714,0.14969,-0.15165,0.076326,0.042462,-0.090819,-0.17962,-0.087983,-0.10203,-0.0091473,-0.0061931,0.16272,0.15223,-0.21936,-0.088216,-0.069207,0.1287,0.43042,0.46641,0.23487,-0.16348,-0.26544,-0.30192,-0.2131,-0.032394,0.0064435,-0.14642,-0.028408,0.17179,-0.14533,-0.088485,-0.032589,0.037767,0.094169,-0.079813,0.15231,-0.11769,0.02308,0.077862,-0.10191,0.12502,0.01054,-0.064736,-0.41343,-0.039378,0.29624,0.30229,0.57311,0.11272,0.13668,-0.034991,-0.29966,-0.086966,0.057494,0.085229,0.11628,0.028113,-0.31284,0.0053673,-0.10829,-0.0382,-0.1604,0.10432,-0.023225,0.095712,0.22777,0.18672,0.057098,0.10336,-0.0045744,-0.071492,-0.082755,-0.1169,0.16138,0.61215,0.40653,0.41215,0.28649,0.22499,0.13058,0.30945,0.022984,0.15492,-0.02253,-0.19485,-0.29457,-0.23208,-0.012173,-0.15146,-0.14068,0.14174,0.013212,-0.043734,-0.044653,0.090619,-0.11131,-0.097159,-0.20389,-0.23839,-0.40491,-0.49991,-0.22843,0.0013062,0.22958,0.68509,0.71851,0.36582,0.31893,0.26327,0.10132,0.059152,-0.049429,-0.45473,-0.37213,-0.12462,0.029083,-0.1321,-0.012172,0.023964,-0.037283,0.040533,0.12423,0.16719,-0.059041,-0.23937,-0.34385,-0.34035,-0.4673,-0.61085,-0.63545,-0.37016,0.16831,0.62651,0.73431,0.44202,0.27606,0.21013,0.12206,0.126,0.17557,-0.14975,-0.485,-0.24412,0.11789,0.10795,-0.0038344,0.098436,0.032884,0.11831,-0.11241,0.005671,-0.02052,-0.2609,-0.23982,-0.53554,-0.62259,-0.79689,-0.83657,-1.1302,-0.30974,0.34382,0.47474,0.21651,0.15809,0.15498,0.42576,0.18541,0.026369,-0.24596,-0.22919,-0.010148,0.17157,0.024999,-0.049037,0.069713,-0.10145,-0.10183,0.023752,-0.12897,-0.18521,-0.30343,-0.4361,-0.67848,-0.60661,-0.67856,-0.74011,-0.73868,-0.49787,0.056056,0.029692,0.027948,0.12597,0.025386,0.25096,0.27479,0.28187,-0.014507,0.046492,0.061575,-0.058285,-0.1388,0.10835,-0.011638,-0.06648,0.13859,-0.11748,0.098906,-0.18028,-0.21192,-0.45447,-0.37113,-0.31217,-0.5275,-0.56279,-0.69406,-0.43042,-0.41929,-0.36653,0.080742,0.23854,0.10213,0.16094,0.13665,0.28599,0.25072,0.012009,-0.030834,-0.047088,0.025935,0.11651,-0.12476,-0.091039,0.01189,-0.038602,-0.027443,0.15873,0.11508,-0.3972,-0.34522,-0.27383,-0.33304,-0.24501,-0.13847,-0.42536,-0.68949,-0.070774,0.1629,0.1634,0.0012321,0.19258,0.4941,0.14616,0.077393,-0.19533,-0.15104,0.074427,0.16445,0.28856,0.020261,0.049336,0.056866,-0.024691,0.11926,0.10768,-0.0594,-0.15022,-0.30069,-0.095323,-0.26419,-0.25856,-0.18173,-0.42326,-0.61649,-0.27887,0.12811,0.0036271,0.029932,0.22098,0.12425,0.048577,0.19077,-0.1311,-0.0094919,0.077499,0.15658,0.073015,0.053878,0.056159,0.063431,0.023746,0.11185,0.13167,0.053032,-0.30361,-0.0010899,-0.0041649,-0.08157,-0.037184,-0.042876,-0.27553,-0.47515,-0.27886,-0.12395,-0.059575,0.19124,0.16055,0.16909,-0.098188,-0.029371,0.034713,-0.030231,-0.019297,0.10893,-0.049405,-0.13617,-0.21438,0.098093,0.013508,0.043108,0.27282,0.29142,0.21158,0.16885,-0.0075963,0.36979,0.022726,-0.0091313,-0.21346,-0.1668,-0.028674,0.011115,-0.063821,0.047428,0.12533,0.13449,0.1236,-0.12938,-0.2371,-0.021979,-0.010257,0.042549,0.18551,0.034448,-0.10105,-0.010328,0.030296,0.11233,0.45665,0.2418,0.46042,0.37409,0.29101,0.2535,0.26009,0.40737,0.25219,0.2581,0.13189,-0.0077564,0.10413,-0.086167,0.063039,-0.035186,-0.08032,-0.20477,0.052865,-0.07242,0.10875,-0.09993,0.044697,0.068973,0.0083543,-0.14355,-0.014276,-0.096657,0.096835,0.25528,0.2059,0.015712,0.31959,0.16319,-0.027159,0.41867,0.076116,-0.0078212,-0.028999,5.1954e-05,-0.16645,-0.085345,-0.17221,-0.024712,-0.27446,0.077647,-0.15169,-0.021604,-0.048907,0.18839,0.0048708,-0.0239,0.091524,0.027577,-0.0095636,0.048908,-0.046573,0.2134,0.23862,0.19465,0.12976,0.11916,0.28892,0.25879,0.15337,0.27758,0.027627,0.22368,0.081484,-0.0038563,-0.1191,-0.11617,-0.10947,-0.20237,-0.11773,-0.035283,0.032018,-0.056708,0.036876,-0.071422,-0.042151,-0.00013057,-0.14667,0.22798,-0.061746,0.16667,0.15803,0.18662,0.051691,0.15431,0.16965,0.13344,0.12751,0.059648,0.11226,0.11431,-0.10359,0.073275,-0.12974,-0.27862,-0.2478,-0.19609,-0.0047705,0.0074152,0.075038,-0.13063,0.032057,-0.054221,-0.21495,-0.084333,0.046459,0.056631,-0.07353,0.1069,-0.014127,0.093114,0.054221,0.16045,0.069414,0.060526,0.10478,0.049397,0.15958,0.22788,-0.011521,-0.022082,0.17508,-0.19808,-0.097158,-0.16775,-0.11108,-0.028299,0.028527,0.013521,0.020635,0.093149,-0.16175,0.093246,-0.19561,-0.20851,-0.072365,0.20531,-0.016042,0.14479,0.14265,0.10875,0.16055,0.08166,0.11175,0.17858,-0.0014131,0.12319,0.047861,0.064791,0.075542,-0.069371,-0.2075,-0.075721,0.016807,0.016375,-0.12995,0.0015569,0.018435,-0.0022582,0.056233,0.080026,-0.067061,-0.036706,0.077758,0.037893,0.0666,0.10452,0.021957,0.14114,0.14222,-0.0022779,0.13089,-0.19753,0.0095311,6.6509e-05,-0.0088799,-0.025139,0.10518,0.0495,0.0596,0.11632,-0.0086347,-0.11154,0.026357,0.061979,0.073778,0.081772,-0.041722,-0.035435,0.12026,0.015074,-0.073279,0.0014265,0.17519,-0.071783,0.056168,-0.055539,-0.0019512,0.36489,0.045774,0.16164,0.040124,-0.081196,0.029487,0.018757,-0.1781,-0.12408,-0.081001,0.056761,-0.099753,0.021925,-0.1177,3.8631e-06,-0.074861,0.074097
-0.01676,-0.11767,-0.058836,0.090323,-0.15859,-0.027302,0.046215,-0.047256,0.016583,-0.030912,0.036132,0.011319,-0.19221,0.054628,-0.25182,0.030399,-0.0089434,-0.13012,-0.15215,0.0075255,-0.01038,-0.023036,-0.010599,0.054319,-0.069212,0.051646,-0.10483,-0.055115,-0.092382,0.022973,0.13963,0.011538,0.10474,0.02767,-0.01652,0.13413,0.048226,0.0051318,-0.0030163,0.12594,0.050458,0.19223,0.087393,-0.095825,0.19517,-0.078446,0.10561,0.031529,-0.033022,0.03227,0.030866,0.018051,0.074259,0.034257,-0.36547,-0.022881,0.015643,0.068342,-0.20506,-0.10306,-0.11082,0.004866,0.079756,0.10991,0.076125,0.033249,0.15043,-0.15478,0.15081,0.21604,0.15179,0.08497,0.10033,-0.10623,0.21714,-0.035034,-0.15964,-0.018198,-0.01219,0.046557,-0.027459,-0.068236,0.0013476,-0.0082777,-0.045609,-0.15944,0.050369,0.076549,-0.081865,0.061171,-0.03605,-0.0054094,0.0093038,0.11627,0.18585,0.23275,0.24342,0.23585,0.40127,0.12572,0.3214,-0.013676,0.27871,0.11314,-0.10899,-0.044761,-0.039163,-0.05622,-0.089887,-0.074077,0.066515,-0.00075974,0.067401,0.1206,-0.092368,0.071649,0.032853,-0.16231,-0.05861,0.098925,0.15357,-0.021203,-0.017754,0.33211,-0.074889,-0.050147,0.18753,0.1338,0.18758,0.17054,0.025807,0.09709,-0.03096,-0.016575,-0.052398,-0.069348,0.041136,-0.012296,-0.018211,-0.11046,-0.19724,0.006633,0.13668,0.1216,-0.14113,0.009487,-0.15681,0.012153,-0.15653,-0.11191,-0.21038,-0.1949,-0.09845,-0.14917,-0.05561,-0.064444,0.12998,0.55389,0.21569,0.074563,0.12206,0.15866,0.060281,0.0056615,-0.056698,0.028809,-0.13034,0.049624,0.12269,-0.14459,-0.0018761,-0.076556,-0.0003912,-0.24175,-0.091129,-0.13058,-0.16277,-0.22734,-0.10788,-0.21558,0.085586,0.077385,0.092492,0.24977,0.13455,-0.064548,0.12545,0.28801,0.11841,-0.0091238,0.10826,0.074802,0.20634,0.042107,0.10678,-0.050124,-0.029867,0.09632,-0.11529,-0.10931,-0.038302,-0.14659,0.0056872,-0.072265,0.071246,-0.018711,0.070074,0.05812,-0.038538,-0.031151,0.26898,0.26756,0.14802,-0.0068161,0.13954,-0.24749,-0.10222,0.18077,-0.11227,0.12978,0.29921,0.14772,-0.087045,-0.12907,-0.012456,0.037685,0.022464,-0.11999,-0.12573,0.11649,0.047727,0.09533,-0.039794,-0.017309,0.069126,0.25599,0.17805,0.24687,0.32695,0.081328,-0.12453,-0.17404,-0.34246,0.037508,-0.064824,0.081558,0.0027016,0.21227,0.37049,0.1561,0.0068077,-0.085732,0.011437,0.010987,-0.030024,-0.0078815,0.063587,-0.042791,0.043192,0.11467,0.065611,0.067416,0.063479,-0.02709,0.11013,0.062554,0.15265,-0.26828,-0.31657,-0.32285,-0.37947,-0.091818,0.023658,0.11461,0.24345,0.38391,0.32963,0.25976,0.074789,0.060531,0.21119,-0.11669,-0.064956,-0.15871,0.059897,0.054223,0.048298,0.37368,0.29977,0.30206,0.24251,0.2309,0.17065,0.2702,-0.18632,-0.66616,-0.50725,-0.30813,-0.29216,-0.005301,0.076392,0.015562,0.084839,0.45254,0.45696,0.10567,0.20204,0.0496,-0.076288,-0.024485,0.020163,0.034971,-0.02143,-0.14471,-0.074614,0.16573,0.12716,0.20909,0.20933,0.1524,0.0017486,-0.073699,-0.51518,-1.017,-0.59289,-0.4613,-0.25762,-0.29346,-0.11306,-0.1593,0.15517,0.61239,0.48641,0.1349,-0.12551,0.069474,0.044888,0.01531,0.013518,-0.059407,-0.1119,0.053096,0.24008,0.098435,-0.068153,0.095516,0.2296,0.18779,0.10962,-0.082584,-0.6044,-0.64858,-0.66621,-0.55247,-0.58971,-0.22835,-0.30814,-0.2117,0.069162,0.20334,0.47274,-0.023794,0.0025427,-0.12389,-0.11927,0.07096,-0.066604,-0.2261,-0.21726,-0.019844,0.027621,-0.3994,-0.21308,-0.0036957,0.11524,0.3797,0.23473,-0.29851,-0.54513,-0.34373,-0.29828,-0.4904,-0.64744,-0.38076,-0.2753,-0.1916,0.070482,0.33666,-0.017374,-0.084022,-0.0057609,-0.015369,0.047418,-0.11564,-0.072121,0.14481,-0.12403,-0.34273,-0.132,-0.10665,-0.25665,0.22375,0.37878,0.62203,-0.021633,-0.24542,-0.45178,-0.37891,-0.29778,-0.60404,-0.49129,-0.58504,-0.28455,-0.066922,0.07941,0.10176,0.14731,0.22874,-0.023674,0.1096,0.097643,-0.035505,-0.031281,-0.080755,0.0062667,-0.11636,-0.026529,-0.22513,-0.2196,0.27213,0.28319,0.32959,-0.008069,-0.37781,-0.56413,-0.34832,-0.52206,-0.76689,-0.53545,-0.4031,-0.37651,0.11724,0.21382,0.14483,0.0068644,0.10082,-0.095446,0.078127,-0.027214,0.0033128,0.048494,-0.10574,-0.12564,0.024966,0.24278,0.021222,-0.20208,0.17128,0.21127,0.1129,-0.29316,-0.58474,-0.57369,-0.249,-0.43774,-0.56966,-0.4225,-0.13461,-0.15636,0.0023458,0.16458,0.24565,0.28435,0.21153,-0.12439,-0.1516,-0.055076,-0.22193,0.042896,0.13297,0.07094,0.21432,0.27095,0.21496,0.28345,0.15345,0.17005,6.1039e-05,-0.25756,-0.64058,-0.29694,-0.15597,0.046493,-0.10478,0.0050066,0.14499,0.1537,0.30395,0.26163,0.17441,0.28165,0.093398,-0.050405,-0.036695,-0.095701,0.1369,-0.049775,-0.1053,-0.11572,0.32867,0.55253,0.68152,0.59376,0.68427,0.73593,0.46739,0.44849,0.017976,0.048731,0.14455,0.12123,0.41321,0.43539,0.57196,0.53556,0.28543,0.39064,0.37173,0.15974,0.17643,-0.17641,0.053885,0.15407,-0.09541,-0.062549,-0.080237,0.039474,0.18788,0.52028,0.75148,0.84573,0.85839,0.97279,1.0111,0.98735,0.44827,0.05754,0.39354,0.28706,0.39637,0.57442,0.41053,0.3598,0.38539,0.61054,0.42921,0.21302,0.16823,-0.12212,-0.10582,-0.015726,0.053184,-0.13128,-0.10721,-0.15036,0.18806,0.21916,0.34318,0.56529,0.6571,0.58822,0.7945,0.67277,0.22115,0.053198,0.15794,-0.07471,0.31188,0.08392,0.19964,0.3015,0.16116,0.38266,0.35915,0.12876,0.10144,0.019447,-0.015281,0.11785,-0.087667,-0.02431,-0.077617,-0.11377,-0.12609,-0.053416,0.14031,-0.054324,0.17774,0.070324,0.093218,0.18477,0.26168,0.0048466,0.042164,0.054677,0.02093,0.11431,0.086636,0.28601,0.36905,0.27027,0.082147,0.074072,-0.16378,0.067538,-0.1576,0.027046,0.03484,-0.30011,-0.042529,-0.18397,-0.3043,-0.22895,-0.33104,-0.081141,0.072219,-0.14595,-0.14754,0.055886,0.069817,0.055688,-0.22164,-0.19974,0.050561,0.026404,0.097358,0.055271,0.21285,0.12646,0.048463,0.12401,0.14122,-0.036468,-0.019968,0.20651,0.062486,0.026335,0.12572,0.1164,-0.20395,-0.31634,-0.37083,-0.13315,0.037002,-0.12082,0.14287,-0.19373,0.060302,0.0045861,0.041852,0.2526,0.055783,-0.044484,0.02927,0.056755,0.083585,0.15588,0.0077568,0.066123,-0.026137,0.06987,0.014662,-0.18454,-0.055652,-0.19995,0.10159,-0.048278,-0.29674,-0.54126,-0.20303,-0.13154,-0.0064983,-0.0038842,0.16183,0.42573,0.33969,0.41027,0.082114,0.30243,0.024551,0.13919,0.052462,-0.11468,0.031523,0.087268,0.18795,-0.025643,-0.035466,-0.15837,0.089887,0.19374,-0.071615,-0.15695,-0.087617,-0.24129,-0.20958,-0.052438,-0.067102,-0.084285,0.0041923,-0.20936,0.017446,-0.27371,-0.036113,0.15914,0.14752,0.09146,0.15536,0.15871,0.0072067,0.080022,-0.059545,-0.056805,-0.0093562,-0.021111,-0.19416,-0.017443,-0.045076,0.14948,0.16448,-0.11208,0.093565,0.078852,0.10118,0.041844,-0.040742,-0.11569,0.089083,-0.25451,-0.22767,-0.17476,-0.044769,-0.0090071,0.015685,-0.31809,-0.0022677,-0.16818,0.18699,0.13253,-0.12566,-0.040937,0.027569,0.01398,-0.14855,0.1191,-0.063544,-0.12236,-0.0017074,-0.01773,-0.00038185,0.26354,-0.21691,0.093705,-0.062563,-0.094641,-0.056082,0.026262,0.08044,-0.018999,-0.056918,-0.028769,-0.17879,-0.031274,-0.24849,0.060409,-0.12176,-0.062297,0.015576,0.035819,-0.026353,-0.06685,0.11455,-0.21546,-0.1406
